{"layer_0_weights": [[0.05484704459910083, -0.0752203054694481, -0.4633267810688554, 0.34629297222537536, 0.17912188358206516, -0.008014322203013501, 0.1275902728151199, -0.19151184027198082, 0.12839720689134676, 0.3979372609703102, -0.38154170635104157, -0.2612522110526812, -0.05691139517625804, -0.3665015160446131], [0.38778459231263124, 0.1791555019967328, -0.4838771404339538, 0.4367502912091545, -0.2742077713328095, -0.292276033770239, -0.11720722941142216, -0.17564677055933067, -0.08695238647577193, -0.14056922447050246, -0.22357514389673808, 0.3561830500839423, -0.34534952010761755, 0.07532879071727937], [0.24864565268434533, 0.26342588938382805, 0.13192712530985504, 0.4493219501666966, 0.21087313437267857, -0.44457539357558495, 0.45359552008375587, 0.32435490007598505, -0.1650830892368266, -0.050248504004094544, 0.16533544358157393, -0.011699013909067753, 0.1505570372868147, 0.13124008790397676], [0.318319994595731, -0.2874972920296816, -0.1081587318355945, 0.4121080454368485, 0.14328722191193455, -0.2946906080666008, -0.3687455710450222, -0.10245544760938646, 0.11740445835205547, 0.33614711593901664, 0.05125676964269814, 0.3636303349826952, 0.04077449079019459, 0.37073513083253695], [0.025995358374937633, -0.40665367264733615, 0.372873669404444, -0.11834013941881914, -0.21908163030620453, -0.18224145945899176, -0.19345311059716355, -0.398939668394218, -0.06520969624964269, -0.2150573505322533, -0.027985627197846728, -0.046021273632984944, -0.1851675826770784, 0.03936121369686375], [-0.15456771224403965, -0.28802145230780785, 0.019913201382562806, -0.13479622236679578, -0.33338738558944614, -0.14853170702112606, -0.3500295102001121, -0.12083792797620174, -0.22108168859718524, -0.29762578904136117, -0.10605570955038734, 0.1704873906948129, 0.1422103155668638, -0.03409944232615636], [-0.14550237470059668, 0.43019399390273294, -0.3161349448215234, 0.4825072638281134, -0.18203011768283148, -0.28822841438286634, -0.1038209489973716, 0.37470516672960463, 0.11107112205516553, 0.4717744517279855, 0.3851359022552779, 0.4023720621315243, 0.2993322970155368, -0.21078344505631694], [0.21598040606029495, 0.4567855989316874, 0.42998530197337237, -0.4317695978038922, -0.3632033217033879, 0.33986625558625677, -0.19773156653463236, 0.397273032327047, -0.3767789126529396, -0.06105707811432916, -0.461013094519442, 0.2577165719157428, 0.23606143947453226, -0.17659474175308254], [0.022090775799757073, 0.007105497163534211, -0.028716879841582388, -0.4916285783901244, 0.37813531657529104, 0.12563323373446333, -0.3785480347162629, 0.16376812615639064, -0.4514166167964064, -0.3602817076977451, -0.052683752536546204, -0.0015902438707943725, -0.45673976094921204, 0.22554789271845707], [0.15049605378954592, 0.4385740480431437, 0.13663847260924172, -0.49430154195441744, 0.21054637832926537, 0.2650730512492668, 0.007626244138479163, -0.03490851775941722, -0.3220928183194861, 0.26459826670217423, -0.0811513823080878, -0.422282123907183, 0.04533615530836687, 0.3376271732905909], [-0.032593781964907705, 0.42699111922441113, 0.25329872933618, -0.2658943805561232, 0.40416193311884385, -0.0708799449068831, 0.2996840932722244, 0.130987094115273, -0.3610646476753829, -0.1821117372269209, 0.20411118079030768, 0.1154478081804248, -0.2981082548254631, -0.4563790656085229], [0.4819578307985479, 0.4926655507467853, 0.48665120984868615, 0.3846596122039942, -0.10299336947926392, 0.3948169909561238, -0.16342693213523532, -0.3780237337745635, 0.35389517884790395, 0.45470960738737715, -0.4477882612749345, 0.11704274276895187, 0.18459147387402533, -0.1395344683959473], [0.35400118160419985, 0.17901475359494404, 0.2194981195231267, -0.24371265508340667, 0.36091169085986674, 0.1331409574065721, 0.47925382602052674, 0.2984003594394982, 0.13403427265637133, 0.2529180764387657, 0.11543159656511924, 0.4606408723135092, 0.32096724498655543, 0.3331746458362509], [-0.4871150902641896, 0.41583430105950037, 0.06208261076427815, 0.3775586771498429, 0.23296282471571558, -0.4298013531589848, -0.1351882923722616, 0.22587004721169912, -0.3494965080264451, -0.05963895042676726, -0.1475236401965692, -0.26258096311075285, 0.08761126017811058, -0.48663583290522683], [-0.07114693742843814, -0.20978300996124843, -0.22717308604097453, 0.10932526663144071, 0.061025639769946016, 0.3669467862337007, -0.12773314100649713, 0.44564443643905904, -0.08213425375395167, -0.4557578418958914, -0.27250858391399424, 0.06525056249205075, -0.0326436752893432, -0.38390873812258064], [0.49211158208310113, -0.38703426262790064, 0.16275961099497605, 0.43354248576624066, -0.29484593508963464, -0.49449531946230446, 0.31680120450770716, -0.3792757554651892, 0.14674014622964102, 0.40412476033097705, 0.32786269647056715, -0.40453466870318167, 0.31357413150612484, 0.34971183073013173], [-0.3042762180763222, 0.03949646093714021, -0.06341909466158124, 0.07575694551604262, 0.12559845953006443, -0.3125929095217138, -0.4127869214133344, 0.13530253061076825, -0.4708747290626698, -0.48834353808250086, -0.0646502992072715, 0.23282705775314405, -0.08007210332058168, -0.3080179012715685], [0.08236349035044284, -0.29922958525397975, 0.3535186397160018, 0.3837687153390271, 0.20005814241918904, 0.15620604916339495, 0.04291219227913872, -0.36242856962608533, 0.49103473247019996, 0.21180863705800532, -0.1984965907026443, -0.23359345261778575, -0.2980405416904462, 0.4573115684051005], [0.37732578537516115, -0.23566411377252144, 0.4350460118630967, -0.18622113563392348, 0.24051683051487763, -0.4840337800575402, 0.4993897706383703, 0.13767741652127363, 0.005138962821430866, -0.20839994110020477, 0.2110738149100666, -0.4752821243202099, 0.33247733468124385, -0.277360961197587], [0.43359201064568376, 0.44393752120131325, 0.4533602044493476, -0.40224075159003864, 0.3575574778528125, 0.15829232882901878, -0.4533610455311918, 0.20229356518100566, -0.07615880818185612, -0.32823652800845315, -0.13000497099998812, -0.42352390818882835, 0.0050992063134162316, 0.32885288577740723], [-0.15402300231026536, -0.23546017887135862, -0.3013556697248158, 0.36498211997782126, -0.346504771420514, -0.007503652657164138, -0.045878451438144355, -0.2997544153476549, 0.04114389551341984, -0.27487786519242075, -0.002883930515023353, 0.1646211490513408, 0.238562691792399, 0.28266693762682366], [0.3818926789463731, 0.2792912396143039, 0.10642109398999074, 0.18353959689887528, 0.10004314793136611, -0.3371469762638959, -0.2258527775014707, 0.11181312986000133, -0.07552765752525459, 0.05247662727586675, 0.3245645614709069, 0.09716191657535353, 0.06370535657588489, 0.2904150057742949], [-0.015498247387312768, 0.27819281040844784, -0.23944417835028364, 0.022469113894793943, -0.12098890389901786, -0.49972386010093905, 0.38615225966456224, -0.40245392782049055, -0.3104604115526018, -0.26653413649127367, 0.31515100558910103, 0.059285470220961166, -0.29949218783525833, 0.21965216528774378], [0.27926743608669186, -0.12808397123362242, -0.0826921953911992, -0.014675824401838383, -0.08624095459441677, -0.25335856502318255, 0.11841383059184758, -0.1891529470351513, 0.22437259911021762, 0.17644594549197132, -0.2857796567403693, 0.07298702360281663, -0.4714474794056682, 0.3667435562643916], [0.40341616204169706, 0.2486709388806704, -0.17833192003481688, -0.1362979492202762, -0.4345437154266876, -0.10970979180190188, 0.42351612302471375, 0.44118360705563675, -0.4394845284469102, -0.38119572149548697, 0.11806165541027211, 0.3801757110950479, 0.1738166820894187, 0.14455356609706288], [-0.4857254357003268, -0.19236660093580224, 0.38525833015126115, 0.21483391960433654, 0.2544559325011678, -0.040634974776333085, -0.21089569057219845, -0.15115462455526807, -0.22620438736990284, 0.2843211630044488, 0.34438432935899094, -0.1742139322202088, -0.08478392962424858, -0.27392105699256986], [-0.11481569860166241, 0.09344545188638465, 0.1449324859665837, 0.20133496902613224, 0.12546576137582108, 0.06493244980998732, -0.3332634559692141, 0.42415296716680184, -0.2277077906356074, 0.08838353857223119, 0.1983925557714066, -0.033135615668552706, 0.3345441644770007, -0.16576564456866513], [-0.03289615851878983, 0.2881221324214493, -0.13568132278377615, 0.4790015674190322, -0.2165692820433105, -0.009320262008651388, -0.07989446812160168, -0.34476456087597934, 0.2984304310085608, -0.03901130452918568, -0.373534538323407, -0.2740998066038236, 0.41338238950753137, 0.05195815804092597], [0.13098164216386643, 0.23928749561397583, 0.41207329674770715, 0.30742166335567667, 0.047328366787151216, 0.4995040113528514, -0.07329318974690155, -0.27410979052850326, -0.02740550137428522, 0.301155860809405, 0.1752724936606299, 0.04738314533928132, 0.11301799480550552, -0.0362445187342107], [0.1376945969592161, 0.21302292501224876, -0.4622571680646832, -0.08788699618927333, 0.17528527029636615, 0.2394841418638747, -0.11233101437834966, -0.1755517983413984, -0.31058100915107056, -0.23212832765973745, 0.12661669590538682, 0.49305539901653267, 0.17950551339555565, 0.4861822454359056], [-0.19063284180886853, -0.03269523583238976, 0.13997550147493099, -0.46643346957049137, -0.09387708249176319, -0.15501395868971035, -0.4454875919589537, 0.20697256580489132, 0.12619933155942575, -0.3412519503481486, 0.17067674755578588, 0.1624160248735399, 0.0820233768359786, -0.14036682375688436], [-0.3892956331565901, -0.21382681733469638, 0.05905180467138896, -0.4467609607752328, -0.32415355036734117, 0.26802345927747245, 0.48302334052376716, -0.29954874673451626, 0.2720302910286927, 0.17502223284355672, -0.1866773355051618, 0.05914732131377482, 0.21896846448650964, -0.008853711340369927], [-0.37215241370510066, -0.255093249542628, 0.1616451461947206, -0.32341787434620584, -0.10338210632253558, 0.4366664105405815, 0.3100049358456342, 0.008744157717333542, -0.16292776195278202, -0.29209969082765513, 0.48834897412141026, 0.22373210166390586, 0.41066193276460267, -0.14502954410288485], [-0.44011854925231947, 0.09852172336482146, 0.3568899237468812, -0.032213933029705245, 0.07231905810090995, 0.27809821849946176, -0.08539725761872123, -0.4966803887338699, -0.12896284480518516, 0.40862065879394854, 0.05269428167476929, -0.45869740785328084, 0.08375759651364655, 0.3436284574539319], [-0.03416235866004693, -0.042861670814148704, 0.3066108262171452, 0.2547537685464246, 0.2570001250754174, 0.16602354292053217, -0.22952488113134464, -0.22152348239811373, -0.05548080080007682, 0.3220931762365279, 0.24564239023830187, -0.15165858572828986, 0.3599843774005243, 0.35607806915367174], [-0.2836941546916559, -0.4212538402256732, 0.43780230844619616, -0.2431212456847624, -0.01832032918599303, -0.4380425720678327, -0.40753043489677854, 0.2022932861557036, -0.4657680610800181, -0.09255438995320675, 0.09445904295090553, -0.049255556840558844, 0.2365147333265665, -0.4209808678530842], [-0.2130837981812277, -0.10276340836688713, 0.4087439746977788, 0.39909021748849133, -0.0028565858323261464, -0.4370440902158206, 0.17942334548414016, 0.13201620561847602, -0.4637735615198482, 0.40729328527395303, 0.3160288279067769, 0.3191823972872549, 0.20203398962704108, 0.43362720227865326], [0.2369560532468746, 0.05327351894125208, -0.021513161698798685, 0.380342699111202, 0.270587372622137, -0.21517841770650942, 0.26317887064119777, 0.4499821144397351, -0.28014080615041287, 0.21491242600775687, -0.06669918602184616, -0.43328394493568606, -0.2193100127316753, 0.3796688460045739], [-0.07596551847572795, 0.12517066916229086, 0.45176372968818407, 0.30710787393264244, -0.3197374877020307, -0.3721561754836137, -0.14405472403647224, 0.49446861534788383, -0.4251566215597809, -0.38537409979529025, -0.44036088459584444, 0.20875346212812274, 0.4566771508322493, -0.4397301665842419], [0.2375529106977605, -0.03019463372501183, -0.022417934621223858, 0.483277702394461, -0.4424456801315151, 0.01663210446837758, 0.40484300096774284, -0.28557914857121747, -0.1438825279444477, 0.22581535598183686, 0.1548628721906665, -0.36338274507774815, -0.03947156533501942, 0.02281501981475639], [-0.10105196577022052, -0.07113283957712196, 0.3420928263210383, 0.18964129488873552, -0.3956929807150053, 0.44309981995374453, -0.21174157485023953, -0.07230508720220905, 0.3862394182680886, 0.250000505699429, 0.20794364983061006, 0.004408910192625376, 0.40096911439678923, -0.3347696564376762], [0.4612558890148402, -0.25298125890225565, -0.22701761405398807, -0.16837868032979267, -0.11869780065968612, -0.30172426139711744, -0.48277725922422376, 0.09039076457379203, -0.2379619520809554, 0.06009229189058659, 0.3216081951282641, 0.2948770629441371, 0.3922255554840398, 0.05168240098187754], [0.27849860047308067, -0.45901901030526576, -0.16335051613042167, 0.2409132784120141, 0.4906478703712741, -0.42680009741478, 0.4776369562635815, 0.3698681016828672, -0.24550548009789533, 0.31197583419857977, -0.2717016278792373, -0.2257552044946624, -0.47388404010701685, -0.20116850238347497], [-0.11080057209709666, -0.16014661999040344, 0.03123429766007154, 0.3899612459628057, -0.3346212359556286, -0.16563326991211963, 0.246324807121788, -0.13812378348944965, 0.21137028166431648, 0.43653522543033835, 0.26358173122846257, 0.2947580267936493, 0.24361336126696453, -0.18929994808200185], [-0.29653290407794747, -0.37283102197178597, 0.3412602859847673, 0.3518811962583627, 0.15359864845655719, -0.11752930211943448, 0.26792465055255965, -0.23867472003797296, -0.2093994836522105, 0.008358633883200177, -0.26364090755446634, 0.47157745639710363, -0.38194211027308517, -0.01122676997174521], [-0.355659217157927, -0.15979285409292412, -0.09629319862921716, -0.3147336744647093, 0.38752095676204223, 0.22353799917261566, 0.15964039968062788, -0.13520954601543653, -0.3899662633974781, -0.0700505516576889, -0.24084701275608777, -0.05117326007734417, 0.13439785155926684, 0.28648217691936817], [0.2703064098312189, 0.3997738556139178, -0.22426283687247447, -0.19408668110436186, 0.47736349872757833, 0.22779050939213444, 0.4069150661998778, -0.1733181220861122, 0.15550401266104522, 0.4609409396375378, -0.49288648643712757, -0.10844870616443257, 0.3991991046273752, -0.034557410082902716], [0.03691012843203007, 0.39970046017284416, 0.09355731096470019, -0.011799893953671493, -0.4940518012471868, 0.29293775176684, -0.21792397673324634, -0.03959965223667249, 0.19011042495390568, -0.21742327221110702, -0.40598413078516565, 0.2581975399613153, -0.2288741133241932, -0.398748871081825], [0.4789359209558003, 0.47428885218850486, 0.07920437302114466, -0.32836172731503277, 0.32316789152978365, -0.2298534642010627, 0.16182704962047464, -0.498807311628891, 0.19588787726296158, 0.039902118287943364, -0.4783229715751832, 0.26196957474372856, -0.4937192499707751, -0.16285268242074383], [-0.009099553471245065, -0.24586426925642713, 0.2459431566566113, -0.3379227463319795, 0.493436541937134, 0.4265514570824456, -0.3139844748731794, -0.34300892407342487, -0.40294981760841264, 0.22249231922425675, 0.29415414614374885, 0.20389260367744635, -0.1282126712314689, -0.251706563384077], [0.22492451043462666, 0.26146781878962955, 0.3510947255743291, -0.0627002548833783, 0.14604283787504738, 0.37638064478012273, -0.07511218607982235, -0.010449732846806021, -0.05777946942116014, -0.17511013572645215, 0.2784473285549035, -0.30235975684280775, -0.24090672807585264, 0.044646302705372544], [-0.2988137781447608, 0.23967541006198864, -0.14516527896503553, -0.48901980786371274, -0.22519440159701343, 0.46764300118953644, -0.37001627801229614, -0.3061141305235787, 0.46179777991699866, 0.31106450557385557, -0.3064634797711139, -0.305059677780948, -0.32028564880134514, -0.2287126696006665], [-0.22638636344561247, 0.4332244547203745, -0.48188438655350896, -0.4183671497807705, -0.024906955927744903, -0.058303492721339556, 0.1430569607965435, 0.004421036026238121, 0.4857488182796375, 0.027864350082950764, -0.48497246804010263, 0.42545837294638567, 0.36499584774760274, 0.2505613047482422], [0.32392022000608583, 0.10324181343533678, -0.24748979790996173, 0.4496004975192322, 0.48249368060720305, 0.1644263381414738, 0.14473942266145787, -0.09421441484929217, -0.41517671466531586, 0.39117562150097085, 0.0403115785470747, -0.24756093815640215, -0.31508086334732155, 0.0703975306990943], [-0.3083548127708935, 0.3509322126075066, 0.4483429012279946, -0.37091725895148797, 0.022165922015770376, 0.24888367359939434, -0.18215012052173157, -0.09055427222395791, 0.2865702400958718, 0.1373396144286329, 0.4131132585711407, 0.09898737179762893, -0.09676408180093136, -0.07624411341784727], [0.04140135781639753, -0.3208684670295181, 0.0230278166664879, -0.08570440807416468, 0.086088186520345, 0.2373120165796655, -0.1565928189717931, -0.40198337569643783, -0.3352851349784306, -0.30027714299532293, 0.13289951877909612, 0.1608731966199165, 0.18414680794117821, -0.422291249977391], [0.22738597582577155, -0.20482528271237427, -0.22533046000809806, 0.26363370534121283, -0.4693076968358799, -0.25379611282966974, -0.21945393332149898, -0.11634351840586718, -0.1637095064733767, -0.4335573508129422, 0.3436311738390133, -0.20228236668610244, -0.11238507986425844, 0.26926809768001003], [-0.2871139179065514, 0.2854327587073821, 0.16326155049896793, 0.26901342661927174, -0.3408056488350415, -0.04473012026263436, 0.03051216566552034, -0.4162684907938402, -0.4050519934117658, 0.3976166664154767, -0.032730304554385456, -0.4119312767736303, -0.23541752730021848, -0.30382638498902154], [-0.03600961280050304, 0.26703510072865594, 0.3707169240870085, 0.1094235719881824, -0.16734720182737467, 0.42682844702276335, -0.031968703768542966, 0.18533484884430632, 0.3789140723467423, -0.07001335029859533, -0.27877939910408533, -0.032561880455555116, -0.36404860648304316, -0.2942875312839213], [0.3424771679106284, -0.07222332081126548, -0.07439233327586543, 0.13075159869498842, -0.4470810561826224, -0.48868394521979197, 0.3621610789763716, 0.430859767179806, -0.051960978167457865, -0.08363536291230582, -0.40074847993084994, -0.4900650501468604, -0.4725025959012361, -0.23417040612153844], [0.13498987608235355, -0.42388401418952987, -0.391097061587902, -0.08077958270342386, -0.4136504118966089, -0.40857388248560783, 0.2635467607698727, -0.044712344058857406, 0.400096447880113, -0.18097400304408287, 0.35751839165202715, 0.2591712315122252, -0.06083849937295295, -0.4619613249990075], [0.41737022363095266, -0.04115231525675345, 0.2841195882736341, -0.4325152500783011, -0.2942685466041099, -0.44298373546985875, -0.38389439233740286, -0.2739179141792327, 0.1563249126052281, 0.27314395099788064, -0.05646405577583789, -0.19483737072595586, 0.2465102472577169, -0.1681782427390461], [-0.06055122097785082, 0.1389616211651601, 0.30487282835472307, 0.2820865537718986, -0.25260937662670313, -0.21470640553388654, 0.4844493688091649, -0.346382859923114, -0.4909827099573729, -0.4863461945806936, -0.070959196642151, 0.16086684118148808, -0.33047739587861613, -0.37125882089911333], [-0.4866407003055112, -0.21816679888231105, 0.42446171992018755, -0.07600830235756839, -0.4456717127110935, -0.17678421693394264, -0.1979258821136417, -0.3986961572570459, -0.3549660656098246, -0.018902802827749032, -0.43318826202458505, -0.07081206555146102, -0.033232176940926506, -0.2769989387108358], [0.2628635109991652, -0.3845615502162127, -0.31772837111549984, -0.31596118271675255, 0.28442987397849756, 0.3549213338461033, 0.07609963552301022, -0.22427481179813283, -0.16632664245591283, -0.06781998373168048, -0.36949520398989155, -0.1370871580787484, 0.08107135738865931, 0.42647587431956807], [-0.32529466897046827, -0.20188696111598475, 0.04682765331008958, -0.24829509450017806, 0.1283244031276418, 0.02548099258370447, 0.4888437687271694, -0.14764456098770234, -0.29218051910857024, 0.34777172039493276, 0.41901602658385445, -0.04221304790688195, 0.30726141655389994, 0.04821474759102336], [0.012767848602388594, -0.052888194655021835, -0.40057884665477544, 0.3566145630493545, -0.08454386570585487, 0.22339240599582094, 0.39195185945717387, 0.4110128952125912, -0.39287329595837006, 0.11347911719278388, 0.44151127736989393, 0.45021799969681364, -0.2856107950328986, -0.4767593619302245], [0.25441544848690156, -0.4162453837373957, 0.34352497303129725, 0.11809013466586145, -0.13531599483153617, 0.44768361859457506, 0.004193428957700233, 0.4569124811827636, 0.27919285043237374, -0.41702995552468336, -0.23697211194996867, -0.1909530545078946, -0.08655556230676067, -0.33071266504534463], [0.35616094641333484, -0.2640279566230273, 0.4633630517072727, -0.3881614025768069, 0.17553247835609886, 0.31437367803405863, -0.2633081375039047, -0.43418768560055765, 0.25536380200037795, -0.07919908094722408, 0.36806800353817376, 0.1345764379669461, 0.04889586686960684, -0.28592265318147475], [-0.3364735555796422, -0.3689220736342886, -0.3116414800157488, 0.22461267765646117, -0.20151273581530083, -0.48938352342543157, -0.07776717894448663, 0.18126204316041378, -0.3016169341870141, -0.390255646536218, -0.4903341318676546, -0.29509252591040114, 0.11692710201105688, 0.10815503444581145], [0.07221893951949909, -0.13929522102590286, -0.06189832988187893, 0.26807683231512824, -0.3560682784876231, -0.08938802423375725, -0.3705212072401597, -0.2757203908482203, 0.18216941239063333, -0.13636702098372344, 0.33542943602823316, -0.3078811305963902, -0.36239638635814764, -0.4635496135301922], [-0.3387289356960915, 0.3750195131599406, 0.08294679111093846, 0.1212669793996972, -0.4784579509544436, 0.1330166349572474, 0.11910776882244956, -0.23023313835400452, 0.20354175778137906, 0.2691817293206251, -0.21397806795817623, -0.1814646888014014, 0.3270273401181453, -0.3014664794984809], [-0.49897084005750764, -0.31375356483115263, 0.4102924404310526, -0.4832216543319989, 0.11111889343638119, -0.38383874577643246, 0.1740000634613537, 0.15419431857640498, -0.49267064391191195, -0.15648420077535613, 0.07978022409661444, 0.043776660642192516, 0.07685854298864496, 0.3517773884703166], [0.015990796923305992, -0.35691385913097556, -0.4073619760299863, 0.18843665270546528, 0.13923589170791761, 0.2869642340793784, 0.3640712233025441, -0.29052915276968266, -0.2705406306563198, -0.03461701575982993, 0.41201795067117225, -0.27024415248183803, 0.27772202646634914, 0.4007342976353038], [0.25807882781992825, -0.34942429482231696, -0.03215406256076534, 0.15707723027011603, 0.06888826377958315, 0.494859014975611, 0.31016331122418805, -0.31476567379765774, -0.20631508235599447, 0.38459852398236993, -0.49029947206614194, -0.19941515805285148, 0.09536385109498484, 0.0019803204064539207], [-0.49812998528800334, -0.27877493256706054, -0.020901027268789063, -0.06166594621466637, 0.02447875339515415, 0.26632517639967745, -0.494206713018162, 0.15066280826511647, -0.4130616017950426, 0.15959506146339464, -0.4825730672023577, -0.3485226481549707, -0.09556180933125147, -0.4881936988116554], [-0.14732791570176246, -0.46293413386087484, 0.4412731867447015, -0.4428318512800068, 0.006584021339203522, -0.46306293110379226, -0.16908187627056073, 0.44587552325229174, -0.2615916807312735, -0.011372487226905722, -0.48796087541900734, 0.32315641098649894, 0.326899382928555, 0.11189761654506136], [0.22723595910723654, -0.34007896693921685, -0.3128795479075711, -0.2670833153600607, -0.0832210728556513, 0.044546167868588206, 0.43752413933002465, 0.22680644756245003, -0.4674674594130269, -0.4930990549530882, 0.03805433392780344, -0.26836158289255063, -0.04294824815894707, 0.23798226877948048], [-0.03919517714856181, -0.21406304164562087, -0.47140246115661644, 0.47462825026359595, -0.1197902673364998, -0.15795217873493816, -0.4681658571645827, 0.0465912325006587, 0.37143198109071934, -0.028109413784788075, -0.23762379380855078, 0.3263705130379435, -0.1452452308188764, 0.496763422240566], [0.2574273283473077, -0.05890912480266739, 0.2661787398096061, 0.1438935190380038, 0.4421468858039709, -0.16676244375310492, 0.15993907512956818, 0.039232705377157534, 0.02928818508529656, -0.04341254511957541, 0.42686613315685207, 0.2541486159110751, -0.46354331354838074, -0.11963042543221664], [-0.15173532137089954, -0.0029627356180937, -0.34490302826478425, 0.12006316332374381, 0.4300858289985545, 0.1894580176943075, 0.3136130814024863, -0.27036768590410987, 0.4462785038129917, -0.3209214524376327, 0.21183759095573743, 0.2213272326254342, 0.2839713645421791, 0.3022937894269269], [0.10719473259425125, 0.139484666069062, -0.2822095023399318, 0.006543354112766795, -0.3289499108988141, 0.20714971350084166, 0.32694703706335915, -0.49633497087349776, -0.1557047869711957, 0.14457026648919039, -0.09605790157662958, -0.279939801961664, 0.029074632389034048, 0.3185417660035419], [-0.28280489940563935, -0.06103135224112055, -0.24418776746781357, -0.49559812079189614, -0.37169910849395227, 0.04427837409620339, 0.31611727897299247, 0.4578133043200613, -0.45886329017510896, -0.3646957600320778, -0.08470288810868398, -0.17989294662242028, 0.24374142688714995, 0.08295217948136147], [0.4898023065503876, -0.06934905064383252, 0.23537026025952731, -0.480775536396524, 0.4440148223791939, 0.21660990432998073, -0.03500743854085418, -0.2089287201656608, -0.12433491661197514, -0.009698825316239416, -0.057388280929064575, 0.3207828000402674, -0.43867183861055076, 0.07292420164189478], [0.2463185444110581, 0.20173636624199243, 0.45107097817648995, 0.46409738120456845, 0.05241840703070577, -0.23025831435702673, -0.08548052142884241, -0.3748263334665418, 0.36918740912418657, 0.4744131368727379, 0.21984873756758008, 0.47007403208598064, 0.12970720451538617, -0.3656045991820153], [-0.22810696068823222, 0.30238459283244123, 0.061684702235503736, 0.002041753804994839, -0.4633852119018467, 0.25093578618412044, 0.009541900079487423, -0.0050021080823873295, -0.3935886749529212, -0.3350316413969269, 0.367630512851765, 0.48026564510781566, 0.40818349705783447, -0.24005330789088078], [0.4364854506526941, -0.008532240902700251, 0.2097711092153783, -0.33013963445096606, 0.07509062895075408, 0.15673017222568153, 0.2761247654264298, 0.20166115485424585, -0.27815606874953064, -0.4906444565182311, -0.4699607402912346, -0.4254749749247277, 0.48704456323571194, 0.29427404458011786], [-0.0506210805863545, 0.02229022803857461, -0.48566610054581116, -0.2538815734066175, 0.11404411396632652, -0.21377433955390368, -0.43233284722942095, -0.2235522274475652, 0.2618883561003084, 0.1493187922066915, -0.06696553637448555, -0.10047715049640682, -0.1330302952425123, -0.06240431138714877], [-0.42721241786815106, 0.19505807971620184, -0.046311699410323065, 0.10791212564204815, -0.17195544476937225, 0.0784717008157539, -0.033856095181635154, 0.22012812348368657, 0.2515235605706397, 0.2284487568131104, 0.30885015766800367, -0.2804230692531766, 0.39122868539510736, -0.1448623903558088], [-0.08909594216041755, 0.341845720913502, 0.009051289669237468, 0.07285979381631599, -0.3525612910175644, -0.04493631741306336, -0.4800750582030599, -0.2883087279047188, 0.10363106732283008, 0.04267849861872727, -0.24970816597825113, 0.1416288731499381, 0.296057000165673, -0.28200867031403537], [-0.08839761175947633, 0.4485689549912922, 0.062158458265219235, 0.1899697252716442, -0.02780044165617299, -0.36856556705124316, -0.4734078253874338, 0.0659194130997643, -0.38689084632572573, -0.2199509488711679, -0.056393839081146396, -0.13687665057702966, -0.10355925362172466, 0.4267683136365973], [-0.26368001918501377, -0.09459091612133308, 0.3041245072507521, 0.07404547342076018, 0.4124727953760229, -0.4542987803186848, 0.42660077370688276, 0.06148759829949667, 0.16529806363776356, 0.18482212189417374, -0.017675133611292165, 0.09612781927188287, 0.024189303942416952, -0.16747280628843772], [-0.3391602540116308, 0.2159459910339139, 0.40557556271701684, -0.4576222877540657, 0.40168087978412065, 0.11374237186551467, -0.4955749977962455, -0.2670904471555493, -0.0448761010237319, -0.08349577323221595, -0.21659880060528863, -0.3186383723511417, 0.223954243490091, -0.164961899127122], [-0.4498110812776602, -0.2494717670948967, -0.13519254921580207, -0.08076525011594143, -0.3312363275195197, 0.49940331336098703, -0.2921498292477936, -0.08113464660831282, 0.4343653881153105, 0.160005019839189, -0.41522173904054865, -0.14162546239524276, 0.01709986431501567, 0.16786536099603838], [-0.023135704034439073, -0.3789054545017739, -0.43145262991239125, -0.3562445420307425, -0.36194408528250815, 0.4483155636354363, 0.278399021114322, 0.07526629787029158, -0.051423874999128774, -0.13792970366404947, 0.03933421789942966, 0.3867184256860839, -0.29276125376849704, 0.19835065915968486], [0.04350222061860533, 0.16309726799754443, -0.1778081292375995, -0.10290809558668816, 0.10626955430336735, 0.2584548935547823, 0.36382441031078416, -0.4189287279451663, -0.08829942633931023, -0.41937795199631905, -5.779369387866211e-05, -0.36693185422921376, 0.17927939636138956, -0.268144103294781], [0.026480272817960327, -0.2027231544576141, -0.46514790279855905, 0.3064749567924643, -0.11703957118170248, -0.25785243738163277, -0.4328785758942213, 0.39866285891256203, -0.291248420789852, -0.09997603999603186, 0.17251431265401507, 0.3244284086558657, -0.46606244290920906, 0.02141997687713463], [-0.1675311069872747, 0.47577061477762705, 0.20880472507180237, -0.3316670106900974, -0.274947801014097, -0.1906532186873927, -0.19839192639417136, 0.17602150112569515, -0.059888860332493854, -0.2136548764069165, 0.27754065192658217, -0.3830353833915152, -0.3997369055332066, -0.44864165156753466], [0.4525293845386418, 0.4460140366075106, -0.2304728337215243, -0.270715419062035, -0.044554702778494604, 0.08491401532704827, -0.15503746646625183, -0.09412013126840527, 0.13228216308023824, 0.1841116101170801, 0.2734714418892072, -0.2336850255977689, -0.10328741831386162, 0.3478543969510937], [-0.49650121638088707, -0.2781210503487497, -0.3621792743008587, 0.20055831790349263, 0.17464901241175457, 0.32517986808471444, -0.012980793615246178, -0.32959969847578874, -0.47169165665791873, 0.21703497628951515, 0.33516782583549126, -0.17272733778695606, -0.15930625759040196, 0.0453707739930024], [-0.34487001827122626, -0.043361225799323236, 0.0563583883237643, 0.4665629663136648, -0.08781288502127332, -0.28298328118939425, -0.15775602090385302, 0.28689342618253943, -0.25089171050852377, -0.37137122594353794, -0.14232757105053437, -0.21183308977962634, -0.2546221023602778, -0.16123364848402824], [-0.47116237826018303, 0.05587479878987939, -0.23819689645300657, 0.2817554091483024, -0.13893384951868384, -0.010792480524520873, 0.24923415244745648, 0.1718982592299543, -0.4024866979220395, 0.41067370246716917, 0.2520484163030323, -0.07128009558877535, -0.0756445267496894, -0.40027146458188356], [0.0659170522421684, 0.2815642654783674, -0.4773681433604857, -0.008063991092495634, 0.023562440760284405, 0.2473005991465236, -0.28881338252015676, -0.10780851519936555, -0.1591517212201216, -0.23548936607672485, 0.1863383403129693, -0.4299397028488565, 0.34254738398100265, -0.46533534037829244], [-0.221799629023176, 0.2550477828617477, -0.39820812044405846, 0.433767022133622, 0.41940124301747717, 0.011110809774945545, -0.4086083798579092, 0.29295595673497576, -0.1468995354357234, 0.3424841068673212, -0.2883914188625902, -0.2998514858315087, 0.38270733361008596, 0.4439947182598953], [-0.4765420603838725, 0.48294336203374655, -0.06756840760945403, 0.0875008010591361, 0.37776787401819145, 0.1418556931896116, -0.11699542406173849, -0.2878898597944992, 0.00025853977357671507, 0.15252579466215002, 0.30679414292070256, 0.16190489046076953, 0.36002574730037334, 0.31505902184469825], [-0.4790205363734928, -0.3195163885176487, 0.24490577855804962, 0.025413121069737036, -0.314541335129635, -0.12094285958437313, 0.2436820123342401, 0.2780710489321734, -0.04341737746619018, 0.4554942067027379, 0.07327835110419828, 0.4492949837705347, -0.1792000334626801, -0.2359090200863828], [0.41552070526291374, -0.250098012747006, 0.14846961635973407, 0.48954426086382297, 0.05918226433930914, 0.0003169924570081363, 0.09128324806707488, 0.457113186847163, -0.08740775678927022, 0.026183694248626162, -0.35222089621281155, 0.04891922367495827, -0.3089244546116877, 0.17771070776277378], [-0.017598241704467537, -0.2339703860303533, -0.213056242648252, 0.24003016472823177, -0.25183203174411717, 0.0077039586004729235, -0.050026039683269796, 0.23269968717647385, 0.22362465811680307, 0.13172298801434193, -0.14245411724698384, -0.4414909494499105, 0.08397055023679088, 0.3160788078215342], [-0.10097637702438012, 0.34363276531264236, -0.12240325562660935, 0.03663921010794062, 0.2953236956234265, 0.12939037881359947, 0.14697760911037266, 0.3912862072546502, -0.3165022421111234, 0.38374100165949776, 0.43041340958652113, -0.4558427764286599, -0.10298304054657928, 0.4592879926957762], [0.33119733544848745, 0.051633068201962014, 0.4382477058932351, 0.26843000499993397, -0.2860785019908388, 0.26210041624471264, -0.1395093422714079, -0.4236060697819683, 0.1591942072208518, 0.18870706284844863, -0.44098617902367315, 0.49045664671136674, 0.4328268634734826, 0.3825308976578956], [-0.45938477981079856, -0.2095681331286413, -0.04705236241385497, -0.3269369887124043, 0.3034929784277406, 0.41479530772527196, -0.29670121194695503, -0.1636988628982248, 0.17992020494261163, -0.19106458413257135, -0.27995896215358707, 0.35731808681122446, 0.3349460773872132, -0.015171720763659786], [0.3316219481568429, 0.408404300238008, 0.28078572274732383, -0.20117092908989342, 0.34894331823575614, -0.13424715045625538, 0.4857430751896282, 0.03784058787559226, 0.09782509883071555, -0.4933847547372911, 0.15546823386778177, 0.16096017276896168, -0.19232962285604485, -0.4662454059200712], [-0.11315809241060801, -0.16000333726440696, -0.3094558464259538, -0.009304868102832665, -0.3670835000215246, 0.3183944772958764, 0.0988087957126284, 0.21068086099776942, -0.48786566805867965, 0.13316537747076543, 0.47840788929715417, -0.30363750948464596, -0.24409231299192644, -0.18731140486717368], [0.2560838952432214, 0.07852873550575343, 0.3341517201485006, -0.31857690183837856, -0.17900376536623444, -0.047315922283648525, -0.46469168246977954, 0.04653578511880247, 0.47332385692669565, 0.0005570516440930882, -0.1732003198362312, 0.11904814111431371, -0.06100016883174547, 0.19531568595531587], [-0.19338339651115105, -0.35854118783805156, 0.3350296477354075, -0.44363519753932823, -0.09577697779529151, -0.35812871538972163, -0.19918393096646259, 0.4565751138435151, 0.4795621333886073, -0.3544931061682259, -0.4197415945924973, 0.29635735325857987, 0.4817676852640604, 0.39969919476575727], [0.1743188357605776, 0.4363092337434104, 0.3388944613530962, -0.29027215846907367, -0.15052573541122058, -0.047969015110333864, 0.07986029881279139, -0.02328150991852172, 0.21792875479541082, -0.4830031484087429, 0.485801901460433, -0.05388077042130386, -0.48596083098644094, -0.19941432248731253], [-0.2998617290670913, -0.008619976237865656, 0.0959044680780605, -0.13108597887142853, 0.15352117655925165, -0.0901485413673854, -0.4893734528327818, 0.3705049172260761, 0.16139323933231317, 0.43409782297113786, -0.4725691148755531, -0.10277516266362201, -0.11058110645338784, 0.3947182327959578], [0.4863877842491588, 0.3279080832941731, -0.17042127332563045, -0.03972914567465901, -0.3584574441149954, 0.22610619987095434, -0.12448727274338292, 0.17946245947055475, -0.10201574786988125, 0.3755484018390868, -0.06686152531839941, -0.01799018892390103, -0.49620361632850735, -0.06453749125709991], [0.41837107904345766, 0.3338221818183667, 0.09035575073311387, -0.21203912568425431, 0.14145723451145104, 0.17756529794616074, -0.24536757350029745, -0.0019033667337704772, 0.4811490396329783, 0.23846444503404643, 0.48301201089087686, 0.4645271162301715, 0.49293104066519766, -0.42749702701429765], [0.34924564680900533, -0.3067984852172202, -0.42815313720809256, -0.17633024644732462, -0.414106555750724, -0.2224180200837731, -0.22339456049385778, 0.09047679495431818, 0.4536984302426209, 0.2373104486605053, -0.17097606470733948, -0.10442623085955675, 0.30259271785424824, -0.13020389239438737], [0.47642740963572333, -0.23216908483587131, 0.17482149760504032, -0.43105531330947583, -0.4665186533982276, 0.04745694438223458, 0.2610102159859259, -0.39814685792180493, -0.40360072019139176, 0.07344474123160556, -0.1495351009738171, -0.01968627576746534, -0.49669881187167253, 0.4640440316298966], [-0.38058324086264905, 0.32293079553260223, 0.03401105319547225, 0.2662594964204139, 0.15927656443421398, 0.2331738240458667, 0.09908148658251285, -0.2695372689825265, 0.07995030546884076, -0.059124389724802065, -0.06793722358176955, -0.17510433530140668, 0.035076588703501985, -0.027596318805930036], [-0.4471494484748001, -0.0012026670915176126, -0.3221374539489912, -0.08520237309065931, 0.11045007323339394, 0.28087528488832536, -0.2951655948583307, 0.10989939018001756, -0.08435887353851404, 0.13647724647243445, 0.42375943175933395, -0.18147105059909827, -0.012668800517352865, -0.06803586920359284], [-0.29510815660598605, -0.4647223249542514, -0.4264320833668891, 0.019923759826589407, 0.018068344710308094, 0.07720641709714102, 0.4187073524261666, -0.3752926789012253, 0.1534550785594929, 0.013788345962170814, -0.35228791798269865, -0.07113794287915295, -0.03389285452091706, 0.38188896887209306], [-0.4855672300559743, 0.2257869037305631, -0.35610684985864305, 0.018916865024333686, -0.07505016472173841, -0.4415302097183803, 0.40489884868640985, 0.3724804891052986, -0.36257081689948784, 0.18892905884057556, -0.33322408107038615, -0.24942996674974716, -0.09259686724362598, -0.026756175563283812], [0.428344666483745, -0.22197556775964994, -0.25497687268740754, -0.34213964940317065, -0.3563829214169154, -0.262460942776567, 0.32237016069583563, 0.21746822691490558, 0.06913557371536165, 0.15711073081363475, -0.2430859253208686, -0.08169164061942573, -0.24577314114306018, 0.2512264611931742], [0.19924192432235868, 0.2501581239085522, 0.3592802240640886, -0.019858301090581735, -0.24528256690524927, -0.465319152249889, 0.13065596253719822, -0.35587768736182573, -0.4845030691099373, -0.16464350889402574, 0.46946524660408007, 0.2684703181004696, -0.009709488936735488, -0.15895291584257198], [0.26017053004606516, -0.29254929776782856, 0.03545151256295957, -0.4477477903326723, -0.014702649239649344, -0.022978551664680005, -0.036511749722778195, 0.19870343393407133, 0.4235523182531354, 0.28849947889180577, -0.11728535801968486, 0.4028316661131013, -0.42120877599287615, 0.03862295045810288], [0.23699241001728474, 0.49461322707874783, -0.19480512489779891, 0.37064239893627154, -0.2120029034304267, -0.39424253592430347, 0.30984798401098684, 0.38750197978459966, 0.1436238360148578, -0.05476711082351317, 0.03839434443371456, 0.13547894834725613, 0.31805375759431337, 0.4181892069500475], [0.3695404491982372, -0.36162199818048596, 0.4557191936563077, 0.1389499581740677, -0.054304196542719806, 0.44548690184486794, 0.02757371416899098, 0.27691422541214405, 0.08318795087468975, 0.41370817004294436, -0.4854402460203097, -0.16496658530781508, 0.43573123541582076, 0.3206592909129059], [0.1405762018443124, 0.269026427256962, 0.013186942175673622, -0.4865172701201911, -0.35450406713189975, 0.44489799384315376, -0.3153316189605503, 0.14006422213113234, -0.43019638524713033, 0.27984802048555746, -0.13403918470896148, -0.3760902282287779, -0.3404501432764362, -0.04772726713725295], [0.2918277716709845, -0.1311433414396408, 0.26697435894768173, -0.012220336034975333, 0.10140987213207131, -0.16905668248185854, -0.2563393891184767, 0.4189892416746995, 0.4550465888794333, 0.37188724731813944, -0.14012566491665465, -0.1585661620461931, 0.38510040051374594, -0.025853344157982874], [0.39683401004468893, -0.16004491793606954, 0.1874160414082922, -0.3474569835280645, 0.1256275344013868, 0.41222023063093927, -0.2569477200749217, -0.17483817487778588, -0.06915690554443812, 0.43647340306026944, 0.24736282399376183, 0.4401564489770818, -0.23435867574080013, -0.10725143580052601], [0.010521964047657385, -0.07948904346063358, -0.12103358695316961, 0.3677505329317769, 0.4427415798257305, 0.44506866890373803, -0.204374083386392, 0.08080738636603535, -0.263733817814033, -0.2769679149761884, -0.431325422982597, -0.15407026974559448, 0.352240579499271, 0.1885136858375647], [-0.16244402635648425, -0.028149577855646216, 0.063805539133323, 0.20441062497040619, 0.2569311229753403, 0.4204409845830008, 0.07857980033811142, -0.47943471626093564, 0.4028259989462411, -0.3684603480816348, -0.4137566662801993, 0.10961034208740592, 0.4142887328566397, -0.3633527773869109], [-0.1370190775286786, 0.45532217788216095, -0.20450239260329603, -0.23784170985519298, -0.31062440964832566, 0.4653753498928846, 0.387600357155481, -0.028148583460002607, 0.13220864219783007, -0.2502100742218164, 0.2253314296489574, -0.1643884488272317, 0.3447846508261277, 0.10587164636463067], [-0.2716638450533209, 0.08272144311872578, 0.4933917949601396, 0.30796995005119376, -0.03862123279083874, -0.16280867191763748, -0.4467303370745739, -0.49372932086246896, -0.30005741454698825, -0.4586952531778651, -0.1906287431848604, 0.24067142656077795, -0.39498509086603234, 0.42345422325510473], [0.09437918075680332, -0.3343033804694955, 0.49541048865388587, -0.31367323593242397, -0.13946582455585835, 0.12258019380019804, -0.09627303078580113, 0.2205207217934822, -0.372040808669394, -0.2031803277616039, 0.07132774866080908, 0.3867239240863088, -0.35632686356237586, -0.45958590333376675], [-0.19969574260427045, -0.4465288807633295, -0.35746758842173865, 0.3380759024641244, 0.04412712617222328, -0.31697552640560944, 0.4418377602163137, 0.31417973147001343, 0.3456892164869121, 0.4361429999427481, 0.4338081398954129, -0.03465038372482462, -0.24491262702864103, -0.01792252164307704], [-0.19186054118043194, -0.2536580861233762, -0.3239389586252673, -0.40800307850366685, 0.4040650419033688, 0.3216245260486186, 0.14853307706186403, 0.15290530044866607, -0.2809943700924629, 0.4617028771251098, -0.11314994952129284, 0.4888423866925777, -0.1883054467966395, 0.09003612055086585], [-0.18371249617867677, -0.282640191478477, 0.25212107833981523, -0.1972293659749504, -0.4842517546324099, -0.21734184674902474, 0.07689038707995963, 0.41758516067980683, -0.4965253172282098, -0.16827341729069759, 0.3078823812150857, -0.41607759108781034, 0.005539394567059412, 0.3046738841242688], [-0.2891407529268755, -0.05299263593218938, 0.0472906399915086, -0.42084630437108705, -0.16623645305113258, -0.47457935030040277, 0.13542806629618012, 0.28891578854579025, 0.37111434447086455, -0.24112370432440777, 0.1828541201657504, -0.23498510055287805, 0.14953801752626394, 0.22272318483616116], [-0.2009690125898528, -0.4180505683615673, 0.04703441089321704, 0.47695620457332244, 0.3782116839777646, -0.4878746605907354, -0.030933180862857373, -0.23464756724103575, 0.4090260117068172, -0.33833055400446915, -0.11042320639563384, 0.35239646332593316, 0.479740908038632, -0.03883973266999461], [0.16289729447863993, -0.0658333137353935, 0.3196931577249719, -0.25901887308300237, -0.2328126669997326, 0.3179027916151543, -0.1432313895141419, 0.01870381344102069, -0.3102825387232486, 0.1268642569346025, -0.2059759074149596, -0.008654349793806831, 0.24553855283798337, 0.28275234503671204], [0.35967138688581896, -0.4643968117158944, -0.008373334883973923, 0.03968667986866847, -0.42563830898114874, -0.29220800727081664, 0.35431675503352883, -0.018654675090319796, 0.2948577668633955, 0.3010480809437389, 0.17903199475430306, -0.44613338793206064, 0.4652437860434946, -0.16107126861396112], [0.1421289723913491, -0.04872164755381967, 0.23642683261429515, -0.4253344915722092, 0.19272348532642122, -0.004914927184252238, -0.055502480308189064, 0.11582133919917441, -0.25804263195565424, -0.29560488208132324, 0.08663799414913581, -0.2809046289363337, 0.46407611842751223, 0.0215384237786706], [-0.13147236705757168, -0.44218911535613253, -0.29641959146561425, -0.08579572882884023, -0.2584529147674004, 0.22582178707503114, 0.4309077602900048, -0.3973845756337039, -0.15089666788178352, -0.44768983189493766, 0.009285776387896, -0.04416116544961207, -0.17637188710250204, 0.28258599734742507], [-0.006627435152418882, -0.18925037254344765, -0.14553568821743965, 0.135410643203595, -0.09798104516538872, 0.3775967736402424, -0.4628224734756754, 0.30384299047719837, 0.33878095895015825, 0.30599242708771757, -0.44163123537755006, 0.2240384775890894, 0.2941494459923668, 0.476934175746696], [-0.20996976210543564, 0.2117320493326359, -0.21491327477565897, -0.28068806149037984, 0.4169368156585936, 0.34299123490859795, 0.46587350158415347, -0.24526067988502182, 0.13423293872037287, 0.26117250427755884, -0.30171301221530394, 0.33341235638217487, -0.343041425687206, -0.09632929501328474], [0.4429858137827397, 0.2933707286074469, 0.4542789583742676, 0.42854148203943615, -0.44207117696731185, -0.29092810828209414, 0.18950378726302144, 0.13427247499531808, 0.37585508703396014, 0.05761202350178399, -0.45897522742252495, 0.20822433971620788, 0.4114673039009108, 0.2619217039115865], [0.3663493133878295, 0.08255004012633763, -0.025093553751396526, 0.0387155231648791, 0.027628647244944515, 0.07805953474043274, -0.49489996497953626, -0.24439671970117155, -0.25667732829437245, 0.12982354005497923, 0.27975813801142907, 0.13927831910479077, 0.31159356949227707, -0.41874692449105433], [0.3580305389862126, 0.3134548254642537, -0.13967897536581783, -0.49551140182984615, -0.07022975379265765, -0.038024909362890165, -0.12177857064196602, -0.4479779907687978, 0.3964093004857156, 0.0904667357516853, -0.4268422760712258, 0.1484382803520981, -0.17941790916062206, 0.23980855285875827], [0.12291209139782061, 0.23003545950718673, 0.4501920379850625, -0.33261884441354767, -0.2204467923905967, -0.2798048851816836, 0.28518829776266763, -0.3571711890193187, -0.3109862383071567, -0.08193050960777856, 0.2588050159157058, 0.47433407597215227, 0.34990440196048406, 0.04317996322460093], [-0.05707515113464323, -0.05353891149267067, -0.4387952683360516, -0.49113048441915985, 0.48736617221697753, -0.26793959322326427, -0.4356661058732161, 0.20888545804119235, -0.028262536153472427, -0.2535264706723581, -0.2740898411585234, 0.26206958188795426, -0.4478126510880941, 0.2912449800306663], [0.3859070873040496, -0.33623700786238864, 0.4549304455520212, -0.46094163302081353, -0.03712125827784081, -0.0845986400138526, -0.1594400839601184, 0.14628050370962617, -0.4850051787633662, 0.1453924159638377, -0.3201534912113123, 0.23556777060185696, -0.09118736293147597, -0.49316552154017795], [-0.38799809382162564, -0.2375570210946788, 0.0311987298284647, 0.004153483829175052, -0.222302838888464, -0.4568224755799835, -0.34844536195427966, 0.3941666435254113, 0.49171442235041846, -0.0207345861711951, -0.2800571820332067, -0.3447839632706464, 0.20715821550243885, 0.4863397455309226], [0.2567108043311196, 0.24135480434433457, 0.2608140936252083, -0.07502530266520212, -0.22105475163819355, -0.12162365047334033, 0.4414047950642086, 0.18584635015060075, -0.01359133387754331, -0.2593840280958897, -0.1272581586118452, 0.3724818110747044, 0.1770856398356143, 0.2599012276040845], [0.006025067741866562, -0.31288168442100034, -0.09192825047088443, -0.13199335819283337, -0.08765499307690915, 0.3092836711660234, 0.2185876314536348, 0.41856972174099194, 0.0636558077933654, 0.24099238421362043, 0.17624565170984038, 0.014058471996425913, -0.16178885661796072, 0.3718513829379834], [-0.4476020179039467, -0.26578978742845744, -0.4312641070478174, 0.24367434383420855, -0.09214919830495222, -0.4828095163499734, -0.029079030336072557, 0.17443856409305805, -0.43349570038816304, 0.01777925773189686, 0.02217667882558616, -0.1912503965264661, -0.29096356388776273, 0.4982843768738707], [-0.19458557371661894, 0.07108082373882708, 0.3221315625695136, -0.1959849500446378, 0.31285976522358916, 0.31427974058205044, 0.3275666264945177, -0.10140124230089313, 0.43901867432911496, -0.23015190042628333, 0.16445437208622304, 0.4650612997528505, -0.35324721119672026, 0.07977905361176821], [-0.4597558079527581, -0.2392886294401009, -0.19748581626001827, -0.10441224475146789, 0.4573407231140302, 0.3064746630650901, -0.19111235438576654, -0.4988139649922708, -0.42033284619606065, 0.42679472125485457, 0.14201660180589185, -0.42221598289610357, -0.25342450666090766, 0.24145370230077273], [0.17335269172180018, -0.16298706648576608, 0.1551616319344197, -0.24600265144080832, -0.18238125749936085, -0.4311067991821597, -0.12498139446401929, 0.44191626301848663, 0.12317724320943078, 0.4679336601519667, 0.24659816408154273, 0.1859812830137443, -0.37934891917965774, 0.2401315364180294], [-0.14538684148171283, -0.08205530428038622, -0.31870730857103896, -0.31855742287803285, 0.4873835794164563, -0.33901693016217455, -0.4101764638044616, 0.3084482373215713, 0.060452975602217525, 0.0186229606985079, 0.21483034507432192, -0.48253900793510385, -0.019520915328556623, 0.2265705464529252], [-0.34847831042910143, -0.18328182886059394, -0.24424912499887722, -0.18731252741634863, 0.07359116682166517, -0.26824643258677255, 0.07160619726635552, 0.18933994228539341, -0.20792639437388022, 0.49279463640899773, 0.0027126830505893023, 0.428428968907829, 0.175473884786444, 0.2708940435538919], [0.16577117267376243, -0.28320315091014236, -0.3198181855012764, -0.2635558736510939, 0.37025316140961356, 0.25891283194972187, -0.15560549040966404, -0.40289609546514304, -0.37320392109154443, -0.26531974997937174, -0.16870293743554587, -0.03387774483608553, -0.3733501357975443, 0.31598892373680487], [-0.40112834397189856, -0.497288057437962, 0.17964681627485984, 0.14631211504637698, 0.3640649721523458, -0.04911993490566279, 0.20459759490432292, -0.432197374198838, 0.39427366942835784, 0.21964588326323622, -0.4677645848910583, 0.39373246927155947, 0.08231279596944922, -0.3262126235982891], [-0.35773295464434407, 0.34899969524137625, 0.12456230866217961, 0.0013449578219560177, -0.2920901019541542, 0.44325972478804093, 0.35100753618090064, -0.13198239676472484, 0.3525161485416449, 0.40411691110879056, -0.32861957230421235, -0.41126644646940574, 0.2903418960944328, -0.30157749561364966], [-0.4141906340728919, 0.07331813362947501, -0.34069574045192497, 0.01957272572270932, -0.2030934890524421, -0.29744920878175984, 0.04604398948103674, 0.47443939462552787, -0.06264461903546831, -0.36738485729983, -0.23077543376879917, 0.05873887951454487, -0.3123991980416937, 0.054691652915213114], [-0.16113831326443787, 0.38140382577108517, 0.3116857881936137, -0.3574716780647353, -0.2896986601382421, -0.07199295334073345, -0.23406981805095656, 0.15309920059764504, 0.2619743562228114, -0.353525345615961, -0.3776719017693667, -0.31611608787547285, -0.28150691644325354, 0.22786894898895851], [-0.05955383095887069, 0.33846818693867076, -0.2701374118671381, 0.43705651739601503, 0.357294003027994, 0.41541381716605963, -0.3890820282086241, -0.11993381214637983, 0.2282948951946343, 0.17559615519795352, -0.30547208903426903, 0.0733645231749298, -0.4602735592063441, -0.3366474856950764], [0.17596611912278676, -0.3575248270170562, -0.25705146865340056, -0.011897117600512128, 0.30423633052858384, 0.27857863011532097, 0.11937810060431553, 0.22526270243580834, 0.3893575689104554, -0.3871881161533085, 0.4623170754021499, -0.18047227439260505, -0.08339436208940831, 0.25866796338374465], [-0.3442476342586134, 0.23955316579944322, 0.08540382643301327, -0.17305233741909629, 0.3173171911288671, -0.22570093155288518, 0.4430029155979166, 0.03834285670708586, 0.3735310874079591, -0.18900431798096626, 0.3229678449894276, -0.3938134049603065, 0.15639135554187306, 0.0039957012883186], [-0.4349160108103073, 0.2993345249421438, 0.32109742719026607, -0.12086705815395335, -0.1419960004490279, -0.18800711403396272, 0.06037302553552773, -0.07920234355706904, 0.16014597416525897, 0.22184070020527857, -0.4801178167735081, -0.1228263795138969, 0.3092484887574014, -0.43093667875639247], [0.24204617914622117, 0.08077526135872776, 0.13028313472194716, -0.4983073270778405, 0.25085869674404626, -0.15195343068414818, 0.4301196607945893, -0.43686673548890326, 0.3930199747734747, -0.32972527860159984, -0.144388235843884, 0.4512207694366565, -0.2259136619645834, 0.1392027431747674], [0.15909511345952582, -0.22446480057387627, -0.0038863255553074376, -0.2008206260235317, 0.34731355586329005, 0.39383478190347304, -0.010110341990336688, 0.17587113984325492, -0.33542492203430657, -0.1358277137244514, -0.462225931500305, 0.4745908331662342, -0.0359248828743073, -0.20846115236261364], [0.04686414447659361, 0.4982107286025768, 0.29021871636302976, 0.0786762951831666, 0.11833043356890265, 0.1122129919031707, 0.1652471686466544, -0.12309844673082025, 0.4036582300623143, 0.040780600418254945, -0.3324915827412934, -0.019751863460443993, -0.11377210705626672, 0.2797117637018275], [-0.38514269333949824, -0.2359656350689293, -0.13056246863264465, -0.34665751099324305, 0.1679735797674473, -0.015581920964740092, -0.4732680559266318, 0.033988783306770576, -0.24152662585315765, -0.2548137865101001, 0.4476811989005952, 0.3150173581952981, -0.34466263882046977, -0.11324533296719141], [0.47143367135789743, -0.2415458503176714, 0.41899687018264875, 0.48921881673361717, -0.3764273914563637, -0.45101880884191903, -0.2245688350539815, -0.24879617656371952, -0.45979441410204974, -0.3907329520177467, 0.33886093779114945, 0.0032195836923245933, -0.22920897385289893, 0.23662908686558107], [-0.42849146338698385, 0.2008639386717466, 0.26919749724071146, -0.48180853594243056, 0.2064041127381225, -0.18083333752560735, 0.18904054301305048, -0.36404455282144477, 0.24701381109656056, 0.02059709817921234, 0.1619731491866373, -0.46327844878629953, 0.1839367825889117, -0.024710754963781674], [0.45327494304411814, -0.33431595136465164, -0.448641591327614, 0.313360311101175, -0.1016806407676623, 0.4120294606024317, -0.3013417359954407, 0.39011994947383194, -0.4401852946729625, -0.19592558476665425, 0.09448911799420188, -0.19127377637563628, -0.32695662190944624, 0.4721023343311461], [-0.4373455527395185, 0.2942846319214499, 0.1237830100384239, 0.07096498048444584, 0.4622101146889777, 0.11165650902322385, 0.27369520067391295, -0.05166249100859719, -0.2547528434486014, -0.26001217914343244, 0.3159898565687583, -0.34569723499046123, -0.30212833185866317, -0.3024857972396622], [0.4212440849704965, 0.43275108229355447, -0.06216053689470781, -0.14100053725822495, -0.0038253498818209444, -0.13066410864302536, -0.3897729935844163, 0.40331036404067744, 0.4803062457440852, -0.4524859924537825, 0.053313974190954724, -0.4413415412593326, -0.37099629701761716, 0.435479936709217], [0.004251860872260621, 0.2973269706739786, -0.15499021717007624, -0.06724871766888207, -0.030962017782861343, -0.40181437676025195, -0.37190418464151503, 0.16660514313017122, -0.1933789723721713, 0.0609729257334272, 0.3583627599387491, 0.2838278288835537, 0.26959656298948437, 0.2831284125901703], [0.17187391567133978, 0.23657516329866154, 0.06036888789974526, -0.4338870044916651, -0.06576648566307183, -0.3342654544505228, -0.22027960433497829, -0.21672534855986478, -0.19925876009181506, 0.13232226004560546, 0.14753017067995625, -0.3857421103266513, -0.044665044729745106, 0.28127019717802404], [-0.30076063445618323, 0.4985222109375346, 0.3690288204278892, 0.08575971694913749, -0.3035819110899246, -0.37343511578290617, 0.49071957434053354, -0.11168712264687806, 0.4486858568169429, -0.4095669046158825, -0.37846613540480545, -0.27933240814471066, 0.4467063491273566, -0.47782533087926066], [0.007593569834802083, 0.1672596104986607, -0.01147276498725997, -0.006637263420264762, -0.04380587491311609, -0.45166237556906175, -0.05525370917407954, -0.22318347490789317, -0.10177407042714795, -0.269515861441735, -0.03365061347395767, 0.4698939240440429, -0.04878943475819045, -0.01856277843851839], [0.44798436945331427, 0.37911782477634914, -0.09015208436990543, 0.17845834255365, -0.3344896277416109, 0.45764673516735266, 0.2246458364353051, -0.09473342572902615, 0.42861224125659025, -0.15788865350049894, 0.37030950616281066, -0.2530160181189348, -0.212393114307136, -0.44567542646816105], [0.35373392688385075, -0.45776610485451263, -0.2380065776263175, 0.21276649504033357, -0.4559853702840157, -0.36106132278320746, -0.22370194873249039, 0.07319117709488827, 0.4346327683785835, 0.05930525819456738, -0.14373170046353748, -0.2080925698472859, -0.19249870129603625, -0.02657355313231251], [-0.17367971907767762, 0.18870440585152365, 0.2650474872646905, 0.4751808134847615, 0.40969603191294474, 0.09293560991438704, 0.28979078748040055, -0.10369402567221336, 0.2598056524514064, -0.1262051323744714, 0.280708224751536, -0.1969543654112926, 0.44272708680325534, -0.4246443715388394], [-0.12767633178079987, -0.22760795135713038, -0.09629333854057855, 0.37138516227923796, 0.1637615440520263, 0.40204452446035555, -0.26652127264057696, 0.37145013013587685, 0.02629317180220363, 0.424240050241747, 0.4875540890264768, 0.05389855037126361, -0.3332288069381566, -0.3357238063372303], [0.127180921109511, -0.0513722745933444, -0.10694997619720271, -0.0928192622969465, 0.07236759604286408, 0.3997852638635456, -0.030407491413379097, 0.2320728848802613, -0.21305233384416103, 0.28698339402038553, 0.07652862800633946, -0.1698667888487525, 0.4425491189506428, -0.33007238390432353], [0.24076866070921354, -0.20786910318016671, -0.4264322611353747, 0.15297818201810298, 0.23885603472770867, -0.027768615515469608, -0.32495914538398263, -0.29472546531141974, 0.04944174176621008, -0.1731402520765316, -0.3493916642675754, -0.030620171059381862, 0.07760355058869206, -0.23754378964302414], [0.41577674761988004, -0.4685672112730911, 0.16927121143759294, -0.20290914044798858, -0.16928358101218488, -0.032711220174727274, -0.3986840476357477, -0.4404219132124383, -0.21544520168211423, -0.24578083468743273, -0.3880720239254777, -0.06391181099911125, -0.195654078527138, 0.3239176171102178], [0.48198948776246026, 0.49871466919168084, -0.19172657832608986, -0.48275254216734226, 0.23603297902349746, -0.13229849504098273, 0.062356230122907585, -0.05740448403222378, -0.3384414726700132, 0.18469819784154176, 0.4628873111066507, 0.19470419704652214, 0.3876880733047929, 0.36775324509716245], [-0.13530424769533697, -0.2632101398370301, 0.2949501363752236, 0.494527794499954, 0.23693989014757338, 0.0652609302675415, 0.47692160177906395, 0.2970975038864206, 0.3765244945815862, 0.41677888774187133, -0.41462607803179974, 0.371842221879449, -0.3525029915875437, 0.24367976041998243], [-0.007679901161210474, -0.411153241109857, 0.3138070738083745, -0.40570351934988946, 0.4279463397653123, 0.20834271696113194, -0.28710268586946347, -0.1531571671305364, 0.422065711654289, 0.4399574451809453, -0.16811429037175268, 0.029691397188836174, 0.09882691738911882, 0.26758371662238584], [-0.10534489245958037, -0.11013950470828592, 0.4944363341469374, 0.13330764250001428, 0.2360276030476405, 0.32889532755950296, -0.2699974265841899, 0.3840207318834428, -0.0017500869727910897, -0.0058032380473594, -0.456181838742012, -0.4110680833818433, -0.04403095008802193, -0.26269052766814854], [-0.3298008500978791, -0.15588222590148101, -0.48237009232954875, 0.38790236108343806, 0.2111424388191089, -0.3048781075956068, -0.20159701478090553, -0.26842293016015856, 0.2943146224994055, 0.19352259390870694, 0.01782610057535341, 0.0719015643067085, -0.2754461809867, 0.1995554762920001], [-0.08554726240876503, 0.41052329086200684, -0.12380596094891268, -0.16598955715998898, 0.14177841192530355, 0.1919066904583026, -0.03635668375825089, -0.19817892691502464, 0.04338378747460244, 0.12609510370016436, -0.29353885443108446, 0.020783768282567897, -0.047386635071759366, -0.021554002466456373], [0.23073132586227066, -0.0728571941800242, 0.2162511173966929, 0.23601218842756352, -0.4032884874215341, -0.06786476953890976, 0.22681599937569427, 0.4936896837473902, -0.2131812853211649, -0.34067789595288034, 0.04545726879607764, -0.10933643678658456, -0.36604559292210326, -0.07121504900035322], [0.4150107599661412, -0.3476682033658914, 0.27034872657048425, -0.19015024372366354, -0.07572106662786991, 0.3977043471591293, 0.08964786174078823, 0.2481668071712792, 0.39253872616096896, 0.13944286089645966, 0.25762687827101105, -0.14280940685721433, -0.2815037197536805, 0.47041884446661364], [0.4043727702595357, 0.04776025574243008, 0.12965476691942152, -0.2571734149131874, -0.16643740035741064, -0.16905577070070074, -0.2602440186375678, 0.24065159606781816, -0.44918448633941593, 0.4174830457977975, -0.16067469290066022, -0.3950965049086962, -0.46231933094133315, -0.48837987920893], [0.3674515791609689, 0.031235953879997693, 0.47916370353496807, 0.29648761658006545, -0.28875033599917155, 0.4090476468512481, 0.25154828227433945, 0.09447014871320945, -0.49887222025426703, 0.35132671271972016, -0.21317961854313663, 0.37435270544067284, 0.4965638012135669, -0.009278420523944403], [0.47692419441182643, -0.22506435269530595, 0.296563319434027, -0.40015524639664346, -0.33955116008110586, -0.4256762657599625, -0.07288329580512011, 0.06623039367083258, -0.33289504689119565, -0.3092951535648976, -0.08835301050086711, -0.4756697309356378, -0.011670283759068437, 0.0761895217500531], [0.014576345220752199, -0.27863659625057485, 0.3055548759060234, -0.09755240460092889, 0.4089069747842294, 0.054779014800417594, 0.22695292428576, -0.03934015531442746, 0.3922327647873544, 0.1918591098476611, -0.32716631447012995, -0.17909271147152608, 0.41428776730883127, -0.19614124766035426], [-0.2324823705082122, 0.44563358022675004, -0.04220434078720539, -0.22955919550487083, -0.30621078424732595, 0.43090288566766527, -0.2482361428358027, 0.06755723033941363, -0.38421398082911407, 0.23662468545240953, -0.49496339316397536, -0.12550240698144413, 0.47999662931491405, 0.12713231312641357], [0.2659825201432606, -0.09872088139027853, -0.0661976361144717, -0.1726802327690515, -0.052262133868987905, 0.39189542382032627, 0.3599345978242664, 0.36202971601866885, 0.1452907341662586, 0.33857201390486247, -0.12181672535779815, 0.11542555768497087, -0.08322649457521165, -0.4505498615263307], [0.15040942437022428, -0.17606335033691878, 0.009581925962064954, -0.00892565883617863, 0.356180683953448, 0.12612367048902623, -0.23268204042527896, -0.478023978907323, -0.035092216223956064, -0.2262796495220996, -0.33154190904107617, 0.030844348591143107, 0.23091397032819627, 0.4531807357295917], [-0.45850359504295496, 0.08635128744134006, -0.23289198850807324, 0.22696898102413046, -0.13549414532682608, -0.050017459383141394, -0.10519946458198828, 0.41859779078584836, 0.15267799533388612, -0.4924864244934118, -0.11274491860598346, 0.21912160363702682, -0.2700078204690238, -0.4117941868501759], [-0.09318408211439361, -0.2577074489092486, -0.1764282150539565, -0.040876666058077986, -0.2965654609453146, 0.13978369305053243, 0.12297747426822338, 0.4731177848327746, -0.10036950920650292, -0.015640498709523224, -0.09651620552913254, -0.14947882969498805, -0.17853236747644716, 0.34696334941890206], [-0.4637924951766771, -0.05996066319828936, 0.231206354505714, 0.1250352569669541, -0.13368972392746736, 0.03642013447145981, -0.09024051591703311, -0.19918458995720936, -0.45096086706975774, -0.005393351016486896, -0.29445375052751604, 0.0498817730921553, -0.29899580187400027, 0.33940809317228654], [-0.4984189509498111, 0.3203486767850914, 0.0678162394447567, 0.4770965376138964, 0.4487054850071801, 0.08382428162156304, -0.44481843308264246, 0.040550342690076145, 0.3391856634299901, 0.03113595682456796, 0.10453891324235819, 0.0011225514801497356, 0.184480894504114, -0.4790706533018824], [-0.22629957766378014, 0.12854203960720442, 0.18966698915886981, 0.3210637136643, 0.43280773885635726, -0.3188099003694136, 0.13559184110698386, -0.28243030001016384, 0.43937564305533616, 0.05886305842581115, 0.26932413062516763, -0.3825711183073486, -0.16154724010541796, 0.028086425196806437], [0.017829282953711306, -0.32127928882591567, -0.25097192137435903, -0.4019719914414366, 0.174582203312813, 0.4718878198067905, -0.20033288986937142, 0.004930028900072036, 0.4804313140704232, 0.3734675657857328, -0.03351154030545512, 0.005917799120976462, 0.4550729139025884, 0.41010585975556096], [-0.20325382585746157, 0.016928485579897123, 0.4915419416852682, 0.3622696678696394, -0.3025512192418747, 0.33694765444973157, 0.4465290579446615, -0.49124915737439984, -0.029995706294387407, 0.26031136475404626, 0.30853541426708975, -0.3905950549121257, 0.4883597727179711, 0.09833093174388428], [-0.18185278034938504, -0.33519821329622973, 0.3440793323692153, -0.46916925789436925, -0.25067344790104856, 0.22764173366069657, 0.280433219783623, 0.34558021541096756, 0.27294977247915597, -0.14183924683804763, -0.05786202269818312, 0.4488677741065346, -0.1806624540579897, -0.0780461905417374], [-0.3060268307229729, 0.02790187205020245, -0.4681165218287903, 0.05028814987615704, -0.0433903423913903, -0.43983148846065945, 0.41871000738817415, -0.08643465602865062, 0.28650943254681566, 0.39256530769737724, -0.3223226004286513, -0.39064962355443067, -0.06103051640558641, -0.4507960099296927], [-0.3428670700668599, 0.15114721458873645, -0.4352447353607757, -0.2809669296919766, 0.11349418960013213, -0.2615926145682242, 0.4917459794935269, -0.37971673843969733, 0.13079972647860816, -0.20131663984537762, -0.010285529645639075, 0.41070368750379543, 0.20517364460136833, -0.32128517465695383], [0.45657871489612933, -0.26139902539595455, 0.07055706559343497, -0.20279718502669167, -0.4303234711409173, -0.4695272646499045, 0.1367681832418633, -0.3490223171328437, -0.30844776994132744, 0.26723089856735316, 0.19499022148250728, -0.3949846292349267, 0.3118660798649239, -0.24493115854753184], [-0.35216530372711996, -0.2016023229750302, -0.46066359762059317, -0.03640905911890603, -0.033802288087106225, -0.07244219892238936, -0.4292785344652404, 0.13880530935441915, -0.32644280381285473, 0.1330337262899779, 0.15125424764986684, -0.21219911280656556, 0.35842243926094636, -0.2478610944621499], [-0.2327309094937362, 0.38188391316509707, -0.12565260851520507, 0.2499052397545827, 0.3268592335479626, 0.38815987123528845, -0.045924758487782415, 0.06130634186039554, 0.06101228474884444, 0.30311074269253885, 0.21380642223514734, -0.4509614134504357, 0.23511610982919498, -0.029881561057899367], [0.4625972100168526, -0.1922990712087044, 0.15799926334337097, 0.22188171004263627, 0.3495346144730515, 0.351006837632081, 0.028183813155880467, 0.2185967077822792, 0.12040010562585016, -0.25894566768135396, 0.08202542682867574, -0.3252404368495921, 0.14067955747622066, -0.11528720954055802], [0.0644297142600794, -0.35340317436317353, -0.40688007584843616, 0.08185912103024294, -0.37106503953186787, 0.10514367133151316, 0.20438584861806977, -0.03233007333414168, -0.10002411661918795, -0.13613961146698728, -0.3881170637125913, -0.1111330198249829, 0.28579862383076315, 0.4148198343950275], [0.027672533091409067, -0.22657692319519518, -0.09349093235928162, -0.0994498091445284, 0.01498162764580583, 0.08593624146393167, -0.011870742860293637, -0.4318093483768262, 0.024438218433259593, -0.19176444793250555, -0.08984103111890583, 0.036222917488617654, 0.35715387148717326, 0.42718529197239236], [-0.19643270285918368, 0.07799469371829859, -0.26477016234233786, 0.293859286924088, 0.2167102796661674, -0.47130559348506096, -0.35108283680564367, -0.13097155239482727, -0.377407764616585, -0.23350940768172035, -0.41967737928204996, -0.2455734310795762, -0.2835691811272584, -0.4105535293156569], [-0.2876289587371805, -0.07103567826758998, -0.08461315748557297, 0.08429362875660311, -0.11280167657787787, -0.4105514653218116, 0.462237195756639, 0.030739607932300055, 0.3089483368258337, 0.3931811376397533, 0.25805608683849507, 0.33017750937476636, 0.10499685354280215, 0.47998072944916814], [-0.04768534897581307, -0.38868780252762364, -0.25156837243616453, 0.17331379664345703, 0.24210110550300648, -0.050036195636230414, 0.09118306869090585, 0.009085480392132823, -0.25530307182349926, 0.10993332092677453, -0.08769499839778123, -0.16106992236260187, 0.4831003090691154, 0.49522809129976636], [0.431432676012414, 0.33827185516555885, 0.07024814987758032, -0.23001048046346803, -0.37732332598563045, 0.24548678763022105, -0.2926748654343152, 0.3865708823536059, -0.4020056566425281, -0.3925760064085018, 0.04853864853677366, -0.18562870463963346, 0.35181024365242086, 0.36554697935294866], [0.3815013969823144, -0.29813378203960433, -0.0444350017266761, 0.17047763415232678, -0.30527994216630616, -0.4721866896876165, 0.1907048234224861, -0.4908553025214041, 0.4298668735279055, -0.4124300769250134, -0.468329359398877, 0.1652095723109419, 0.041545159153910716, 0.4993634371029457], [-0.030400501696828872, 0.3788933183090034, -0.22195487903362887, 0.1667206443815682, 0.19024082775684162, -0.31630634968010185, -0.00021956699303182225, -0.14477064690097072, -0.09050608323990465, 0.07703792137383901, -0.14631964542395393, -0.2941402803112999, -0.4066144800179492, -0.42787952719218564], [-0.23759459074171652, 0.050911051564759655, 0.37106716478297147, 0.36660747512091524, -0.2795897351899154, -0.36811863788574467, -0.175870455300102, 0.41054816456708504, 0.36898592719165946, 0.3428469261190612, 0.09770329623330394, -0.034526626920040604, -0.3583180876656239, -0.18309016581617524], [0.3416154403252038, -0.08114986463412703, 0.29398924563798146, 0.17766757545624312, -0.3209897685288215, 0.06767521861395266, -0.38428824192547384, -0.05297507111579039, -0.28732281802779286, -0.04323090217883068, -0.18119979027766125, 0.08221422948063792, -0.45958911467444774, 0.37693169302743346], [0.40846750977345125, 0.19695402755212077, -0.4310461609682714, 0.32977497697480607, 0.4094717725394691, -0.311662989845537, -0.12066895088934157, 0.3780782777188999, -0.1880052587219516, -0.15918096866600562, 0.23443573428050501, 0.47177045364206605, 0.15623361693649276, -0.10228157859054736], [0.035258045965565116, -0.172883188879085, -0.4164603256926486, -0.20384540465604953, -0.271406755234437, -0.445457961175699, -0.46750628628805563, -0.05140226800957584, -0.3862051666898908, -0.30984362323694625, 0.4277482271159288, 0.03220437568654805, 0.37690855185358035, -0.4181582770269053], [0.3426950778772501, 0.4460909033153683, -0.3471644912145782, 0.37365918043979635, -0.41052590507125925, 0.3898240635085391, 0.3025904159290591, -0.12044616917838984, 0.28081357720149785, 0.4596579232792156, -0.015338127099275895, 0.33041774992983364, 0.1912666812234439, -0.4651510734685706], [0.30633096349157896, -0.11355510837397949, 0.1474596365126541, -0.2636589068582991, 0.41442296347090646, 0.3937757033320601, -0.25439790375358656, -0.37051342576516155, -0.022613382296997466, 0.1364989795283495, -0.15479649132465792, 0.15860826471211795, 0.09413804583523462, 0.22849698471091925], [0.39475234499110823, 0.31127003946241605, 0.2318560383118967, -0.29681431057904817, 0.1991414498424614, -0.3813273905238995, -0.16089467693984866, 0.4343379441196442, 0.402189907239234, 0.3587789435058809, -0.41671020798297653, 0.25890528586783484, -0.3288538801767008, -0.37877495053492566], [0.306360097127916, -0.3096284184428177, 0.349969604130557, 0.4132588922647551, 0.10290152039856848, -0.0927799078591785, 0.10572780247866694, 0.010302553495837108, -0.4176898485776486, 0.28615878256769556, -0.38367292613803006, 0.2890490374858194, -0.487208752537877, 0.17657283174181154], [0.45763934593608435, 0.4280910826444227, -0.41454478335809497, 0.23781493915205862, 0.10050944854203232, -0.06857335663483917, -0.16694788694543347, 0.07320066151600146, 0.24774105834868132, -0.17901749674887193, -0.0005271626190421331, -0.3835452060097523, -0.4217734311659883, 0.3567515558221085], [-0.17591904768852917, -0.16327767083144773, -0.01686170263768827, -0.2209804189411405, -0.18968218682065185, -0.15112080976200726, 0.27289196040161323, 0.46365722759736283, -0.26457232463313685, -0.4504680087251842, -0.07918318188071682, -0.3064182611074432, -0.1904908053674127, 0.0771455289811005], [0.2876037900615627, 0.13541885713051321, -0.17492169907138067, 0.43586946489717726, 0.23865047761451416, -0.11839932718864844, 0.09317824452142498, 0.0963503920318155, 0.34664697838009373, 0.0289548086975048, 0.440898791035985, -0.2052474112270026, 0.42091360694101226, -0.3500487933994113], [0.4278640676608855, -0.47037942750776407, -0.09075205365454146, 0.3495008330132661, -0.08342751919630347, -0.38830151708468946, 0.47263065479365024, 0.08497276013814295, 0.29626269920316306, 0.12755321356216023, -0.03162630484669214, 0.03078546757788809, -0.08658033900740641, -0.2755227962256038], [-0.0882783525740762, 0.41271537546479437, -0.37982303289816566, -0.119005542064625, -0.06159605028851953, 0.3880560726987712, -0.49244070191288325, 0.17491541714877934, -0.04461008714681027, 0.20998256726191522, -0.13736150062286911, -0.29651519368805074, 0.012740976780885326, 0.21683541913500332], [0.06374649611726962, 0.19522055961068963, 0.25351609050754015, 0.3836223932550815, 0.052340619880119454, 0.4238042909741063, 0.28930781266493893, -0.08814160302495612, 0.31125998588477055, -0.41845024416315074, 0.06175833321351861, 0.1679457655130323, 0.48625878907232933, 0.07244665896029094], [0.4782733289947134, -0.2460219724047978, -0.2809332564267963, 0.05271819779154407, 0.2327086802983542, -0.15500729325895163, 0.49402013028180974, 0.05219800741551874, 0.15688195593053297, -0.48690829889210163, 0.4914623619456774, 0.2508331222614952, 0.12383190288904743, 0.10939634764536854], [-0.4647184591453221, 0.11491847254452066, -0.13832232624066573, 0.3136783015244894, -0.36073714093327885, 0.3591334180450678, 0.4672190055671828, 0.2606919533209963, -0.38530329218682235, 0.23233943073490249, -0.4680008979654281, 0.21720460826444934, -0.21517198557973297, 0.47395436950883607], [0.1805005725405615, -0.41540577701534775, 0.05515111936225936, -0.450457620611747, -0.0169021939088414, -0.41539236809330027, 0.44336513528276833, -0.13562475068540625, -0.3675844784590443, -0.4420524376136712, -0.42562945235579486, 0.42096810874065216, -0.22426474716094302, 0.4643449877866572], [0.21011075455717315, -0.13933620131991512, 0.44741477770255333, 0.19156228489189508, 0.32716988100239436, -0.2229992281170299, -0.28150072909003443, -0.41745593635627665, 0.06093890891105442, 0.19337781019583766, -0.2992148977541631, -0.15645077099049337, 0.2991175409536437, -0.20952805176280698], [-0.1836665357495045, -0.0866268023321386, 0.17613960606867599, 0.338257750098684, -0.3604970263023986, -0.29159818438990126, -0.10831307435852247, -0.4159875048787603, 0.2295623522459754, 0.3596355591607677, 0.1206849461290355, -0.16374196681775016, 0.35539651198076544, 0.23783376414597868], [-0.2367390882512863, 0.3885851943057749, -0.15368910434566888, -0.4864315544041531, -0.4008177998685592, -0.43309207135615535, -0.14255738575874516, -0.21387766256858315, 0.3727211300493015, 0.22963600661893713, 0.21739184436153136, -0.36216605138640146, 0.3829610475974938, 0.3751956227053119], [-0.02203342339835428, -0.4248481020482365, -0.32665445830271295, -0.12309088676650867, -0.11752782512875298, 0.4730486341028126, 0.09156186177611353, -0.14021609686191766, 0.34196539103383927, -0.16436922027081458, 0.299788180100894, 0.0016305579397858027, 0.4435109426815942, -0.04064636305668486], [-0.43526300677691554, -0.07679884907291416, -0.4141843350856396, 0.0767609292371441, -0.35229755598794765, 0.26187281122555495, -0.2659073004539667, -0.3571292978632596, 0.4157865625607769, -0.12115504087218179, -0.2694328141209636, 0.1615506100094438, 0.47226436957900303, 0.14943156449569464], [-0.003964154718882064, 0.4158970698911127, -0.0316645606778631, 0.38084130828763896, 0.3723164765905459, 0.2492095229896681, -0.0847007897599563, -0.3894510238519047, -0.4111162821502555, -0.48666999882379575, -0.4562044008288716, -0.18620298179322514, 0.24430900930216373, 0.10062582802731175], [0.36496697002758915, 0.195130753980352, 0.46888525961174915, 0.12989759515719776, 0.16294947698855378, -0.11782717614541312, -0.3334559999638897, 0.164299223347106, 0.10189642658270408, 0.27978823116077584, 0.051931809662821876, -0.3751829818136122, 0.00844920589549591, -0.38881871003448876], [-0.13412396543732052, -0.07263152842340913, 0.2348492470784069, 0.1566180505000774, 0.09929464059270722, 0.03952953388002862, -0.26974972236745837, -0.2741879831380335, 0.11342413892175766, 0.3016065050426038, 0.42892065892298303, 0.4564310640464178, -0.342336408723156, 0.3060048051566728], [0.4615233706301178, -0.3222402059004757, -0.2037347038410774, -0.4163356342040398, -0.09993808715175737, 0.03608852687558973, 0.3769284319276953, 0.4215613092201019, 0.044383849851357376, 0.24347833392950352, 0.16486572806884156, 0.04706096520965364, 0.1706267354765694, -0.30216118097398226], [-0.09525976988821198, 0.47614153977668827, 0.23238687684509035, -0.16054804834390127, -0.1525794070937713, -0.21044312542881238, 0.016916639069588447, -0.45377105026288966, 0.07577672658801432, 0.02214064518528447, 0.3887487432165815, 0.2463549441005447, -0.08293166078811867, -0.16338306399687905], [-0.3666813339135927, 0.09711230013292195, -0.4710096487589253, -0.4937844667090319, 0.29991893898314986, 0.20299909989585174, 0.4248662130162656, -0.46011545326624137, 0.46798702323177227, -0.05731127238800447, -0.4648915834032734, -0.3087679916327391, -0.18156366712180197, -0.17013765402125317], [-0.2865889353756798, -0.0878214506260391, -0.20538022225609492, -0.21621908418467728, 0.45391561388504925, 0.12217548215455094, 0.13323608601548043, 0.049252896044820194, -0.3783285598422345, 0.3912421234754042, -0.4072848052298649, -0.1739496731159885, 0.11012016128549783, 0.1402609666435436], [-0.09100631517729652, 0.4569379715912024, 0.31272203753702216, 0.07492629362471617, -0.3912205393266177, 0.11082869971403074, -0.4731209989103111, -0.47346289565815536, 0.43105107495077377, -0.3560930682853644, 0.03273537980731433, -0.07516548159835384, -0.339412648216624, -0.12458783137252365], [-0.012878899738633461, 0.47821327010561393, -0.41984071766981323, 0.16121101967844906, -0.30685786599408105, 0.27584524893102264, 0.14479738078802606, -0.05901752450864325, 0.14324368582306432, 0.17659212535105198, 0.2162683865947404, -0.29073230983133797, -0.34495166970917285, 0.28797072031440135], [-0.1612625942392682, 0.02749172536455636, 0.2547307207548589, -0.05012831468644315, 0.4074455240853435, 0.2181611725894746, 0.37756447347080085, 0.15691748990570387, 0.35626482672843407, 0.4560691719533542, -0.2853500298225426, -0.23632159618404494, -0.030928618116500082, -0.3302648347835119], [0.1225522179119732, -0.018113840598146802, -0.4551406168703752, -0.03975580670289719, 0.03906702229963743, 0.00866808204365732, -0.022149242401361346, -0.20271705840897256, -0.26687652178989485, -0.12384145818523369, -0.44556176938169556, 0.36557085499372055, -0.3021718210739417, 0.06287852433639911], [0.470344521344131, -0.055192684611547395, 0.31516020106434006, -0.26514061246676446, 0.03794643106396047, 0.35855231048529573, -0.4116496339948104, 0.34119149959257333, -0.031187474630830294, -0.1259381965409526, 0.45690017857505566, -0.10496076097198442, -0.00034629391450433507, 0.3609551749419347], [-0.025033824821158446, -0.47231379011400565, -0.2553387754167072, 0.22956048557393047, 0.1691603955047263, 0.14656515399032197, 0.4897969760341916, 0.14622052229090662, 0.18735825068790185, -0.07091848530095882, 0.4981378826678888, -0.11953365627269828, 0.18521236935792684, 0.2905381292085707], [-0.27951944959379926, 0.20507097062411817, 0.034718306577991076, -0.07524756144166446, -0.39409018497465215, -0.031546873668458146, 0.35623184585959355, -0.14999649734124004, 0.15789349740010247, -0.32366970394220507, 0.2637600478196016, -0.1935690338053101, 0.36037347010221, 0.4016620003745513], [0.3930507598584849, 0.3112571802391096, 0.2425498000390572, 0.10967366368567623, -0.13677434039604497, -0.4442026964872908, -0.3549423857347272, 0.12430103283346837, -0.21664599738756707, 0.1432916939942876, 0.006874789569911381, -0.14882420365962207, 0.13926426799522895, -0.05772640826817066], [-0.19411928158804054, -0.15585804294539096, 0.23884455881961708, -0.06840557570726068, 0.45491234098463446, -0.08932399973207546, 0.1943076776351911, -0.3165413589550318, 0.11325657504505654, 0.18908124951632826, -0.23994866281246716, -0.09038827408808504, -0.4160954244106447, 0.37876323784135585], [0.42174999940471175, 0.3505605495571639, 0.20626454732658017, 0.16849219310208494, 0.4483574351959196, 0.47583057114550564, -0.13649950370848857, 0.4941099600072525, -0.4205894587507654, 0.18615836892304272, -0.337601235021297, 0.2366972545117205, -0.2504912506497793, 0.1611944325574201], [0.2629961046503897, 0.16276276684584223, -0.4192813487309167, 0.15174014071544317, 0.40501174738723, -0.40246727171245844, -0.15051247852056937, -0.39378545972394374, -0.32574328955741694, -0.39062101917074066, -0.10157247287497728, -0.29266002306782235, 0.13731112427036796, -0.47420525929333157], [-0.14303971004206503, -0.39183320280364375, 0.09770380506141067, 0.20540407530492094, -0.32622782805230216, 0.03708292279979227, 0.14057613560864649, 0.35608082743329816, 0.26552883234704905, -0.4875660994395592, -0.41884267742928827, 0.03221390554619339, -0.3348692647715101, -0.006099139099716857], [-0.48073431135531464, -0.39905608161661177, -0.4031385533509879, -0.07878878449155036, 0.07357045218657965, 0.04077336023131217, 0.369231378087275, -0.28848636149492013, 0.05062871370729849, -0.27901733186776834, -0.3451396381124201, -0.29624657921473563, -0.24652300496775947, 0.0688373643812007], [0.004343230187496938, -0.46378561050523004, -0.18242677150630704, -0.11114161331377082, -0.15798864044001626, -0.3725743132401772, 0.13574607708417874, -0.04907497191945909, -0.0524997774335445, -0.057230286375496875, -0.060373922235179234, -0.4920390327460634, -0.45603717369736074, -0.4569815832570464], [0.3694856032287907, -0.01928901004166246, -0.42724760533470046, -0.036225942930301895, 0.08271700705974405, 0.33366255603321765, 0.31318284840279254, 0.41070316702522325, 0.0494770287770796, 0.35517420292067486, -0.16192761756457547, 0.3106739290811047, 0.35946142627818634, 0.020562544089140367], [0.33230034691567983, -0.06818449067286883, 0.12873492252309443, -0.1704975695531369, -0.05633019951004785, 0.2440106560191262, -0.31784182331194044, -0.12356067171182084, 0.40748436859364834, 0.21361933415482623, -0.27480933404600594, 0.4315306135698231, 0.00625230625661259, -0.03696802476462319], [-0.1791768262480587, -0.3965795654136471, -0.1463703435650219, -0.3552907606417287, -0.36659989789322367, -0.2156804123474991, 0.33760790254690726, 0.12860955575356892, 0.4050695780136093, 0.11371782451473351, -0.27078177991278013, 0.31874816385589566, 0.47281627602272147, 0.36776690113346333], [0.3713314265256615, 0.4223908798582024, 0.008729905086834886, 0.3903629031433612, -0.06170192534015235, -0.15126236021524234, -0.11967831240863341, 0.42126009595293173, 0.07712660737788042, 0.2329119457597874, 0.19290418419558916, 0.4586802315495221, -0.3804142771713832, -0.35865480514619485], [0.272754893983141, -0.36556499507506884, 0.13094105685673374, 0.4578285138694853, -0.20647445980659163, 0.44181060113143283, -0.0694140375436422, 0.20407027281017798, -0.21660246581892206, 0.10084120448297523, -0.06816322645790439, -0.4096804679767243, -0.31112083282448966, 0.05452633697316559], [0.15656324606996178, 0.4009406986532895, 0.27154251868235174, 0.2788699305978548, -0.12391191521634529, 0.04929993716641613, -0.45746075150300824, -0.17837493546382568, -0.020274940309162864, -0.2759929461718977, -0.36273416454492585, 0.3586065604436619, 0.18042906194203281, 0.02303942384606226], [0.17725422961781645, -0.25014626063575546, -0.13828437095695267, 0.22075990672019938, 0.16835128659974932, -0.2246908337444283, 0.45438423972093384, 0.18499597927741615, 0.29102809597530355, -0.21781636648246494, -0.25713653142272885, -0.13277953447670618, 0.012543661967665407, 0.44043426973618865], [0.3842890963476556, -0.058326684417502994, 0.390002227982925, 0.28511701258784994, -0.4863561567824715, 0.3875448807775452, -0.00948802243254291, 0.20981215462773234, 0.16041410547891502, 0.3660491455646595, 0.1573517150130623, -0.48966759097037543, 0.003658584376186845, -0.28909104201852587], [-0.2870014788340935, -0.20094515494201745, 0.3918798397233982, 0.20387760363835086, -0.31959718684655575, -0.17130303388170062, 0.18715087597596708, -0.3015765373849812, 0.3916904768503942, 0.17627740482101936, -0.028932066244264337, 0.09642009668562547, -0.16077249577564662, 0.35377988670931304], [-0.22663183885918076, -0.3832686684164064, 0.432687715035807, 0.1139832536407289, 0.3964063675893408, -0.2362645207256335, -0.30962020662067063, 0.47682127766443955, -0.3218871702581901, 0.1256374305040394, -0.0018171794274772207, 0.29560595127076233, -0.03474025336429571, -0.14226380272161643], [-0.4529902779797661, 0.10261682015265433, 0.009134587175167037, -0.3669182922471266, -0.2156737032549824, 0.36004400543365755, 0.49398172063061824, -0.34441600326941874, 0.15700507287974266, 0.1047084544009281, -0.398929408392363, 0.27057163354984004, -0.31931385289184794, 0.4649791313883379], [0.06816478760222139, -0.4802253087856291, -0.04084189624383348, -0.20008359523959282, 0.15328798747813047, 0.22708370564753005, -0.08131048362995281, 0.2800209173843516, 0.3934013624763754, -0.3661933183847939, -0.10795989357594782, 0.16406924289392388, -0.07184977544583893, 0.06216146593857302], [-0.3910564724659154, -0.09105306850437436, -0.058618392883426136, 0.021063304908218387, 0.412611027716171, -0.006116063794049792, -0.11697610462371134, -0.2781949478164103, -0.45954400564971626, -0.22620718477213342, 0.29289100816022157, 0.1967643444073192, -0.17105874883975655, 0.1127906935255322], [-0.21667181073636146, -0.4415645620127162, 0.2715092597778366, -0.19103059936602032, -0.4678911529659126, -0.32669597453350324, -0.4114066762785218, -0.1345480000963311, 0.07751940953135629, 0.4289687079350141, -0.25238394711378054, -0.28801407898530257, 0.44860281893039733, -0.07680021146527785], [-0.225820132750673, 0.16193243590805195, -0.4702692432166226, 0.4961816868114049, -0.12898456956972823, 0.14469705776734676, 0.028194209826034503, 0.32789675792997436, 0.03955537219622275, 0.20805952162416036, 0.451841474748965, 0.3196747506898214, 0.16520018933400907, -0.4148551487051188], [-0.1305888892946768, 0.025337573054162586, -0.004547420824176102, -0.38660136509938475, 0.15243260093962216, -0.09452699974850515, -0.4613460206590485, 0.44489641811576197, -0.03416993429200211, 0.3716124644414375, -0.4513177483094294, 0.2958796321644716, 0.3052414230228334, 0.19686087111541334], [0.1347878571921136, 0.16731069620013075, 0.24181824604441682, -0.03700743582903448, 0.4866498048802603, -0.36473592362085466, -0.13804830894661368, 0.46232458588484804, -0.4532167727647889, 0.3504377360176936, 0.27738009128313473, -0.05524787584591521, -0.039097191851484935, -0.38689666315790416], [-0.019518349402752124, 0.1855320371056987, -0.14568861965282318, 0.3546851823404012, -0.20083856454323837, -0.036002370456863886, 0.45083099972350293, 0.41789083816014405, -0.03206747702318479, 0.46849236261443367, -0.11008707468389582, 0.43859208800304456, -0.3302218349473428, 0.03045475704083094], [0.16432358290518545, -0.27476807605554027, -0.056811370432834435, 0.24081782264430626, 0.3425628007448873, 0.30337661341840094, 0.2440093413411276, -0.3878177104678033, 0.22632522435581945, 0.30133756911480075, 0.2060659869473976, -0.48582643741264747, 0.340400604798988, -0.11240313901301004], [0.03781223790207132, 0.1137958610727386, -0.4891953305616512, 0.3389264781299169, 0.10097295957484946, 0.09123021760287571, 0.16749307833834273, 0.4789295514947183, -0.2587807246712408, 0.11811563080583172, -0.3557436022613706, -0.18930571039041333, 0.01918732395781854, 0.07243766191982083], [-0.3884415206437925, -0.0034221836822031994, 0.1723495361916197, -0.08052399341226012, -0.34934719831795596, 0.2943381631204206, -0.14783392516321603, 0.4328280007404234, 0.029236417379783254, -0.1608781603710182, 0.4792419819745248, 0.01545815417191876, -0.3363675713238702, 0.3708593058010496], [0.3305736999189229, -0.2871842831493981, 0.3269086709267885, 0.04152789515263053, -0.22530255365754912, 0.3865361961128018, -0.04771781963463455, -0.4707449913766264, -0.04991854195703576, 0.04614336014630136, 0.35587187464778114, 0.25568938273937525, 0.33706795835714276, 0.48671172143037367], [-0.06595991916714285, 0.4308475389168141, 0.30276505969488376, -0.38276521248200446, 0.2640707516727261, 0.23231974228682395, 0.46324622121515224, 0.4569266266974739, 0.4232297194529033, -0.23371697442790063, -0.0012330918114434946, -0.4221649228361064, -0.2330321706931048, 0.03753111302648241], [-0.33258240700182934, 0.48316459777614795, -0.43619880815945855, 0.13300923052366892, 0.48115019713618884, 0.10078116829037348, -0.2475879697947419, -0.08903173820521551, 0.25237276213745596, 0.02945724317641248, -0.04779123556088729, -0.41140530381480056, -0.47696522903366906, 0.07235703463532556], [0.3657387971231382, 0.25153804063423535, -0.1986190968569974, -0.46933102953555744, 0.23997898176016932, 0.23842032645854475, -0.3565096593074942, -0.07056827555597069, -0.3843767026757426, 0.18855892341761957, 0.4233516702589278, -0.3971095897639757, -0.3081002711006938, -0.4674274847331755], [0.089461728998278, 0.3240246578198926, 0.38931109234380035, -0.19812783773321466, 0.09912567755090602, 0.34677683116454155, 0.3937101993255404, -0.2806691842651708, 0.47414766860462, -0.42597816551963624, 0.2506029884684654, -0.46694442615954096, 0.31513336675366604, -0.2511951810921223], [0.3159319270944297, -0.13573653706414474, -0.06470905854459158, -0.16191343646400008, 0.39063969722728725, -0.2749200717385295, -0.25110368205713673, 0.3508629466198709, -0.46112631631763185, 0.1805743580122469, -0.2781986734308567, -0.4620358815268867, 0.3629793841864573, -0.41968156088187036], [0.3891691481436936, -0.18212680689096708, -0.08016075092705748, 0.31521506573429414, -0.45085342132459616, -0.29401550574682306, -0.20365829043797343, 0.16841716159325712, -0.3709871233206854, -0.048644398196095825, -0.048345878705368446, -0.4525631313441547, -0.22310476360101925, 0.360227630950854], [0.00952460163987475, -0.1795122583086217, 0.032395357392100484, -0.3069717930785137, 0.3468042694020609, 0.13329813496698337, 0.15436490818360876, 0.233661545891473, -0.24954151575951075, 0.3825555817453696, 0.49624327235426197, -0.445382209023736, -0.38777673275830127, -0.13614909712923928], [-0.4626952446739731, 0.13146499696356534, -0.35105243591562485, 0.13429372225005495, -0.25678129539398525, -0.45992070162038673, 0.46057872215156753, 0.44376777464896516, 0.12690089951576533, -0.118791248204107, -0.09577377519576188, -0.17609447865347302, -0.003695500244115439, 0.20229666522952128], [0.32297644740265247, 0.09323999971253351, -0.312098797568942, -0.3371693420851991, 0.029515692396389823, 0.32488743900610684, 0.48254929714126676, -0.19000456866115303, -0.27836580318875764, 0.08602066561792496, -0.45936816953111537, 0.3605823186434308, -0.3583215184787259, 0.3417143320879575], [-0.09850526553623977, -0.13092591537591577, -0.4588513403785979, 0.06387304836951313, 0.4693936187990853, 0.06041209237706592, -0.10046962917509616, 0.12369797351620827, 0.20709155345116576, -0.04769315456205019, -0.2111850090955989, 0.1290935987027816, 0.12691478769198034, -0.16901856559543532], [-0.20136807554169722, 0.11506003182257239, 0.05936168351423896, 0.46773376834835323, -0.46923652695455514, 0.27272750054326617, -0.0008527669840184193, -0.10955715875980829, 0.21900593365629648, -0.49066487590584945, 0.09791941248430654, 0.406299169049733, 0.02530110077794384, 0.2804358575879159], [-0.3234095627833457, 0.0848873274751202, -0.33287952740240895, 0.15194673542832984, -0.19102878976245394, -0.3608169632468044, 0.09652831959218097, 0.08453525387606348, 0.42553990399980524, 0.47805604431358445, -0.2640302729109738, 0.3174932632561637, 0.1589809500169349, 0.019213987510201862], [0.3871050961963082, 0.46157183547179537, -0.0375890648244102, 0.15937282054653337, -0.4525250580957147, 0.45440143078545164, 0.05047026905835092, 0.12310082535959664, 0.132228105131826, 0.008557284402593556, -0.023873676838899793, -0.3686311616900024, 0.2414149984736778, -0.14199686897535538], [0.25573354780808943, 0.3128660746650776, -0.4537443166522103, -0.2174652092315486, 0.44914969386625614, -0.42365485179789214, 0.1942538352912832, -0.22947549019818556, 0.34698895512211536, 0.36448373371901205, -0.4799579162817975, -0.06392934193758101, -0.12891191572107336, -0.016232588141587134], [-0.168345927318857, 0.09787830451266033, 0.3388925069528754, -0.2578068818237148, -0.02335818004529233, -0.1305110664374829, 0.019424871734498028, 0.3847766609541462, -0.43608315420013144, -0.3978119755105135, -0.2590933743708178, 0.11837378073796023, 0.43277947806363615, -0.3756551654917928], [-0.29424401151632423, 0.37832946833859854, -0.42191064730424666, 0.3449769793125444, 0.13743099229859523, -0.23228921335070227, -0.33797461283167646, -0.2201721938100153, -0.158377162577557, -0.2077111154571313, -0.4956097417535593, 0.36302438365914214, 0.2081102414968664, -0.4922557241008958], [-0.3357743134681302, -0.3114352446081937, -0.3092299571270676, 0.42465633040636797, -0.020846932781962757, -0.02246905216073301, 0.0010965165155890598, 0.3864333690031849, 0.26110837203443327, -0.004728586788349272, -0.3121887564760607, -0.3119438174592002, -0.15901504927862076, -0.057106702933293146], [0.0886337206101825, -0.19668710258316421, -0.23636855590929623, -0.4997573588326941, -0.49368049240358347, -0.35553183268135025, -0.19635336210488938, -0.06075979441162822, -0.1328640165089921, 0.1668305538209011, 0.3149285662039482, 0.3803250101813753, -0.10640296627304449, 0.1269685632768606], [-0.13816970284528432, 0.08839344372842373, 0.28487549688998687, -0.1576844236005215, 0.061064840565099934, -0.11357899325144805, -0.038854394314673836, -0.4816107847357927, 0.45127588176796246, -0.05811661123692544, -0.3384879956825049, -0.10803443649272605, 0.25607088030927544, 0.08874913799009906], [0.09722886013994221, 0.2414019851637058, -0.07642781618374742, 0.2168519172647126, 0.3334972199676054, 0.4120729746059037, -0.10610647909829028, -0.16711791589327452, -0.14726479945365553, 0.20380975659849762, -0.16116038246345704, 0.309293141021301, 0.43217325432494974, 0.2855181556830869], [0.23468361900515222, 0.39954604692972623, -0.45194695423013426, 0.18137749540592846, -0.38415526110294085, -0.14948674536625084, 0.37057990192671825, 0.04538162793303975, 0.012666322994270599, -0.01922277022589014, 0.16076936236800582, 0.2295854562439157, -0.018409760876872846, -0.4767672261753558], [-0.07662395945595402, -0.02827903563273805, -0.31197874919827256, -0.03935880804213062, 0.38404513581597316, 0.4501931303971228, 0.467733599168287, -0.078695058206661, 0.3387896796754279, -0.272056271807764, -0.49520841717664954, -0.46908612010271616, 0.14965360443211603, 0.3710736221958531], [0.34111126447918105, 0.13176178576036462, -0.24433550490116454, -0.4254535706480609, 0.11464909898313536, -0.1582522173163583, 0.4198464078424233, 0.3559925055853386, -0.042032067971672804, 0.2560211385086759, -0.010479083030132274, 0.2995542777115051, -0.3403528825024462, 0.08406076192573435], [-0.18785440788782334, 0.28940687764675144, -0.36300501249152756, 0.3835560782801129, -0.27147914801933476, 0.06859405103486933, -0.48259498113731736, -0.2004933755683421, -0.36364524338317183, 0.036183254331471876, 0.3433420811769577, 0.18642856734923416, 0.00968589248850141, 0.4708800343585194], [-0.08134788364107258, -0.18422240027302234, -0.15470966617415866, -0.43473618568139016, 0.36842854630617816, -0.23401840948170274, 0.36587610927654934, -0.2768165550984005, 0.49548281475973033, 0.25911225990832654, 0.43915007586841814, 0.3608559396961383, 0.0072856130331982885, 0.4924761551249019], [0.21842833651067478, 0.21837517515117805, 0.23510941690306245, -0.059933892137169376, -0.3743778352952917, -0.3827768723543158, -0.3029146817603805, 0.22035215090717147, 0.3437701054773479, 0.23533463230631105, -0.48283470285988384, -0.008627453288319832, 0.46674982832758855, -0.08127623860714953], [0.2655968207956199, 0.2890759187318298, -0.1793896875289509, 0.47699523287241496, -0.14530884996202095, -0.2232194603374866, -0.13471440544021304, 0.18625528720658543, 0.37629227421464995, -0.23208526001719815, -0.0056234452431895, -0.48036003814533373, -0.014906930373314344, -0.19026696709975677], [-0.07850321689414715, 0.46674340955861154, -0.015131037182500343, -0.19035441518885407, -0.018562936946821703, 0.11462541101600691, 0.042612191983962745, -0.09247783772981831, 0.23849115044458952, 0.3941410214104826, -0.29512897716659864, 0.33207384812151963, 0.4966116209816487, 0.2361689686421695], [-0.1407336760766625, -0.4921383895279657, -0.16664658415351855, -0.44117488096485163, -0.039230746225275406, 0.3913637735927332, -0.4997186726892179, -0.20835341712156033, -0.1243882692740991, -0.41423294337349276, 0.023796589526792845, 0.05276610600365275, 0.2718967691839209, -0.15304937659271037], [0.1488434636577586, 0.40917453900506845, -0.3508650775457679, -0.4303233363220788, 0.01014451764136217, 0.288634131523351, 0.08519201415442171, 0.08970299937103247, 0.05066443215655426, -0.03636807501920332, 0.23037454018898987, -0.21886667903850532, 0.25684921563370133, -0.008260617165958196], [0.06784244975786842, -0.051093161803608976, 0.0052400401465558044, 0.2885280280033399, 0.48566614369811767, 0.29720727211724246, 0.04219492456404704, 0.05205001294710217, 0.3713286590659031, 0.15478451697078766, 0.34528757284282985, 0.08103728544834239, -0.28316186234673624, -0.02858593123293552], [-0.388817909379981, -0.23222346957972217, -0.04205956269531196, 0.4190709318426343, -0.37966531700856543, -0.4170607072674206, -0.1133448041706873, -0.19848097333310066, -0.1918994330937317, 0.05582564992772943, -0.2643964224609021, -0.08125336643588454, -0.23083942736716814, 0.05250705924832174], [-0.42751699689942746, 0.3600885467429157, 0.29345780473253497, -0.2002965164711055, -0.20428965651928557, 0.3596327594538035, 0.3876215402339285, 0.2999615024761431, 0.03995943832816934, -0.21203241528492245, 0.13115847661815846, 0.31483461097287874, -0.2743553135934013, -0.36463356429010374], [0.22685793567962093, -0.0971627959474883, -0.3558592831298325, -0.10828967747426939, 0.06840549179613498, 0.008514234295985372, 0.22337390995086234, 0.4787240344442007, -0.31105037613758335, -0.36237470300352553, -0.04287961758762073, -0.012538681202535807, 0.09650313828936075, 0.39885305421059675], [0.21741669181560286, -0.28978348131266907, -0.023554791480573614, 0.44877493375171745, -0.3066724451339497, -0.37380725060334197, 0.2987289614615578, -0.3359810237244727, -0.27105207884422344, 0.38833607333368875, 0.2588919611517859, -0.09239881228486922, 0.4663480224937597, 0.4702137597760323], [0.27280259533650386, 0.42245129475588467, 0.4835794965442877, 0.16921498310133226, 0.059718037896803654, -0.1163250316422212, 0.12087919517842817, 0.1176632865928432, 0.2569533879356713, -0.05479066201848987, 0.28700560746558273, 0.35584352768481453, 0.1356840614147788, -0.031540569789140986], [0.07743297006607236, -0.041339107593269725, 0.34156733928364236, 0.42424207299303845, -0.24018895204997065, 0.47991641354362696, -0.29653613155963265, 0.46868912349077263, -0.016073244737360094, -0.24365678613259634, 0.42084697671113597, -0.38469485117841845, 0.05556166193646366, -0.4319576915657689], [-0.06352547351924309, 0.02654591137375617, 0.3272808794409757, 0.17821378803440668, 0.010207249915734073, 0.03765626477258599, 0.2612209807956558, -0.4539630042002796, -0.47294649327707017, -0.37894500362648886, -0.017179244405219896, 0.07425574407249436, -0.23998770578111772, -0.20408511499751236], [-0.17828807084784506, 0.1711967537907955, 0.23935103516322231, -0.07153687289207847, 0.0478614907091724, 0.05180944045535854, 0.13050385059343217, 0.05426799237493232, 0.40086938924758925, 0.48788500944879226, -0.180591772173443, -0.1987829422440809, -0.39013984799979323, -0.4908607467992368], [0.1977594733675204, 0.4465289448263703, -0.23349741547695146, -0.257680821267257, 0.027591541818692004, -0.44257586760864803, 0.18981061368822671, 0.28872006830058156, -0.22113101922170533, -0.24417798866674498, 0.22816591041969433, -0.4170146973917734, 0.082133549280308, 