{"layer_0_weights": [[0.449310461666058, -0.22837387652311686, 0.2920015897038116, 0.32067655270644996, -0.3187616370997553, 0.13599388913494265, 0.320830829897166, 0.24760209470778866, 0.2500924818743646, -0.3839171997153492, -0.2053483057334336, -0.21815516660089596, -0.2570233021753501, 0.4124975898809358], [0.23965292765783275, -0.2588693358421329, 0.1557595732126578, 0.3787257414048488, -0.1678811450730483, -0.2797735658014965, 0.0013454220949252987, 0.47308921463905446, 0.14798367485767913, 0.07668371193838168, -0.15741478046824078, 0.3624152721149259, 0.15309570532164865, 0.24339669860218324], [-0.10355066574326863, 0.24589383412012766, 0.2514636651084183, 0.4357376908293558, -0.13713556833125512, 0.2398449724386017, -0.17502240102216743, 0.11640317004198086, 0.020377417623637425, 0.48336828368666496, -0.34466360940192187, -0.18710545726092948, -0.4878783885850001, -0.2644104766532397], [-0.41191422264232275, -0.21167527514076584, -0.4640490384399973, 0.2998181950368659, -0.492427705623959, 0.2467890712158156, -0.015399497394795895, 0.07738302605823877, -0.18594714894912226, 0.34028446552463204, 0.4126434800256467, -0.0020697859541313544, -0.08278316987903613, -0.37859522164328996], [-0.04716711175787975, -0.09670103169687284, -0.33144515244495104, 0.3743863564236929, -0.23429490254150606, -0.004561006326648306, -0.16966857753511147, 0.218134348413649, -0.42032763519327015, -0.37629337279156017, -0.07688716634352219, -0.27922651314028923, 0.3702644039970529, 0.48095778865367494], [0.030063438710087053, 0.4689968004062477, -0.24995962389164456, -0.06872825836547848, -0.08543650606414797, 0.10143182028142018, 0.3956356419292132, -0.3157017800683104, -0.09218092426236821, 0.30915841591686183, -0.2065206800072646, 0.10652544486458833, -0.3796080441223399, -0.43459630647873143], [0.18093575145107293, 0.45612611599397657, -0.2852224285718756, -0.396991010501369, 0.297373849342972, 0.0492295055546377, 0.4486289353712273, 0.35896419174876304, 0.11673672106343286, 0.12489771534055102, -0.014937057915704152, 0.2556946366466176, 0.3710552245392354, -0.36519586227446893], [0.3094411592231164, -0.06399174719741789, 0.34392074888324103, 0.11790748129740215, -0.47461461923103304, 0.37260958429762303, -0.39102423559338867, 0.3889176480844751, 0.10409036685708675, -0.09156973593864286, -0.2941166846133041, -0.12258244891388412, -0.041808536275270966, -0.44716177347330377], [0.029181723177695473, 0.03987015467860188, -0.16779077045267551, 0.25602684848891877, 0.2432796457751102, -0.458169357938615, 0.4972489085218809, 0.2608508019124095, 0.45083839774067963, 0.17996966858142102, 0.27152600125895116, 0.3021446232906152, 0.4486506258822425, 0.20468724386219672], [-0.11596195015441883, 0.24971528082684852, -0.3193961508804616, 0.024831146524847504, -0.0439469753195646, 0.2668429815799557, -0.48741835044960863, 0.2078029376425581, 0.31786158730575853, 0.15320908694132315, -0.19732045485931263, 0.2712728237275045, -0.08325989947022153, -0.3311847133183235], [0.1950511449765646, 0.24340112021294338, -0.08988466961386914, 0.4394875755231619, -0.026823669061042117, -0.00022992998138485294, -0.41283064921305646, -0.0051678327114691724, 0.3115219765900599, 0.3611074789919426, -0.26961507260520856, 0.3792090463337332, 0.19869287883640488, -0.17680243312814092], [-0.2973900932942681, -0.33447898511973967, -0.15315018702947783, -0.40090736372208585, 0.14814320969033232, 0.4799182771142792, -0.48523886524279314, -0.29966333379887433, -0.357266254621789, 0.03782843586563835, 0.36721152028125387, 0.2744403005938577, 0.4170519291928741, 0.09255918235957764], [-0.2656946424854308, 0.037646185398974, 0.028853804716418272, 0.2210292929442328, -0.17199351353381892, -0.111301089564308, -0.37787120654313333, -0.014314641660603417, -0.0170870614065699, 0.3666569604684434, -0.42641828787071023, 0.48780670887644995, 0.4604598489832029, -0.3763264231872432], [-0.07446488433355594, 0.16214518571446496, -0.09855953600063366, 0.4179705201311919, 0.3175330975031924, -0.4265364672721065, 0.09706632100394258, -0.4043483119863023, 0.4588289004723729, 0.1558318309777429, -0.21761365617908657, 0.10815334685973216, -0.009646902928121728, -0.07037429238858643], [0.1975095037763406, -0.30956846951743455, 0.4603630932386916, 0.47343040287952365, -0.3793546719720868, 0.2258077247105646, -0.04218919544564563, -0.3995283605429265, -0.20434872993584607, -0.009567513246133598, -0.038261267723809445, -0.047341075540136085, -0.16268619865251382, -0.49332175088764885], [-0.4542145040252681, -0.17069698625269622, -0.24046998567350175, -0.3156095885708928, 0.16896164802197794, -0.2023814575985515, 0.23669984446315473, -0.05121780848032727, 0.2614662587468994, 0.22429620218364388, -0.36604173074232516, 0.237085752222563, -0.2028270042392286, -0.4268368878939265], [0.00629319846518203, 0.3591293212688943, 0.15717888742007116, 0.15894704481504116, 0.4327684849004136, 0.2528826046065947, 0.26927861342277976, 0.09375301953592956, 0.062386793230356744, -0.0929882779812794, 0.2797205197314518, -0.23664196018819425, 0.28768804218857386, -0.4134007258401024], [-0.3383396542069236, -0.18142271268612437, -0.3341888873833409, 0.397265308459745, 0.043727627350298115, 0.3496853563259657, -0.3311675186238578, 0.22926407502051188, 0.35219431593292355, -0.18787998275511233, 0.4874211665155041, 0.14175503459932792, -0.45817144659992537, -0.40773254093581845], [0.07582644297853965, 0.009232624824604069, -0.030162754969988933, -0.21582046855983725, -0.28870701546387617, 0.39526529559482687, 0.0064568197375431645, 0.3988625906152688, 0.021199127767986832, 0.10104666570077935, -0.3095968758637814, -0.12072838169218289, -0.16496947449246596, -0.01676893275258298], [0.06676828166280557, 0.25518868288891733, -0.23609788961967088, -0.37449563193329183, -0.11367346956778306, 0.1280890864885252, -0.2351309687115048, -0.18543611402407834, -0.11169904813328047, 0.15976799567893082, -0.3379582895534248, 0.167604469094699, -0.12515345103912576, -0.13386655714985068], [0.035969084629958514, 0.2275875301064708, -0.03160491307102478, -0.44299148853530945, 0.4828071797597365, 0.01758376834477332, -0.17617444601486892, -0.16627763812308483, -0.316829119662552, -0.4880283833076729, 0.3127514633773972, -0.2159257417495721, -0.3816007259533372, 0.17548979835309406], [-0.17015695569636594, -0.04136627970356291, -0.026369569995926618, -0.31131230631404044, 0.12068028333151665, -0.14961088491169622, 0.15292376905103264, -0.15436031152511093, 0.3664565015848802, 0.12742772878984124, -0.36337648119698496, -0.38209454602311277, 0.1648319888363477, 0.41699028774332725], [-0.29954367679892974, 0.4031681361019742, -0.41150993576700795, 0.39670799158686426, 0.27456982977932926, -0.1250746024441618, 0.36680768047375284, -0.24496714701648142, 0.33163797104165055, -0.12257756728021313, -0.14339694559834487, 0.20894415171367886, 0.43390433440100445, 0.008794081206885044], [0.28230513930897344, 0.387384028066199, 0.25510065453084685, -0.16174892170568092, -0.354879052922308, 0.04122870434883779, 0.06380728136363527, 0.3987718000308684, 0.24100731663172223, -0.23684970258033647, 0.11974087463300213, 0.13246894598749537, 0.10741038662458263, 0.38381678931435664], [-0.18593387323594052, 0.038583919759774266, 0.06090155716051028, -0.09469425788912497, 0.1525003507632734, 0.14986269455708512, 0.39473127972474337, 0.1622767884661236, 0.25322131870244213, 0.20050030931480503, 0.00940876592767368, -0.17025627751671896, 0.48100971178599466, -0.27770964231206996], [-0.06066788764874545, -0.3677424821093377, 0.216082794315807, 0.3645557797606317, 0.02783569244011091, 0.20569580411091998, 0.030162075913252984, 0.34229058233451787, -0.472365722674094, -0.2750599042449917, 0.11898526177334662, -0.2256139012908255, 0.39905373585473836, 0.18410169772363327], [-0.10833117725158561, 0.22690719361763192, 0.019886919705688736, 0.2436939365087579, -0.23489130529875057, 0.0932324102433922, -0.4286283195042306, -0.20952327023521042, -0.34806748803426274, -0.056563235408141496, -0.40208484617061246, 0.3756196723666636, 0.43533376148040454, 0.360648955870661], [0.49562293075193875, -0.07980246012823702, 0.034711017563698564, -0.4601718851964913, -0.37609186301277336, 0.26059575502816373, -0.3194917173823884, 0.047062440916327906, 0.3657036689431918, 0.18819744980729958, -0.18212958001090096, 0.07621401870528913, -0.14456167586634133, -0.4718388617428304], [0.2857575774769689, 0.31019975526749716, -0.07556247844301363, 0.326051168511298, -0.13163601848925485, -0.05167770402217642, 0.14191837299709847, -0.0888018997383601, 0.3731587080015389, -0.3860029990408454, -0.31029612740874246, -0.02781582205426522, 0.4216952487390351, -0.45228497440623083], [-0.17126072427955166, 0.4008368625160651, -0.12611368339838874, -0.13329378804800046, -0.23455695758548475, 0.3901902153003819, -0.2672796339410496, 0.4585366840500655, -0.13463209541481058, -0.4878588413132837, -0.4476922799812618, 0.06518397029053152, 0.20434871325072287, 0.12470604327300573], [0.06715066746377997, -0.25032453565154766, -0.12999946473267143, 0.257703350315655, 0.26514245204212866, -0.280819871478986, -0.40515814778412224, -0.031612954356292494, 0.004360716751690292, -0.39278397421224914, -0.20844066072880474, -0.12072969311146531, 0.1289330310646124, -0.483413435077377], [-0.4590290318960292, -0.4542117668820569, -0.13186677426655752, 0.27251429365040747, -0.2791267943422562, -0.4181308562762559, 0.11804465110576227, 0.03664420290801763, -0.4094068681619103, 0.036579636125942325, 0.09173839859946618, 0.20110078617778884, -0.18495036064850182, 0.14486011186078088], [-0.16228996905734794, -0.01950053862050411, -0.3600943596612391, 0.36773627366355344, 0.249327288664167, 0.3875866449345575, -0.4006209370796766, -0.4272956183337077, -0.03494256452113592, 0.30231716162798855, -0.25439370175608367, -0.28000415394399414, 0.3322447888346134, 0.23695075273685068], [0.4653310299915715, 0.37987320754821674, 0.2665643232042205, 0.224551205761472, -0.4819563209143295, -0.4538235652492638, -0.20539353774795197, -0.2699989228860174, 0.3508985431233084, -0.06540773031850475, -0.24037780261824948, 0.12095675088982075, -0.49821077902016125, 0.26794966284404337], [-0.25065410694068846, 0.41494940586072504, 0.34540143429104614, 0.35838702266968075, 0.14196971604932315, 0.3765693227978243, 0.4815379934437364, 0.11256516443772194, -0.3313130497693607, 0.24866079398183272, 0.1469502535009967, -0.21581471364500798, 0.11033946153054751, 0.10120083389939731], [-0.17919512074562588, -0.27675992051783727, -0.21353844873399205, -0.1435887543514096, 0.06566592778937182, 0.05948393866279672, 0.12323461372457795, 0.22572190269487763, 0.26796289686590125, -0.4237002444780885, -0.16911177710969427, 0.27230231319241355, 0.31054822592344855, -0.07361995107727268], [0.3384684411982517, 0.1500812173389125, -0.0018133578867042895, 0.4488786523979349, 0.22516857927467726, -0.3919806553063532, -0.4213608635570425, -0.433044560120063, -0.36727304268861133, 0.2436800280040664, -0.16774549417597248, -0.2326550079369998, 0.11711942634071107, 0.3029247131400212], [0.1229462132870807, 0.4946038033249141, -0.2042533784549466, 0.1278684693098415, -0.21013036666829588, 0.2785109034334937, -0.11013611623392551, 0.2505932494580696, -0.4686990017073125, 0.2756459110302347, 0.1788746436088629, -0.3648301511626181, -0.16577548522314595, 0.033471292950969025], [-0.09513903962316897, 0.4711281454458968, -0.07465704388968802, 0.46888533820247563, -0.396812780623975, -0.070086428227891, 0.029200982614071103, -0.3740198601350068, -0.3789178345696557, -0.2741137938441435, 0.49742275015683046, -0.15242699368642482, -0.2740193440004755, 0.016788409078583047], [0.44945683555459764, 0.04906394102590947, 0.09163537307562655, -0.1418692782531676, -0.3655574565475806, -0.10004360127263807, -0.25756539687515617, 0.36349494763610435, -0.38824202206125497, 0.1158276279994701, 0.15142355219614922, -0.45231342518327666, -0.4926184678762018, 0.11216453173653765], [0.1322981485943074, 0.3942662685420885, -0.15922301422231178, 0.49105012160684813, -0.19979996327656838, -0.24529115376283772, -0.4646975380228065, 0.3293330131348696, -0.48162183984056267, 0.08809369373453889, -0.30808356643742163, -0.013028364536786656, 0.19460608395703824, -0.433187390367227], [0.3592194409393179, -0.3561243600991576, 0.18864232808696915, -0.07451078683838148, 0.15952166905584558, -0.2607309434805724, 0.1372432992327493, 0.1344320383604697, 0.06802024761651214, -0.14529764666356398, 0.12648264907229956, -0.30549581759073097, -0.020511237115274316, -0.21580256643791879], [-0.4502525025045489, 0.2538296624939255, -0.019637241177749978, -0.3633681395172671, -0.43047225051129795, 0.13188643163370287, 0.08530771366361388, 0.05582015750042499, 0.2899557702379796, 0.4396726475940373, 0.16306957979161069, -0.009028441272292222, -0.30896607234191165, -0.03685865188768243], [0.4678754126049197, 0.08916813656450086, -0.3691512398881098, 0.28478164838406167, -0.1828526523471024, -0.32287681715368344, -0.09802024543880214, 0.4133816905037149, 0.3117456830099307, -0.43287650265522976, 0.40306350518747724, -0.2293834969978676, -0.2508419470934603, 0.10856190889698193], [-0.30732023584026924, 0.19539403935993246, -0.18129194720511385, 0.029211149697785863, -0.09773766182991146, -0.43719359412725584, 0.02271971409588737, 0.07818487578318638, -0.3440998862312079, 0.10224613185985978, -0.12075978800011096, 0.38395634847369847, -0.1761347148544626, 0.22866462690877656], [-0.16409612721651937, -0.29731231722804935, 0.09145053680784551, 0.4006399448692687, -0.37005207585850236, -0.2696948450831164, -0.34033885097249295, -0.27198664648368237, 0.4790289925209521, 0.32843647892291905, -0.057112848651318826, 0.1077346837125652, -0.12345215130289822, -0.0005035818130143907], [-0.2503923629723422, 0.011974374644680989, -0.3345251252667013, 0.4730270255402685, -0.22177461042842023, 0.10356006990025521, 0.4492222855968284, -0.281105542982459, -0.07594231165028574, -0.17086330476516745, -0.21159600112041804, -0.13687564233864494, 0.4493312529646052, 0.21212013220380974], [0.3197265747069511, -0.28299349641364485, 0.20510784948771985, -0.09563315785950417, -0.45505382736907085, 0.21556652529711495, 0.2193288253126217, -0.38627873296647264, -0.12413299889282518, -0.11351898779317952, 0.12813554099130423, 0.35828306924915587, 0.49584617997815444, 0.34642075429953395], [-0.4470371307570351, -0.31302968141007387, -0.21033921310852616, -0.010927290775640097, -0.24426227399968528, -0.4087647698624712, -0.3812502442008151, -0.49002952376871645, -0.0456895821514508, 0.27135437678235147, -0.00538667263303202, -0.3401960267289831, 0.2343935312564272, 0.13889095849926378], [0.25450763224381867, 0.46176452163450915, -0.3008475262637166, 0.000809869005468075, -0.41023067255069556, -0.36011813104770257, -0.3521549360676061, -0.04126614078089814, -0.14276805035641857, 0.4804966242170026, -0.007089498743042526, 0.2965793876517267, 0.3332316343296626, -0.06006937488170019], [0.3318555489435356, 0.2642564601961541, 0.4982719580736616, 0.3975090874626889, -0.36157758040327476, -0.33429351625250964, 0.12112339431963122, -0.3890955437831986, -0.21583375062671614, 0.19331591449916563, -0.027276076204905336, -0.3063530990973942, -0.36274143507297524, 0.19658182879115332], [0.3330786083732243, 0.0015189370536350182, -0.33960047266222115, -0.0044451583497139395, 0.3994097632765307, -0.09236645679363917, -0.4971692795169929, 0.26143809572580556, -0.16865998773225732, 0.4884210858612955, 0.20476219884631636, 0.14904881217382698, -0.24724397952552069, 0.4053435655160335], [0.47813759236953857, -0.0400960041372355, 0.2548629851556582, -0.059820507740446775, 0.2993682165003935, 0.1565722724468687, -0.0408405846477519, 0.23980896956389233, 0.12985377703214881, 0.43156492835903987, -0.47575323718181284, 0.41342535954693366, -0.4384849318970904, 0.2144471940019468], [-0.14365750531393184, 0.4608509275800165, 0.2416250335736499, 0.17174640160349144, 0.04302311719893537, 0.21886897536999095, -0.04389463668971523, -0.1735399898307679, -0.3519123413864874, 0.4806408345187571, -0.15529329577816486, 0.04343393733151788, -0.48531890890049373, 0.10175366180770924], [-0.40214758077715546, -0.13203148395249156, 0.20189538898635254, -0.040405060525123736, -0.272423300947657, -0.32464954093901127, -0.49506854339088735, 0.16372710003183688, 0.06097044817309145, -0.3728433957850019, 0.3747702855320447, 0.18614461094734291, -0.016043377602526398, 0.4000058290164567], [-0.2751428225930384, -0.11960217449209887, 0.4605408900310199, -0.2338051273953513, -0.278600334328743, 0.2872435673844643, -0.48588512706057524, 0.22695690542425498, -0.1271866445703861, -0.1231412246833928, -0.49005624717483937, -0.23265616113323778, 0.23656558363392968, -0.41809227438278507], [0.07477596542956355, 0.3057153502498209, -0.25679187284748034, -0.32474083371452195, -0.21579473668556853, -0.11215615288006685, -0.05950836489796729, 0.3711198004865911, 0.04217576767557263, 0.4052750441997344, -0.10008451944644557, 0.42131771986204325, 0.17081690537579713, -0.039176681839218], [0.0317093643705227, 0.24653657470864826, 0.20618335087428152, -0.010909244651272552, -0.16099270935509954, 0.23049437222006933, -0.0241438890442945, -0.1462250467051493, -0.344058659486832, 0.08415197078537186, -0.07601699270089594, 0.24042714994098158, -0.19743981248562043, -0.11654622458175379], [-0.08564069606994322, -0.26435005103181985, 0.4928099316114656, 0.47260714850071506, 0.22473918737351462, 0.3255245013288763, -0.20400421852537395, -0.03424127351968488, -0.42316040508311603, 0.49830454027965215, -0.05908561764550051, 0.10871381511668884, -0.34466173180591975, 0.3463723836968377], [-0.02186998061305876, -0.28903290087377287, 0.15943406257538673, -0.19883470714978096, 0.25151102855414786, 0.12313231982705634, -0.36341560215908153, 0.31764108716650313, -0.21578915854068137, -0.19023827390007897, -0.1745768341568868, -0.4273278004712846, -0.12972611196602582, 0.18264918496377291], [-0.01723791156887119, -0.2866308370574415, 0.21150625944481488, -0.4193275737112502, 0.05958622681490966, -0.0539317465106927, 0.14908028255479908, -0.1741763134523472, -0.22821187710160634, -0.3003515410194175, 0.3897535698992747, -0.21321986656744674, 0.13712170446237507, -0.42624805411245836], [-0.36965213589966284, 0.008729555651664755, 0.41415331585914367, 0.1357270731985516, -0.09323033919681699, 0.27192735127852075, 0.13580983943522015, -0.3140599280238996, -0.2928634570389202, -0.2766424068613049, -0.30126158085096955, 0.197551754573508, -0.4477937203818769, 0.1493760370844929], [0.18827499978585752, -0.22856510200067065, -0.06231155408604964, 0.09977202670718831, -0.31248664216088284, -0.3968514850857951, -0.3438193898056416, 0.3552656182385419, 0.012315243748613085, 0.42729481010218184, 0.38019995375789084, -0.0016004580427099312, 0.3205448449425806, 0.3999907245995639], [0.403229161993945, 0.21882187577718515, -0.12895820356710724, -0.27632178421487846, 0.0392522150293386, -0.1388003488791109, -0.10044445756410228, 0.4151619331458974, 0.36549066372168093, -0.1973916062431097, 0.14384147928547192, 0.013585698726861257, 0.08725826006482108, -0.4269535163012197], [-0.04673821850528085, -0.42434275047122877, -0.21074612320696712, 0.45397780854447056, 0.06922594982132586, -0.026385433131364832, 0.40581607747749676, 0.23401367027244896, -0.2785633263983227, -0.03789335936762287, -0.3957793830038985, 0.03679921504313772, 0.48508973825596824, 0.3254873132191421], [-0.10080558380475883, -0.38598797358969994, 0.4058646615309048, -0.4665352807131871, 0.33621737437325716, -0.0016955474093936947, 0.004653777345953133, -0.19651870591129472, -0.16320465547004767, 0.1826152791573107, 0.3146808594945346, -0.050798684011348176, 0.4041290142971099, 0.03200234554425708], [0.40149945990375213, -0.17906574615116444, -0.4735734988310367, -0.4162061656029534, -0.1764400941113998, -0.03635022335827665, 0.0186961933838589, 0.4197352746400691, 0.2991947205889979, 0.17907237594364958, -0.21934585848386096, -0.18979074452997366, -0.174302087476938, -0.15585173925779072], [0.387390297183712, -0.20311896512313857, -0.15900558614553664, -0.2072422893580654, 0.20576748024545902, -0.2931347825063098, -0.39267402675191, -0.22296432776420566, -0.2998954617915691, 0.3375754668797249, 0.40906118758065413, 0.4796965007029356, 0.3263267412516488, 0.0437846989736936], [0.02803358850242573, -0.4689119286199079, -0.10814692999386498, 0.4908052776846473, -0.1461158438366597, 0.43623900057061266, 0.4467356160290299, 0.024182847474989708, 0.0714698356742395, 0.3449576485981928, -0.18020280723608076, -0.2655487872698483, 0.4908066159444786, -0.3227848828673524], [-0.326300634914647, 0.2985617270622013, -0.30305379204335325, -0.13147506133213144, 0.4436861231708997, -0.399264113751881, 0.15368080163956235, 0.16997664180188987, 0.4556440213831338, -0.4983961261927198, 0.441420358443087, -0.13594178320670572, -0.12750165130888166, -0.07981646743079983], [-0.25894861856573853, -0.1935049637879121, -0.34375010080300794, 0.3418564192792302, -0.16188726240958487, 0.4001590584061112, 0.3527920634337719, 0.2461456643487578, -0.4629774514947289, 0.23402085067582593, 0.22237047351415254, -0.23796412208643564, 0.15981719392670352, 0.21275307742569852], [0.32455733530258685, 0.3066366872586996, 0.23366559262687836, 0.4410265040599405, -0.019624895693020807, -0.03230916502413408, -0.4833271787528563, -0.0365489159984399, 0.33928456446170036, 0.10368503090477264, -0.10749964917396167, 0.23548721409686946, -0.07845157056834813, 0.4892757610825944], [0.32648362279327064, 0.25606285701518644, 0.41553020738236396, -0.2132047018739065, -0.28151235103830624, 0.4854741752250361, -0.24155788376023485, 0.07159781863719142, 0.4239715651427838, -0.2550891292127006, -0.34963071758430997, 0.10033346156304254, -0.3447493850968317, 0.1727116050322612], [-0.04822038745679414, 0.4180033577045995, -0.07244991784538843, -0.4398458261982459, 0.19990270976855043, -0.25629224807233003, -0.2409034474184356, -0.23286633276129662, -0.29636140639549635, -0.3150656661781273, -0.11179864863490047, 0.21356686304692157, -0.35598602095207504, -0.21891700834982883], [-0.37472898341168515, -0.17960499617662756, 0.13849212112310258, -0.3646269477402646, -0.43842752658372247, -0.13950997158606585, -0.48210334730403687, 0.11106049761446435, 0.17407486641422437, 0.47361638746215423, 0.3788921673863903, 0.41238188851531166, -0.3337267511045205, -0.0631389886994879], [0.39276100641598405, 0.07238320824988011, -0.49275862304603496, 0.39307762342860997, -0.49820387933318894, 0.4540592790288699, -0.3763212105270677, -0.3296506301309191, 0.42255528888837945, 0.13859910128966169, 0.32267494411687114, 0.31239488312296976, 0.12204383079001531, 0.24668304089965506], [0.06023547329059021, -0.21761839226320354, 0.1978599208027531, -0.49911211763185587, 0.16010607027240176, -0.2262220860482099, -0.10212549850755855, 0.06535781706102586, 0.051432436419041765, 0.4443630960257368, 0.18509138048867713, 0.3031773567990279, 0.3021821001530111, -0.18879233950342422], [-0.12586908758967302, 0.2600365887134704, 0.22377436090177166, 0.3764377587734241, -0.4630525189443967, -0.39519749731317944, 0.3612767505651437, -0.29223889753079024, 0.40079913035546094, 0.18561144495388324, 0.44462155701901945, 0.19631031479321226, -0.14958126972284974, 0.4949748922480128], [-0.40761275419594706, -0.33685459443374693, 0.1917357119772851, -0.23001365998011136, -0.49539034343849514, 0.26930325024136853, 0.11010608507260708, -0.11246349426755455, 0.4935308033182146, 0.3994038535776749, -0.019081989436313607, -0.48307038514467754, -0.20028931598644498, 0.15297217006076677], [0.0869300430379001, -0.16505233374036235, 0.22561796661148273, 0.3730168338222778, -0.35421742956569485, -0.17547924005788906, -0.3137199349364071, -0.40881441425627313, -0.2259913752337456, 0.28898650835701184, 0.4069850011830346, -0.16997130704680624, 0.24886872747785221, 0.4869321106830358], [0.2046735555121148, 0.008511972552758434, -0.0319686176862209, -0.04578281310188614, -0.23356566649332627, 0.12416658759783543, 0.3708865433051958, -0.09508237350383478, -0.21788835783875996, -0.10776405028676758, -0.13833958768449925, 0.17339271230470352, 0.170004653294251, 0.41426162313772985], [-0.09034667976070052, 0.30912824317337967, 0.43007134909818007, -0.4289920251196496, 0.021131344025326456, 0.1411429808282916, 0.41951353472759895, 0.2895000942022433, 0.39906921927842737, -0.49540949523180344, 0.1947966980834489, -0.45049444427228524, -0.053012958752241914, -0.17490673524077363], [0.20721785965626421, -0.3734645405335746, 0.10837200547796542, 0.3691149778824794, 0.4325669269106735, 0.02016570079403255, 0.274902583229634, -0.45697029370010744, -0.25278217625004856, -0.053689896041894745, 0.2897353057703398, 0.1951194368347765, 0.4530059133633992, 0.30434820534859003], [-0.15516615446003457, -0.2614380837090603, 0.1983849204687955, -0.15003135038419377, -0.4297920636753388, 0.12649304655361482, 0.37017107570461344, 0.4888435096800988, 0.4109764839484875, -0.17841908574765913, 0.07271920656212355, 0.22653632163400927, -0.3597896190003482, 0.235947836409929], [-0.03891792853195062, -0.07700835041655273, -0.08449600664288714, 0.28363094951330375, -0.2532264578109224, 0.29084990848024017, -0.1734467838162075, 0.22441698772858593, 0.3470526703970288, 0.14567107349648817, 0.2402264102069458, 0.0015931421719326008, 0.24688849343097982, -0.2753681734651603], [0.31148765475349577, 0.3783558180699292, 0.33893320148119754, 0.018860004885331936, -0.3050895669457186, -0.36282723340775896, -0.22677639549375966, -0.06606933508309466, 0.050008823179303684, 0.08882029842817303, -0.05450978265602701, -0.03928423935127364, -0.4698600251626215, -0.0831141967082196], [0.20208055353565663, 0.12990227300714585, 0.11019910111740688, -0.2911325901150211, 0.42058493992589413, 0.3452070550913004, 0.015654028847413355, 0.2503889868693785, 0.2215414441723234, -0.29848082704263557, 0.45051015821127305, -0.031798329859266894, 0.09059423667372582, 0.1820389819048965], [-0.2748900394266701, 0.35759609416432747, 0.28620940914128973, 0.2027137252529106, -0.4299805133924945, -0.3122972567126683, 0.29871852466471205, -0.3629511880364639, 0.3404906499642234, -0.4193671618709056, -0.3770741354143159, -0.2796207554090322, -0.2715780672357506, -0.2888744340632888], [0.4576757277608975, 0.21229108693299734, 0.03736086044244687, -0.44173143699182776, 0.4335711743689539, 0.1648737782110179, -0.27142963940768705, -0.1462554277818809, 0.3596639395461294, 0.09375072202709991, -0.005857723745711299, -0.04643680773367143, -0.14033690580029426, -0.3094033567493672], [-0.4991466189648511, 0.006917993445693883, 0.08904269011302872, -0.1282615339821228, -0.3675035086474514, -0.2317192376526966, 0.33745197149951356, -0.28553350457051146, -0.14068739035766586, -0.39435544919285764, -0.14102418671340966, 0.17005998752188406, -0.2152826862851717, 0.17011414977045178], [0.32613947378468855, -0.33760703871167363, -0.3876664713840438, -0.14318612100454503, -0.03321861279172748, 0.15184859110402119, -0.15777184959881552, -0.13001988929646296, 0.4379233494534187, -0.20844606067359067, 0.1956973115674142, -0.2709460921818404, 0.41526226382451037, -0.3519983041533962], [0.4040705417275202, 0.14718678387829126, 0.3814367382030971, 0.016990509163617936, -0.4018790945512063, 0.4519753600680131, 0.31976973617732646, 0.36418273631281817, 0.406461089728942, -0.31339359094555835, -0.17370407955173406, -0.20282878284641986, -0.3671773860319454, -0.378093052308529], [0.41875843394545664, -0.2310475674583108, -0.05889661528356628, 0.4962016173905172, -0.01570270040354926, 0.36377770224296174, -0.1835422780253378, -0.33812642233346285, 0.24783221515782475, 0.1309792447839638, 0.06148791223941195, 0.2729475269699087, 0.38566416066349923, -0.47717205715596717], [0.0914632406986658, 0.32247222084069566, -0.10285193424489722, -0.4950895847643682, -0.24059992504733105, 0.1357035374850629, 0.4958719651613916, 0.18992330237223462, 0.32153081968537367, -0.4336622491675262, -0.44024511330451893, -0.30336296505923177, 0.16656488580319637, -0.20081851385395985], [0.12565944401507081, -0.26842489263013486, 0.3669708216195246, 0.1111871673249953, 0.18728722433195233, -0.05091996928049826, 0.09696324616110696, 0.26652030179731573, 0.20660973527692922, -0.3676338607527822, -0.3458528687667432, -0.36533045083508003, 0.02627053457569713, 0.05331954047894307], [0.48954264494335725, -0.011378568997143306, -0.48182201904494115, -0.49436803804781926, -0.3737213433273951, 0.12852067457153327, -0.2793809108598873, -0.16975316237745497, 0.44706642858311074, -0.4962572890816254, -0.3809252760178298, 0.42291459548454496, 0.483387570203802, 0.1186954111848407], [-0.34416284992900853, -0.373285441424849, -0.4442754868589651, -0.1625937298994037, 0.17689733530047938, -0.050111007018011806, 0.36008612361345743, 0.01191640230149706, 0.36185207935381863, -0.44321625993383323, 0.1581020301327749, -0.1873951482511502, 0.4136928845613008, 0.04162950188033226], [-0.30295160854897546, -0.4644768465657029, 0.37023230789040484, 0.04774136836309134, -0.21632780447749148, 0.4067834921342254, -0.11451170025977907, 0.23622005240426777, 0.43287801230179535, -0.28709957105882145, 0.31381353163351683, -0.1716690416746128, 0.36941820320584234, 0.4908412687397071], [-0.15768083236606958, -0.09564751955385246, -0.14614875117117115, 0.2640628620841264, -0.15311602501626342, -0.16997647985249523, 0.4494882654190034, -0.21062526271650486, -0.11369733001963428, -0.21123915243312244, 0.04754334972018, -0.3953176848117426, -0.46190410377972146, 0.14117056471051728], [0.1882889976181808, 0.05080437227178979, -0.24539961280675127, 0.39471143385059415, -0.4063062415094678, -0.15468587150262703, -0.08474480102423897, 0.3088866778114952, -0.10068413582164472, -0.25634807030367995, 0.29203393653804277, -0.06091943193437439, -0.09821675062473628, -0.0356748734138714], [-0.27266445273902745, -0.33960898036688986, 0.24667585745278695, -0.45751401331958164, 0.4450217951269621, 0.4431031901535725, -0.36785325452295414, -0.10380040946641983, -0.20196845899121293, 0.2425558810155605, -0.28862527544112193, -0.46032158687874, 0.16625672129732694, 0.2886824361095754], [0.007717891326019263, -0.4194264430222034, -0.238375690154717, -0.16797979331830706, 0.3720983866390803, 0.15990878897614855, -0.4823812382170191, -0.39444131419058076, 0.07395981618264755, 0.1860360963808004, -0.14706030858868296, -0.04216300637768149, -0.44559998088492186, 0.2555188010391793], [0.46431774064684406, -0.19852126681344734, -0.3787987765170393, -0.2872859579424877, -0.1555099328804901, 0.2930777788499396, -0.2507026253800747, -0.47235949713979536, -0.20946843887874325, -0.06350431207434888, 0.4566535007715844, -0.003183218928160355, 0.15962891627436185, 0.5032572813280004], [-0.2175264855856888, 0.08221640412175471, 0.18911797958025028, -0.31261475409979833, 0.10959758285337239, -0.3471515310368323, -0.2090740341245512, -0.29546813871805827, 0.3677159306733558, -0.23338689808084315, -0.14815521983061386, -0.1353924811551546, -0.30343802265506237, 0.2536459861660331], [0.364156399438069, 0.42367023772063434, 0.24993056816515138, -0.06492416574060306, -0.05315218894239791, 0.07150354831191935, 0.0945082769160531, 0.0635775293783609, -0.383461979488144, 0.17260475659030658, -0.3768076615729255, -0.07943977191063852, -0.11162758702845592, 0.3365850248619891], [0.10446075396089496, 0.30020023006759117, 0.1263344775453267, -0.015029632458782116, 0.004343872232008197, 0.030245034701504647, 0.06070067747885715, 0.024545934379963556, -0.052738286582285514, -0.346561217269258, 0.41669446204411603, 0.2664949028637271, -0.24013572096522245, 0.4371458026933531], [0.05820812583290826, 0.42642032053386575, -0.47780758815813473, -0.27220627386941587, 0.1665529584784847, -0.042073001666875, -0.3935190425298752, 0.3795004053726716, 0.44447590158380523, 0.3315530331334289, -0.3196379272337635, 0.25430667676007945, -0.12489253192969609, -0.17215225314620095], [-0.4166866237763778, 0.4896018808178729, 0.017909851838101763, -0.22174122469019664, -0.3864546890996641, 0.3531950141521673, 0.31077624816029664, -0.15329583778801006, -0.14809939048676501, -0.2700051032894422, 0.041117304200178825, 0.017593043517011072, -0.32705532291199163, 0.0759870656228514], [-0.08198017377544538, 0.38819517214423316, 0.08682530451450944, 0.3646930002553401, -0.23369741596253096, 0.23429699931420714, -0.200583331393927, -0.031068779717066966, -0.31463584063768324, -0.23291561220403015, 0.3418719869064655, 0.2557809226314508, 0.27620827292950034, -0.300379342280144], [0.21380278506441663, -0.44149726652270754, -0.036019108319710995, 0.08998858737729551, -0.04286629207694308, 0.4842487784524518, 0.014773096732921539, -0.01492025447587172, 0.20087253195180313, -0.13738575699966601, -0.41859275309571253, 0.23619888035740289, 0.4553322828286349, 0.22736390371340984], [0.32226299696479094, 0.16212448373239335, 0.32752275142790377, 0.21767310576175364, 0.18396580778489124, 0.19616334982283368, 0.29904571432963767, -0.3844400474164276, -0.10188000253342193, 0.060240826744877435, -0.0076353452546063585, -0.047636894579171724, -0.3075337616915255, 0.4758156570996432], [0.4680684464424791, 0.06460865226842154, 0.021205742993700268, -0.04506065446524199, -0.09138425312795688, 0.17849582653809482, -0.1848156951517922, 0.05537018009446056, -0.1323853775048176, 0.020091571465925842, 0.49473716174908533, 0.0867571745141644, 0.1314600121378374, 0.2894787133225537], [0.12427881843576068, 0.3360046144361892, 0.18293764206031257, 0.46635549280914845, 0.43266153217923514, 0.34853993183391585, -0.16320207618803265, -0.31215947037238806, 0.3220110298875523, 0.1529146544274114, 0.24655103235407416, 0.15640725784876253, 0.49787469382096056, 0.006226284387918291], [0.25549300425374216, -0.2452141353347504, 0.49624885184305045, 0.4795486866781884, -0.16717930450748605, -0.4466016328171552, -0.4281631602439353, 0.25659923426080655, 0.371400927205688, -0.3375621284522357, -0.008807227971790677, 0.3107221244470799, 0.15893266611800674, -0.2686263187839105], [-0.2419507519291805, 0.1788834891414965, 0.37873049911002776, 0.4152365581581611, -0.13130321307342657, -0.40876730321572396, -0.33717713685227585, 0.38718478372868426, 0.428500619503068, 0.29925522729499987, 0.4735622890196945, 0.4772966981123591, 0.29305210798665743, -0.10900073960088054], [-0.10573143230772028, -0.400028421468345, 0.18657025536017613, -0.41231450895839095, 0.15382906133682933, -0.300778727283585, -0.38968759495127536, -0.13010562561757302, -0.005271786626097236, -0.4870979760682888, 0.1054537080232306, -0.3202246649266477, -0.13350240929251517, 0.0529403889921732], [0.10108299940793279, 0.18666161669282347, -0.21958890525736585, 0.49337299664362655, 0.33279213474708275, -0.006084651448853073, 0.4368390829935914, -0.4745534335557731, 0.35609055328039324, 0.0769325141536504, -0.17745005305045253, -0.026593347853770048, -0.20460026534245435, 0.362091832907928], [0.014499867159564963, 0.3007940428322361, 0.3163569354990317, 0.12663554767532828, 0.48132556096289714, -0.16797932981993302, -0.26667964104331293, 0.16800682400160907, 0.06068161061335034, 0.433867954437808, -0.3899696688561676, 0.39163180811854464, 0.14067540072655033, 0.29211466864337526], [0.12302026453038244, -0.07643267083453337, -0.1896822659570857, 0.07010703457329372, 0.2677944993838933, -0.4156115770041761, -0.1233410341587735, -0.05556730969103208, 0.1211378103039528, 0.374830682977635, 0.23541311139668045, 0.2840321015328129, 0.4497535465088148, 0.008193644954477271], [0.2775101771153235, -0.44568162025507596, 0.49287663498528456, -0.1601456094644111, -0.36953030403113646, 0.31512479537698174, -0.2796014286713486, -0.3825460112748084, -0.37345003161000817, -0.1251541823908768, -0.3858118238707808, 0.004771847781978367, 0.33943531991799175, -0.014231211537608543], [-0.1465358034880469, -0.03695866972143707, -0.18472208849720184, -0.350690902191999, 0.1346851081013316, 0.4694464526532779, -0.18229028274064535, 0.006016052533614819, 0.06007518351395154, 0.13070077639622993, 0.385433699850418, -0.49209548517384816, -0.43032651593333576, -0.2014602547152056], [-0.09221794996708821, 0.3939943440518518, -0.0964754522717418, 0.20112244024853218, 0.4498969935524304, -0.011918601003721833, -0.1892207516838726, -0.3263506865034954, 0.04271234361477645, 0.041488252321136544, 0.4629377350615799, -0.3842182675256559, -0.3705324390617456, 0.266461365321793], [-0.1340068485219938, 0.30456531422161187, 0.21126680899351558, -0.0781112548829029, 0.03519936150250254, 0.22011975200415454, 0.2484366268289289, -0.26255553507852103, -0.25375994660998896, -0.21408498186623218, 0.3977262126777385, 0.4448132379897192, -0.3165647116817291, -0.03508831125055528], [0.00036021959759520927, 0.37057680943238686, -0.04769208969533014, 0.2742881959603708, 0.13903003146469195, -0.4834576729282077, -0.44318602464251555, -0.18010635766011052, -0.028811831915535917, 0.39145083427081934, -0.026041928218447072, -0.073730789557796, -0.004297705950425292, -0.18683461112041955], [0.17623048449390485, -0.4990855120379406, 0.051476624525485626, 0.10016868504648284, 0.3626491504106455, 0.49341906588469453, 0.3993616057599729, -0.14695791921725643, 0.3352243221752495, 0.4023154397291308, 0.49010098123153506, 0.1283077278464191, 0.4843172008599905, 0.4609252967285882], [-0.014795664233631581, -0.020724787805135383, -0.08437371389430355, -0.3724794536589418, 0.40350562929450934, 0.4732359441971256, 0.22362317440877355, -0.12474450676494502, -0.2622643993001067, 0.014561469379869048, 0.36038362226501114, -0.3792684322497024, -0.3030213736666799, 0.06938472451876129], [0.042938748908958185, -0.2966219195249113, -0.4854043344472099, -0.2570480581962988, 0.37207320338049465, 0.17182959871508674, 0.22315987277789862, 0.33704933716504737, 0.29229995645225504, -0.19999777525993878, 0.00027928356813402053, 0.37892529087182464, -0.10719277160206185, 0.014272024578627777], [-0.026085794956369143, -0.0818441443202576, -0.4577016613564821, -0.031139741933489094, -0.06562990718678846, 0.3645678024485363, -0.29982466005277314, 0.3590783398805319, 0.1174500522585078, 0.03132279763630727, -0.06594158277693674, 0.39219373884732844, -0.38475991203689325, 0.061569436457289774], [0.07364018868085567, -0.037617824561382684, -0.3556123237180376, -0.3257207318365464, -0.05583804751129465, -0.23029391281123401, 0.17266780341657748, 0.4513842495032231, -0.1283366153147504, 0.2660730762165591, 0.0782324515597233, -0.22774195011624948, 0.3463639558539675, -0.1115552285075551], [0.07326807404378856, -0.20777257799224264, 0.14747446891534907, -0.33677937547667, 0.27147306090408, -0.1615646017676671, -0.4431410517934753, -0.32924561286697135, -0.34349154216370137, -0.4405009995781033, -0.1767543405109463, 0.38772689894599127, 0.14760155130168745, 0.404230729643699], [-0.4623146785049235, -0.08043224988215915, -0.39427911533905263, 0.35101214826076016, 0.18640408519040044, -0.27114700228407557, 0.06833200705005438, -0.3855823895091196, -0.17822318579782773, 0.4994527992216259, 0.3174257678233539, -0.249515059345509, -0.045234701684417185, -0.3157761225809253], [0.10246740314670606, -0.3068902467764783, 0.10609537542873713, -0.154993945318338, 0.2069522128949429, 0.001616735737501201, 0.05926783826026662, -0.3202967308215078, 0.005952629911746143, 0.14357551484839245, -0.22936300839830026, 0.3066547120877539, -0.2881756065136752, -0.2815314390002213], [0.4299537500126179, 0.265703045880905, -0.4989819632005268, 0.46663412357036865, 0.014565840894506136, 0.24976034884730405, 0.1338670157566109, 0.3720511968440192, -0.24006011693598361, 0.23096663656259642, -0.16552026326226546, 0.19169937238575052, 0.2990372028482639, 0.3945978621136033], [0.49311932888126875, -0.09365731895595894, -0.33222186349888033, -0.42485438461458874, 0.2729960794571152, 0.23902901458402342, 0.09473565427439595, 0.29705808318579563, 0.1779025645289235, -0.3371274468748043, 0.1787970458842842, 0.36446843594391987, -0.13318510441024173, -0.028950025067756912], [0.2918209744429285, -0.10353020780175033, -0.21150226605991865, 0.0189531539988563, 0.28574521673107267, 0.2509935598836213, -0.040516930078613185, -0.01685677674205657, -0.3545390318706426, -0.4895516659607324, -0.15184065521295484, -0.36571640247016174, 0.26702737586976893, -0.2982553504809621], [0.037695880173862155, -0.3194793365977414, -0.0064484339365297695, -0.165651250360392, -0.3284647636375848, 0.18652830446381316, 0.008840988964334488, 0.07701148741072678, -0.2702550634294026, 0.10616096467483757, 0.4803317492221063, -0.10255596612719058, -0.12958854318808297, -0.29881456737832146], [0.2587953801060995, 0.4210180918122923, 0.048677101817650226, 0.13403186121429564, -0.02785314478020397, -0.4854237914293022, 0.4302969763165749, 0.2693308559574221, 0.44277429858577994, -0.02046924955301201, 0.36692009271408327, -0.008536972301423534, -0.10268569880464073, -0.2518159960266336], [0.3314213690524439, 0.14509640159114803, 0.3019419256377305, -0.4171071176342558, 0.09121741011117786, 0.10078957150178953, 0.005669126078869937, 0.23842844159426388, 0.46790368788979514, 0.01964222740904779, -0.3375891650448607, -0.49436840346590116, 0.02504793554220631, 0.35076869383022474], [0.011158532155786556, -0.045994192064435134, -0.39935147696815604, 0.40477576724534453, 0.4233517957613609, -0.14663137003808957, 0.11250492464357827, -0.26314797262951856, 0.06288255398573511, -0.38858667321332135, 0.01839378623846532, 0.059154005227975225, 0.03722095270330184, -0.24004370247967527], [0.15065019651395586, 0.40252735279730184, -0.14919702095910176, -0.036818424588870434, -0.20978222387817086, 0.07620492397345942, 0.2012170569322394, 0.14147131811848532, -0.14188371761996696, -0.1761416680713401, 0.03161012307856461, -0.30616132993252854, -0.3269369166845857, -0.4489902459356302], [0.49763090056608705, -0.1884416074061061, 0.14896077235754174, 0.31646612351479486, -0.3932872176056026, 0.2244495113939847, 0.05312624249343305, -0.3764879115939507, -0.37038614833253974, -0.3367695500304267, 0.09981447423222908, -0.1564723935551692, -0.2841243730961376, -0.3667490260696046], [-0.3490933242599968, 0.2520047783977332, -0.20937267874700258, 0.3677803186211222, -0.20558824289389355, 0.003971560829553464, -0.46018473270769583, -0.19191278272016365, 0.31852290234342145, -0.21080032553138114, -0.1619877844301301, 0.4141470789254376, 0.2784738502682365, -0.21025266593448358], [-0.07543439735032442, 0.36915190499410544, -0.3003521694320891, -0.4061548514993517, 0.26689650639702484, -0.3748441183454201, -0.35849262575018526, -0.20629664872425457, 0.36541786034306933, -0.08167892870509097, -0.3856958073900229, -0.32758817111391697, 0.431136646705612, 0.3804621498902014], [0.12138828781468969, -0.31926627229299603, -0.21883113442651453, 0.2539391651558337, 0.4273397055137295, 0.40837626943863137, -0.18412907746477197, 0.21234144616843628, 0.18026171870377153, -0.020069713985195997, -0.19763068495167335, -0.09633638605797273, 0.42297114516125334, 0.16972559724103525], [-0.46086276678854576, 0.12418144845785867, 0.18581356063975216, 0.4580684809135242, 0.25869166894266044, 0.23181370636990825, 0.12219565173513593, 0.4478392623022187, 0.07585590344021763, 0.18130499228900354, -0.2903803102568766, -0.4622387258338322, 0.4081917279527064, -0.2679198448406376], [0.3000406211785708, -0.2561936472002485, 0.27426323760773996, -0.25604191326485914, -0.14076032909626424, -0.17435431431440163, -0.22279273959318058, 0.21686988093934978, -0.498938039414331, -0.06862622145793074, -0.336515431509984, 0.17552868473188132, -0.3482540155810979, -0.2769972175794896], [-0.499805941738727, -0.0598422719867112, 0.15882770233578464, -0.09540042374530747, -0.29030384049401203, -0.4692839472360939, -0.04136407279731314, 0.44279541970410097, -0.36167362915089013, -0.25123865868058065, -0.09416007078496003, -0.35773077385155316, 0.09556118339454367, 0.16374950549614614], [0.1254914343893665, -0.24179275881233078, 0.07538403303527418, -0.24606538813298434, -0.07888661766510896, -0.1910142971137815, -0.3850971339068145, 0.4112983642309428, -0.16381989835892877, 0.17034026553340806, 0.18734514879876146, 0.2576831626717413, 0.08646219905732112, 0.47784303159288405], [-0.3455263261486737, -0.04941890107498623, 0.34849303309554025, -0.2590438548453146, -0.2693861594041846, -0.3353216514383899, -0.12305380379225186, 0.2030412278433426, 0.3551563027037283, -0.3910597503541292, 0.44739332625615674, 0.01964077460958466, 0.40026667586929876, -0.11669539598515334], [0.11736481852409232, 0.22352394043431925, 0.06776211415643099, 0.02698946940019928, 0.2585560458344428, -0.42261210835546, -0.4456257717727854, 0.186047520354072, 0.46670543466360803, 0.34314325769441995, -0.16243873948528512, -0.4351805549175206, 0.09575830361791117, 0.10189785004370218], [0.10298510638156287, 0.44249739495691387, -0.1819052210739916, 0.36322092146499046, -0.08711129204215572, 0.35132146886521165, 0.2682634934612653, -0.21244860645195215, 0.3912598411119683, -0.0044500620322475955, 0.38478676913180115, -0.3119413147342333, 0.20879790272128237, -0.09405889235671967], [0.256781170365937, 0.046755173575857505, 0.4986670878134305, -0.131512715841282, 0.1353625269036766, -0.17396160361971852, -0.46094881015923383, 0.2646297968480777, 0.15580715222171904, 0.4792467368876804, -0.19900264367518114, -0.12847348631323854, 0.35246015576681433, 0.33926044093075597], [0.34477015678646833, 0.0427961126010294, -0.3727514146686491, -0.15135617204340837, -0.30632936951486783, 0.49490401011211893, 0.21268574210547628, -0.35534657900991634, -0.10527254982491815, -0.40140562766683957, -0.3978112840007215, 0.4877787414187851, 0.3564858864548385, -0.3508729226135611], [0.06392158923904888, -0.09315729114388814, 0.24692604616299219, 0.03591031870341828, 0.22091501785900672, -0.12590157611371333, -0.03465738560654145, -0.10472938795329634, -0.1613255273873532, -0.2996874593666847, -0.11486191818539924, 0.3560282756636357, -0.16089348817045157, 0.15451364124705735], [-0.46806845502240885, -0.43460851003491796, -0.49567740881723726, 0.07642056868887437, -0.00314630724842968, -0.45777367308469136, 0.31741530387137035, -0.1295348930731259, 0.24728820575690993, 0.35301178731267246, 0.4009271995127499, 0.3229540492400047, 0.13104291388446565, -0.42199113292997914], [0.24983904032351995, 0.10733844462624789, -0.1272531633390207, 0.33350065045902433, -0.4567050852665834, -0.29101463639749536, 0.05171769873408475, 0.34873674682531847, 0.2837991074403746, 0.2971969075337274, 0.41376311475307354, -0.050405999110665026, 0.15269319612870796, -0.07060234308290582], [0.11683178465019703, -0.346596017820077, 0.3240976786325266, 0.2953671617555276, 0.30136047010213446, -0.28298383626562806, 0.04417748846226139, 0.41887699476215545, 0.1655546764097709, -0.0908760497760609, -0.4015673275324911, -0.14112396578471464, -0.4543078354727554, 0.08839646007156168], [-0.322318518707519, -0.44373218745692383, 0.2503732843983199, -0.46413794644079315, 0.09986010588156898, -0.04662885368097369, -0.05390457118256879, 0.3624273221323521, 0.40499047947963535, 0.36549780723218456, -0.47134863891476964, -0.4893322584011362, 0.23501631859686856, 0.3045735489055173], [0.43310349116861324, -0.4855059318319597, -0.32851888445156685, -0.2818484287243715, 0.4910334672783091, -0.22044951982214192, -0.4851875438539497, 0.11272660390765822, 0.27346746060942345, -0.10541440510328738, 0.031163891548133812, -0.16286955623534943, 0.08884811965220887, -0.2921826498574442], [-0.0736532930981768, 0.3098553624274345, 0.09357880220952776, 0.48529757455116407, -0.08274759960348123, 0.2561121227455753, 0.19939430348922862, 0.17067143883339947, -0.16192253033133727, -0.3710201813534533, -0.28547911849474616, 0.21783188640039589, 0.005397320760584451, -0.03993611479550441], [-0.07079884218777936, -0.21605948886442064, 0.199705848774152, 0.18122224848209534, 0.3530886715683369, -0.49763422252152706, -0.057977484710422605, 0.4507825655530666, 0.12730332007997883, 0.39445231175055523, 0.24907121558135364, -0.2599058976897645, -0.3252959903538746, -0.3786827618800504], [0.05433961632815598, 0.074420454758543, -0.26702567145976364, 0.2541582384673455, -0.46387131899336714, 0.2813285217549753, -0.39142429857757816, 0.319327578196407, 0.34549544145836075, -0.2746902068601792, -0.3331268209769617, 0.2620972487796457, 0.26285739582230805, -0.47536454275378176], [0.2105903163653137, -0.009683802947079828, -0.19319783001391777, -0.22928965948417193, 0.24447807759269388, -0.4695677264446213, 0.16189267142587918, 0.44861424884194895, 0.1108822043233358, 0.2646134885759678, -0.48852370588838506, 0.42854786926804656, 0.3352115540829632, 0.038838615115913314], [0.31275027623861207, -0.463337466383651, 0.503408401104623, 0.17430417928691289, -0.13319037476056292, -0.4121324069192367, 0.2950448423566113, -0.45882831863261164, 0.403206577030982, 0.37672576898884735, 0.4082817753217405, 0.131721667676681, 0.36760699233632205, -0.08294783157571917], [-0.35796250292252774, 0.02774968239411085, 0.4001046977294032, 0.21531032144019083, 0.4197296909059218, 0.4148443006438133, 0.2699830823246007, -0.29838956465033, -0.18539919387424736, 0.2059603966254623, 0.14189049137421045, 0.12552577179512991, 0.14390302162575694, 0.31061889712032886], [0.35799328695957977, -0.12416039039445076, -0.26445807889329936, 0.1363069126789316, -0.1869575606532446, -0.024616773857921558, 0.20341654246312693, -0.34639947505999746, 0.2317977943142511, -0.3833163882860012, 0.36081579945900283, 0.436333445077432, 0.3316841687778462, -0.43391804965014824], [0.38701654876486735, 0.15989721865805906, 0.24308183339026646, 0.30828174709373807, -0.1827198901116961, -0.4011123250807, -0.3103908201623038, 0.09760439852514201, -0.023397626619085753, -0.3159716506952898, -0.2892020394147463, 0.46433024151205743, -0.3066385499747158, 0.07782037545078939], [-0.09863735566953774, -0.06668923799109036, -0.025833979836052838, 0.4711440189297993, 0.1847411172774766, -0.12049051668922953, -0.4295383651803444, 0.44394336330247897, 0.13158772826314663, 0.45540635895074055, 0.24279625207950994, -0.05750990835135188, -0.21468405644856006, -0.19252770271378566], [0.09743371470351454, 0.1445467127998708, 0.3766951086104263, 0.348276705832281, 0.4165803891471889, 0.1975573357363652, 0.35598600926301016, 0.3741574479468034, 0.37389809890119463, -0.10302707258272932, 0.03739323046311585, -0.1786661436955292, 0.006751187247710753, 0.12257903692350505], [0.30888951555369343, -0.37433041792845234, 0.23446668206072996, -0.09915986404824488, 0.19440206432501494, 0.09425690728978074, -0.13015167084420287, 0.3131683269668698, 0.4563311160271926, 0.23891474391286954, 0.47150355089816276, -0.3890094531554025, 0.4025612827382672, 0.35310967722889014], [-0.07152459330991137, -0.46411106038097444, 0.43420684300144213, 0.4809385141166367, -0.4481405457660222, 0.473418624702492, -0.07944896742032238, -0.48577728447459656, 0.07593029067364447, -0.3278427067316154, -0.44864287197148717, 0.02757986728933242, -0.11775944730562848, 0.32641758324106607], [0.226508895263453, -0.17012908390316456, -0.4804818128752567, -0.12542376900316438, -0.18630017688481493, 0.33760291637622697, 0.2729041731686892, -0.2231110682284232, 0.3577162636891124, 0.24444072871657369, -0.23325683577836906, 0.3182911143503077, 0.10779156383845, 0.2869628066721752], [-0.05644515156761535, 0.2888975123308822, 0.12674166382434054, 0.3316160419564089, 0.05355316583209848, -0.3690244631163189, -0.42951357230178794, 0.15920432523389036, 0.37235065104164977, 0.4393998147209284, -0.14895847814850988, -0.3783516642490421, 0.24995195813158616, 0.16982053559939578], [-0.3082393718726575, -0.3541335340331359, -0.0532476522430668, -0.0288999703765526, -0.32453877260509784, -0.47762635357641137, 0.08940063563047845, -0.29624545356381876, 0.028118455665016712, 0.23014018843867692, 0.47870506785793887, -0.11743336214554251, -0.07132141835767651, 0.3884623300377471], [0.3844914912446931, 0.06550313100731156, -0.22575455410021147, -0.35745250238880266, 0.003220217148291515, -0.009938276253337847, 0.09105538955667251, 0.13066691549316564, 0.24944005953356999, -0.3167187166054045, 0.451782749289687, -0.2319060212090026, 0.021020255159203763, -0.3129318726189649], [0.1571085697787343, -0.20513603620349313, 0.25366328032039914, 0.40869350471165394, -0.33981280361599636, -0.33898105528032785, -0.42134838167572736, 0.3801237831693918, -0.19623152337014313, 0.43191619057421804, -0.16653587027632483, -0.49083561686774985, -0.12451344687531486, -0.2898145744680683], [0.11863889329317003, 0.3968586365030701, 0.0988895645344355, 0.05860638961927091, -0.1491809310048715, -0.49481205501936704, -0.009059372281722775, 0.40113246106429284, -0.07923213229481345, 0.4961202076002311, 0.1439144816058201, 0.45779701403109646, -0.02503290420333034, 0.09704055495348371], [0.3158856918665811, 0.20996236723995246, 0.17541160179390694, -0.40451962754903154, 0.17571597456172347, -0.0735066798156593, -0.34526249840816864, -0.4958266372141376, -0.35569228929404323, 0.2232686366591739, -0.2702088245087253, -0.38470288511106265, -0.21232637216194847, -0.011833935108189515], [0.34917183509759936, -0.3086939348688795, -0.027165437371644514, 0.16471824148932904, -0.09016894781190939, 0.322569936638264, -0.12719151598502854, -0.1986099535008215, 0.0580334656035038, -0.2636377956778317, -0.19525746141080397, -0.2649101274514127, -0.11305983381471513, 0.2413558945244276], [-0.42428208326820815, 0.44674994532232265, -0.47260516421067356, 0.15775327878066403, 0.48313414398367877, -0.06862055914380578, 0.4302784801279545, 0.4415637596903107, -0.3558614055638671, 0.006608359646237673, -0.4687922414275425, -0.48049917496692507, -0.45654979643997545, 0.4571354443077298], [0.06132735843991304, -0.24673440185878248, 0.38553036902864285, -0.21356662108252905, 0.06639770690181265, -0.03730153000660633, 0.18811699229370998, 0.1483684691104487, 0.14693951284631482, -0.0306457533925832, 0.16150470078275472, -0.06847166915707005, -0.3124407958349798, -0.2590209174630412], [0.10444683969106977, -0.19333333361447655, 0.4627457692031415, 0.1417317353103645, 0.1424250231604082, -0.4421908259852444, -0.008772783538899761, -0.277681191360872, 0.018627034521820744, 0.2539348959654826, 0.31034262059853035, -0.14875382237719303, -0.28505656441870963, -0.2336774874917416], [0.3964716740933455, 0.46779787207411117, 0.02730039600817744, -0.3454473409134406, 0.41088270790774273, -0.2866318905048903, -0.3439920911412024, 0.38951019297783535, 0.3517429051328625, 0.2372481329115841, 0.30085999264093116, -0.026615537224199265, 0.13141178948600007, -0.034678791052957285], [0.2652353992680595, 0.18355476335477755, -0.07582197945622048, 0.047888861722968454, -0.08132294755526184, 0.0095974345998711, 0.30224437828802675, 0.4321587495172838, -0.4264533632295013, 0.4425539308363836, -0.18676868184667406, 0.37812669886286415, -0.23450693366740272, 0.47791400991323196], [0.3105611227033165, -0.28950366999423477, -0.47585110758097865, -0.49560570851671537, 0.41432458511858145, 0.4226226248191285, 0.0293639910993384, 0.3463919503925177, -0.4123302152105523, -0.3073387380267882, 0.4523619065554224, -0.4024473706270262, 0.2886316769585389, 0.4656350989816573], [0.04716438201838432, -0.32009910461064983, -0.3477175708085551, -0.04724469523219759, 0.4300297386382625, -0.06368022331476775, 0.16843804828911574, 0.20663101988434723, -0.46438763891153095, 0.12029322433874567, 0.042752749907522765, -0.17774358720278208, 0.03544043737933294, 0.18832459420649802], [0.012149647109293577, 0.17911330307491202, 0.04966243797216895, 0.3311205645246905, -0.23038325155294803, 0.3726326129450565, -0.0974587818929575, -0.04115935796382992, -0.1359549600505305, -0.21390684915072936, -0.38630133004393535, -0.2573852152936781, 0.30494596264441765, -0.4801501122481014], [-0.3078596420698166, 0.38299717570428116, -0.3224665839298389, -0.3336847640035042, -0.19511704901117777, 0.2637750336965227, -0.19118584532061214, 0.3784878962858153, -0.4025966026819127, 0.08138759867271918, 0.08480956223870599, 0.339456759909631, 0.2422755199397682, 0.07360626426495444], [0.21417615372754525, -0.10133697061991655, -0.35317542760192694, 0.15247753554862445, 0.29007147180556775, 0.2739994086434743, 0.021710988427062313, -0.23313731489831996, -0.34665138469099843, 0.4860799405401413, -0.059716678013634304, -0.09706699028737449, 0.15125682564827636, -0.07587275362599712], [0.015990366932253367, -0.48923753372228174, 0.4789022969243539, 0.2251025688301058, -0.3970921300797753, -0.294118720495959, 0.1704485565506915, 0.046566366324093625, 0.3994411729377667, 0.391700667587034, -0.21529970430439876, 0.25406284764310233, -0.4696963782102456, -0.09075411246872468], [-0.1128947891262866, 0.09917333742062606, -0.21400874556693003, -0.4237773230437313, 0.021865723978977444, -0.45337171403740467, 0.2190269078330562, -0.31188110211009334, 0.2898535647616245, -0.18782917544925348, 0.37395405576389795, 0.37566709665592285, 0.31659360326837044, 0.019347866136820623], [0.4642932899293181, -0.35168780320283743, 0.42611710555153454, -0.18364140335997786, 0.16306087865107727, -0.13761974051768924, -0.34954588799538144, 0.34971363262683, -0.4147450261677914, -0.006712360831561106, -0.1678374383581972, 0.42164527244403327, -0.45228842361914956, -0.31740691521293707], [-0.130586704867081, 0.026011595692495833, 0.1415179527994278, -0.29263381081216533, 0.35227242763283406, -0.18003842621372343, 0.22189195745697193, -0.21776009851525688, -0.1492616178071674, 0.2813827462645214, -0.01155207337887775, -0.0010285545188347914, -0.02329979182563117, 0.2873389407266858], [-0.06777048562998574, 0.4012134999558001, 0.06400881990190845, -0.27040309054659956, -0.3533187190538033, 0.3676439734874979, -0.17530539007079915, -0.35851402332092436, -0.38626852515207105, 0.22828505814003672, 0.2559409212803594, -0.28610886598321106, 0.1883199397643439, 0.3241682234606288], [-0.3365786878839767, -0.4079225680082934, -0.07251619024605117, 0.23389143003805596, -0.37444880090990723, 0.07379578695523539, 0.09262276098752292, -0.36677652687788764, -0.30600617834050553, 0.22413079995144164, -0.08577431784164913, -0.06348787495380044, 0.1443943787977368, 0.347207086849317], [-0.4904556218345605, 0.0456365971400248, 0.15342027978509434, 0.11796706778945781, -0.13074683406181492, -0.3561317964346424, 0.36873350396491683, -0.1547130245186821, -0.4027825460107926, -0.1235170511431833, 0.25328902114563684, 0.32881362703636047, -0.08400455874198136, -0.24342524502817717], [0.4481694903867813, 0.4090141410294267, 0.24821778190323185, -0.1980878575622472, 0.1599289414707323, -0.2774756885393763, -0.3295824772910853, 0.0005452489785320213, 0.1457033592600402, 0.42706832937525574, -0.15547091353234202, -0.4576186820766862, 0.1832133773318632, 0.1781634697118566], [-0.4127018230226234, 0.4592877191280175, -0.13259925296952357, -0.1265333149756409, -0.2667724135414391, 0.4636985653628958, -0.4323574059994011, 0.06347535015097648, -0.26892723255155254, 0.08797657506684414, -0.0322839623071304, -0.020915621650068966, -0.13801096016305556, -0.17204182423755418], [-0.42359376899625656, -0.2953951648973557, 0.47475490586910396, -0.0614111004441746, 0.33470033326808696, -0.15940592770125986, 0.19610196875865515, 0.13026447731287163, -0.4852012247850059, -0.44904459167242033, -0.37236436508865145, -0.30381843422560445, 0.2954026902095624, -0.4733230676004094], [0.46925671297034477, -0.020115413133856654, -0.31760024263935244, 0.04363733296657274, -0.0929275130938899, -0.3487670381061371, -0.07370302794811077, -0.11738754058970344, -0.24558068569323172, 0.4898821287392705, -0.09107624920340818, 0.34755959065036063, -0.25075648955753854, 0.11790175913082918], [0.2933426265730004, 0.20713724055527868, 0.37132106160324757, -0.4864868638213586, -0.23231185886519984, -0.22409040078543285, 0.2446251754261577, -0.1946958617140565, 0.06149961893639701, 0.4567498387270457, -0.2178702318495183, 0.16551309592481273, -0.09476372901995478, 0.28605072404357296], [-0.15990487527985137, 0.3247110497729564, 0.055217401772512414, 0.2933717733278055, -0.18302991690358705, 0.06006799540308535, 0.019020474227261448, 0.2943849614707654, 0.007049156338655892, -0.22268063689607145, 0.06030531601871081, -0.3483475253512639, -0.00027721160220423995, 0.21005139705920686], [-0.41804918028967536, -0.029316517231808375, 0.23808825870968117, -0.2565921271818932, 0.39158590225227674, 0.01338952129579395, -0.4422878454780422, -0.42663678938702043, 0.21106995852805346, 0.030577838275702304, -0.3101366570369936, 0.20591649900335302, -0.02385640600150802, 0.24306557492427114], [-0.4291717912894602, 0.33097987066527174, -0.40281828616030885, -0.11100076784887256, 0.3504210101894124, -0.02133980470929413, 0.20617158563317725, -0.14590688827873544, 0.43288169494938045, -0.36223072364993436, -0.2811368299866003, 0.29123531964613036, -0.15651538936521073, 0.05356557099112614], [-0.22032037286926703, 0.049023346557424144, 0.18914858017577657, 0.14626836849167119, -0.45006591089258874, 0.45291318577293693, -0.30525805997019145, 0.45007769425687555, 0.46463015220289483, -0.019622439976371826, -0.25320271078754214, 0.3717601480010064, -0.21496111578692004, 0.0031641024334475984], [0.4467113628254831, 0.2776769489490545, -0.00911400829335755, -0.24271348002630608, 0.04110382753324109, -0.14476210487897478, 0.06204912685882209, -0.41851660451690886, 0.12717535976595226, -0.41567775314077715, -0.4214577632033801, 0.14197712440591215, 0.3554726247341721, 0.38000499434424595], [-0.427853082658885, 0.2650881266258464, 0.2635618342207003, 0.27247065895877476, -0.17592542217591733, 0.46336085719446946, -0.24602876768076629, 0.1849433212792832, -0.09572204953979056, 0.4181925690350467, 0.2975041987073716, 0.14584525219148067, 0.1340867916102417, 0.37007300449325], [0.021777753149393172, 0.02771963308027466, -0.37703960813957915, 0.40110292858078245, 0.38719368534617743, -0.40024339479171117, 0.11895324273525544, 0.21779980454929315, -0.09489284265656034, 0.269843137510987, 0.4068741403609563, -0.4845938074050974, 0.45031986479622166, -0.35080764924501384], [-0.2344656129749693, 0.259543651134671, 0.1759770906229326, -0.46832271062507336, 0.4963366275622333, 0.3591347678851816, 0.17943938899134368, -0.45564827370500255, 0.32405954691223743, 0.4894122815064928, 0.26103411567632595, 0.03325120184548587, -0.43648954331601536, 0.1350141612864597], [-0.07083570769703491, 0.2827383164368136, -0.44576810252251275, -0.36365286998289664, -0.40877846051609007, -0.037366548740257334, -0.2287711387331928, 0.43601915184247175, 0.19462166983899162, 0.4957279524894724, -0.22069545703779667, -0.11175442062311258, 0.12670503452415782, -0.10386540254966578], [-0.06725966260322606, 0.3526067348768662, -0.2708915847901957, 0.06949945920629856, -0.06664074840880137, 0.0383069876819658, 0.0975981023557137, -0.03127193032068348, 0.4221275095477597, -0.19610903704542307, 0.4069142836496564, -0.05273337913384551, -0.06838894966517996, -0.04743817710232655], [0.04202299131157642, -0.24700798114690026, 0.12058527694710634, -0.23562681679794892, -0.030216264986293477, 0.46506510861627015, -0.13407213529982973, 0.3643261624397666, -0.3785176351014133, 0.3459713594378958, -0.3827170879461854, -0.20944785393880916, 0.49879407001002724, 0.47110768449874235], [-0.10092082270654415, -0.29336986691809513, 0.3793771509216145, 0.19734972925337418, 0.42607173092335016, 0.3903957043450304, -0.40442973294493556, -0.3604934803453716, 0.3790245665124709, 0.4289719491019048, 0.1990352878107289, -0.1882297167381898, 0.2922711121941761, -0.1647380691832025], [0.32441154007085987, 0.3252907412891268, -0.44148662617895656, -0.066006401061982, -0.2788610924324282, 0.21550359722265466, -0.31898514149295726, -0.023976918280745357, -0.20945447414885157, 0.08670671332272221, 0.4707140773979881, 0.056207399220446694, 0.3463946816600537, 0.11078523565535707], [0.4755390270108547, 0.3564466798633465, 0.10759621604388582, 0.30870037375975723, 0.1790601540471255, -0.31062605811186683, -0.4694310090206271, -0.15576572321672158, -0.32762109466519046, -0.1597150239405881, 0.35396287164072987, -0.0035484106199133334, -0.041252712568182665, -0.1721985829146515], [0.010535520114850217, 0.35738017527478116, 0.31811536881787106, 0.05501097319161318, 0.35892054055272066, 0.31644244053452764, -0.15484582278288225, -0.11890251161619005, 0.22745492120059269, 0.3801649542032923, 0.38582314753632274, -0.05788777395272735, 0.3413175241389236, 0.3555522569531454], [0.0406360885493349, 0.17869716949182912, -0.26998701315665236, -0.2887863786915866, 0.4095943563992886, -0.13847996888944708, -0.21294397273108157, 0.2863369757571207, 0.2365236309097142, -0.3603249654643348, 0.4810374583332491, 0.28275601788937993, -0.3174469312343533, -0.33708619277186286], [-0.23254733409164707, -0.39297356570778963, -0.3595069723172278, -0.06286104434618199, 0.32422234280043777, 0.25165079123894135, 0.4153770622378393, 0.0004089840851610052, -0.2617332613904148, 0.2675164799687215, -0.10097205071215776, -0.25410515318799526, 0.06086564684574289, 0.3890114112638966], [0.4802334234437975, 0.050640419125276726, -0.47869535344646796, -0.3099562029975059, 0.2905980803042937, -0.20400133128307207, 0.5000272563758646, -0.03619043746340053, 0.40225244287085754, 0.18263139434691827, -0.015479402846523844, 0.26257329469717644, 0.1697253195406785, 0.48426435031012344], [0.0940179616034463, -0.35664258520007214, -0.03985186712000467, -0.48584755191063905, -0.26729510665549144, -0.4576993072927833, -0.47211801226838285, -0.0643719043370051, 0.4565918492048951, 0.1292464294037347, -0.3457520194346144, 0.11335997661944344, 0.24296714394891716, -0.15837620643409653], [0.05518951655369948, 0.19762089294559995, 0.048459707384088065, 0.3118943574376187, -0.0025758882955604777, 0.2411548789137899, -0.14740305956870106, -0.21111183396933167, -0.49433071134167855, 0.08129778110977337, -0.40324178718036985, -0.013700551151066385, -0.2774684998411186, 0.2803936721965368], [-0.270109849981015, -0.1950167255436125, 0.3421504470189649, -0.3232682924415009, -0.12992049508448184, 0.4893761517997117, 0.48508807532347925, -0.4698368620689015, 0.4055237610557003, 0.07234149230211563, 0.01876651902936351, -0.2605180754177825, -0.26349201105075054, 0.22214256197074164], [0.3964460236052444, 0.07235050973683663, -0.28914320447474084, 0.13574853537670445, -0.48483241531788895, -0.33060812065514045, -0.4328531096938994, -0.3824590883479268, -0.39978702959872126, -0.18020265495209215, -0.07511465788776578, -0.14695270899943266, -0.128962319597122, 0.0755862021231645], [-0.46363842029156377, -0.35670499051983706, -0.26297692969128955, 0.0015046004619231426, 0.38185740182048533, -0.12296743684852088, 0.41156611164174467, -0.18397723116781187, 0.13976490456438587, -0.3708747036120496, 0.04469009767945509, -0.16626273917135542, 0.29190528645495695, 0.4655670866882775], [-0.4481730316428484, 0.09298589229086486, 0.04413618214685854, -0.08612829354182917, -0.3367176376010233, 0.36593663964687273, 0.29955547990943265, -0.06560683703730316, 0.01690688344952508, -0.4645796309296239, 0.09748087977329528, -0.2621654638587139, -0.39875678877443954, -0.3143605749514499], [0.14617222278653377, 0.3557149923522334, -0.08181944826537331, 0.39078234697891084, 0.12420261813241018, -0.26381875653796544, -0.31965512827152354, -0.31573147085366177, 0.12456889865982652, 0.13163369944902364, 0.47514508396574084, 0.4921272250688635, -0.3392562812736209, -0.15223621294208523], [0.4552536177599026, -0.16446352403123946, -0.19472745060944535, 0.4622584119983422, -0.005162885517228406, 0.1641194461782556, -0.13842956729073536, 0.07898220248667069, -0.48959759573362455, -0.14691156630115568, -0.44589262942947444, 0.16380489376963392, -0.4756147983984279, 0.3670824437910391], [0.26785411947678633, 0.4742253398471895, 0.15950092412018183, -0.24047069670981602, 0.3367665916358882, 0.1202368870445567, -0.11652390464207146, -0.4207530260958493, -0.14696895235978585, -0.3794986433294527, 0.30734325467124773, -0.19030666434424418, 0.3183654823434443, -0.4167430999204684], [-0.2224924062999733, -0.36123024704743173, 0.1480523217579146, 0.34312070743941153, -0.3388741164669691, -0.4799073945272539, 0.47330016797206115, -0.02820063414857617, -0.24130612441551016, 0.46574401897816814, -0.14291215963925027, -0.3016544521618826, 0.32428582050815624, 0.41626680443941383], [0.41847785477630045, 0.040823595058315724, -0.3595203381318176, -0.2670018827166988, 0.10650139027996201, 0.07793447112092537, 0.4745591680421195, 0.15391215540092054, -0.39795083054864183, 0.44720864848330355, 0.3944099924064188, -0.0949264570041332, -0.0021955074972910536, 0.033987041209290074], [-0.3832450996672536, 0.27178591037287536, 0.053233443200178344, -0.07374050277625058, -0.27842184809889553, 0.2733775766006085, -0.49780864654253365, -0.40947750025758495, -0.3399939410840377, 0.44530257622419595, -0.4879181639729704, -0.22719016836377529, 0.05784800317639359, 0.07514938515132988], [-0.026721141129352824, -0.12279689271627309, 0.339875229833835, 0.26832659678264753, 0.4192186155791988, 0.09501988339104604, -0.19587182133426856, 0.4001234933729194, -0.14405345303689648, -0.35722042876654525, -0.3552345402699431, 0.4293741238752023, 0.23625085113981967, -0.4726567732097612], [0.06768837872208483, -0.26184211003534336, 0.4383485237455041, 0.0032233088585717005, 0.0486258749092565, 0.30955647087325844, 0.03818297050566766, -0.48645507239867675, -0.11794806344697968, 0.3887444269442363, 0.2795231775945327, -0.19012395218812905, -0.4316745876897882, -0.17946179098874582], [0.212733371806449, -0.14842613905276772, 0.214434027892293, -0.40840505921437376, 0.2598036230837711, -0.013149202578986332, -0.05565127707751301, 0.45068092921975034, -0.3173000892108693, -0.31426545487992585, -0.42248434319890915, -0.2564887409817756, -0.18994382719060482, -0.3256617092574023], [0.3445276788869581, 0.07169489971464915, -0.18257187365404706, 0.478433540756181, -0.11293709621554951, 0.2974145286282361, -0.21612136112124705, 0.4746835701134636, -0.35547996816521954, 0.4002628446377277, -0.20215893157030193, -0.39979051389038733, 0.14574368474019744, -0.4850350854274151], [-0.3830536528775751, 0.4800416186129754, -0.12937416892308312, -0.33071604494904266, -0.06069592754423422, -0.02214464671626074, -0.3285702164626136, -0.2062910184536128, 0.21531855769087763, 0.29925587013301846, 0.10012257725003101, 0.3168366132927818, -0.22574495588491916, -0.3345907904492708], [0.32160119516378316, -0.4208519007355234, -0.012294058464565653, -0.23462379323094718, -0.3943898094053835, -0.1684942375394899, -0.4978435383768226, 0.1404259543250345, -0.20649096603411965, 0.065398938338652, 0.11150358054601217, -0.30572108975243045, -0.18156191446243403, -0.16546604004521173], [-0.2950843290333887, 0.4556064155925415, 0.12971261023432415, -0.4133601448008283, 0.42059499309297316, 0.19270405503910806, -0.04820377680466074, 0.11333704799347302, -0.1022174436343658, 0.23635632739264037, 0.17860204957122738, 0.2206657756222053, -0.3973966965788605, -0.2878045501580039], [-0.3030469484278757, -0.3613176532524436, 0.2926890563239654, 0.2666504750791993, 0.1166508510717093, -0.2796604544887526, 0.4654812426351071, 0.15496637509881944, 0.39141881865212996, -0.186894611248724, -0.12632039125871353, -0.01761101721716324, -0.3811704091374683, -0.3276262389808274], [0.1656532101463522, -0.07300591690916769, 0.10180257266707875, -0.11336777018061955, -0.017496136575275184, 0.19854328820983702, 0.07351476602392257, -0.3506847001553237, 0.26408728825006356, -0.25482892966225135, 0.35959371490633385, 0.23147497986317364, 0.14499061083127754, -0.4485009827301482], [0.007456847314024295, 0.22627739480934522, 0.37535261310262635, 0.16977312936056435, 0.04946424462638077, 0.1985454426300011, 0.3578742506572591, 0.2775611934163132, -0.22023138152303315, 0.38151774354482076, -0.21252948537100355, -0.34925621736593637, -0.2446108196699911, 0.11334065442624564], [-0.2833597985714028, 0.1961772770201856, 0.3738093783957842, -0.024113651881522705, -0.454580605432388, -0.13998627569169797, -0.2331297444288314, -0.1144789734568739, -0.3348370467868604, -0.2057918215274964, 0.30977148490420314, -0.08140252559524133, 0.2812097370315998, 0.27728000162817107], [0.2296913750824165, -0.26805000742331686, -0.13297893983600761, -0.28909241345610376, 0.4760370974436205, 0.4485571316939666, 0.17943507379153578, 0.1503803279645459, -0.38507555754500045, 0.3219434662546982, -0.4936738911768775, 0.2844804108461203, -0.3169890241346382, -0.47113573093381383], [-0.018363925781234275, 0.46046658729973694, -0.15187322077957655, -0.01778881592161353, 0.04558280813428439, -0.05397316891394673, 0.4150734008007065, -0.08807539317658314, -0.23063481830080645, 0.25443767473648854, 0.06195053224147284, -0.16838925281291148, 0.32716916654458617, 0.3048864659394074], [-0.32181165283607516, 0.29300484036651225, 0.04910666542855189, -0.2804752027719002, -0.036212512793144275, 0.3107376869854715, 0.24050545848725646, -0.38897237259178163, 0.029247578604532837, 0.25838100282399973, -0.11654474814939479, -0.23182758362610217, 0.3640621554416153, -0.3350608270273535], [-0.346463790476846, -0.0031631023397274334, -0.47879043587961734, 0.2512820149685653, 0.04888917349540496, 0.29370604094102587, -0.3356919432170908, 0.02390709261419366, -0.2932288658847893, -0.17979217727957622, 0.2897764510293503, -0.3048570042451708, -0.30300787216165304, -0.37189570835549046], [-0.2500118476137595, -0.03382696394762516, -0.37785594087866037, -0.46742908445904996, 0.23656409578829463, 0.005219706285546155, 0.04779512039456862, 0.2689468571853227, 0.4084793369948045, 0.06493827615321897, -0.1853736427910967, 0.4666940705842942, -0.0352878899939662, -0.22875659109132554], [-0.02603118714744038, 0.004612795881761364, -0.1674279789579886, 0.31688741980469043, 0.459134579129529, 0.08533507106198776, -0.09022051789814753, -0.15183895981708334, 0.2220365893461782, -0.4686996587383238, -0.29124460314807343, 0.08390815544249884, -0.1594989731911536, 0.27747275931284454], [0.4301402642332103, -0.42542960420507075, 0.033707951359193626, 0.3547579896809932, -0.10001993808432467, -0.3774406653935349, 0.06926204526089685, 0.29826200612777565, 0.3409023904144967, 0.13747202348620496, -0.3874934969357106, 0.24642691372302428, 0.3093443357976215, -0.2129123966597826], [-0.33023877777214516, 0.29642418010568927, 0.09487690893971823, -0.46879373575745076, -0.027946994609912307, 0.45066498236750835, 0.18264906610392256, -0.24174431609633953, 0.12223034296385095, 0.37405961667341203, -0.47618926459481814, -0.27630883335889234, 0.03921186527514414, -0.38677840930367113], [0.3832892956474343, -0.05380696317117954, 0.17282413371264965, -0.033435608050779844, -0.3448356665888477, 0.07153653577776813, -0.23560897251352392, -0.11371237323580455, 0.2821314831529578, 0.1168301016968303, 0.16345147524214013, 0.03924524953837138, 0.3202877297825249, 0.08153124607263333], [-0.0368062850063656, 0.2865594142653645, 0.009882203511377575, -0.285466451873875, 0.42810612852824786, -0.02554450431098652, -0.3574477831918735, 0.17645615143429608, 0.48354448517593773, -0.15178515883414698, 0.48347921777505914, 0.08622685202557234, 0.13613513397160384, 0.13094274072673456], [-0.10956459348034851, -0.05463612560775296, -0.06691186396774815, -0.008389328356148331, 0.41286867308341624, 0.13383712125479838, 0.3637257443127177, -0.18211664727645066, -0.08416571716906342, 0.22917817300574198, 0.21162290204783304, 0.19554578774526124, -0.33333755313071955, 0.24636113369007662], [-0.27662777672670547, -0.33621345139581205, 0.04967083877802197, -0.09817952571125231, -0.102968710788192, 0.31692080788522853, 0.17632826790988138, 0.4312476794170269, 0.49079175001255154, 0.006061813319116821, 0.18744336837380168, 0.11188651644272965, -0.22899181277259395, 0.4615133373157499], [-0.47385186504100674, 0.11579229048367114, 0.06591994389151683, -0.20204563187531815, 0.3346008940665421, -0.16058580834842318, 0.14367311073725547, -0.14117638086345, 0.213565357005457, -0.3732368690554298, -0.44514268009642993, 0.2760111578571331, -0.47947178533532503, -0.34175234974633234], [-0.05275327824951903, 0.18191036159423007, -0.2019155017980566, 0.49439564759856974, -0.3161233681954033, 0.3867911072401891, -0.09939661882578758, -0.04120763184322529, 0.3912746854534279, -0.2629916709748207, -0.17360471250209444, -0.2670839277897204, 0.01549731723046295, -0.26560311163238143], [0.3256171622384219, -0.5005745539484076, 0.18311407327230889, 0.363930791872268, -0.3494567909660107, 0.4455707974702794, 0.12397212935066364, -0.16045562814280548, -0.32393766328400336, -0.49876496987928015, 0.3697726756925685, -0.14942254151169249, 0.47813656285932954, 0.33277921457513265], [0.34781027598337816, -0.24489905128170122, 0.060562472201229095, -0.358719088467869, 0.19958679398225654, -0.36434068626609684, -0.05127467403116514, -0.032540033438416834, 0.02370148166368197, -0.34189490545449697, -0.22704724134279808, 0.4752427566266296, 0.49733065313970526, 0.12524329227662423], [-0.3837592811450763, -0.12601886346044008, -0.0650004316826804, -0.4943681596464762, 0.11640136706669185, 0.24187346658396516, 0.08956446310137653, -0.23573797254609277, -0.2258780816236045, -0.35975901258930326, -0.24988253453392753, 0.42650578591313715, 0.024503403958937388, 0.010142927081247836], [0.432289528802724, 0.3599611630584646, -0.11913864524242346, -0.12926341942193562, -0.4014277977784971, 0.3092263567381105, 0.3733327345974218, -0.39047053756651495, -0.49226456503966914, 0.30281214789637995, -0.0923336029050153, -0.19160771346058902, -0.3203846587417175, 0.23919490175453556], [0.2064247729929472, -0.31908829101431296, 0.42861869646831413, 0.09388682988688915, -0.17977496761523612, -0.280057347904781, 0.4761247105046688, -0.10889743187044769, 0.4494292740589715, 0.07740692387028358, 0.0759851055474872, 0.2382985344378112, -0.0384893307552567, 0.39072261957658927], [-0.4149721961658239, 0.29763057882838934, -0.3344074882556845, 0.0897995752046765, 0.3472759034167729, 0.30173594917036684, -0.2346620591891153, 0.035079197818646726, 0.12937050512042766, -0.19863942654719063, -0.1886519124816919, 0.4262836160026529, -0.3614914676393903, 0.38626039463685863], [-0.2619559888201468, -0.2963502241986496, -0.13642589595807514, 0.24933424389998735, 0.1811597136219085, -0.041731975875979356, -0.15577847440487505, -0.010846777501508299, 0.14848711102851095, 0.4545718400941414, 0.03475342180623168, 0.4395374575939237, -0.25681041175230457, -0.2610884148952721], [-0.3877719723451931, -0.03888196636207743, 0.36342489450018967, 0.3134171667819669, 0.2650516494295946, -0.011385230199752613, 0.19566048735474822, -0.007955073713518423, 0.39899603749569307, 0.10798978320741517, -0.2941633641332155, -0.46099129392415017, 0.15150597583433106, -0.37909125226772306], [-0.3635448387054168, 0.37356927632989684, -0.1353276902828507, 0.3912132192864392, 0.001950590407885833, -0.11661098278468368, -0.48860542697972587, -0.47561506933360126, 0.23586011564867312, -0.4616763875299343, 0.14107481613281478, -0.3206974367378087, -0.45424010635327283, 0.20304615078941726], [-0.01527460841945873, 0.07746136062702502, -0.3274058816558093, 0.04956374752574079, 0.18451326182104286, -0.4731213306714929, -0.3557125710867386, 0.1453238124297527, 0.1400432361674053, -0.34171247830103285, -0.38251382132374767, 0.3771777916476354, 0.4957249638386249, -0.49282522793439115], [0.20492632304788838, -0.43775094949238785, -0.04763520539493709, 0.2844708695213096, -0.4934522436287541, 0.3397906420514388, 0.2752833203184747, 0.20723577906309346, -0.3892221395974065, -0.4739597979564156, 0.42742744867337823, 0.3084820252696602, -0.06482751238033382, 0.2560866063236417], [-0.47599022313325645, 0.44110668660774155, -0.4292642050902285, -0.09452815538068503, -0.1092884693939945, -0.13731023137764953, -0.37533239512162914, 0.3460111318368115, -0.009787884308474073, 0.41094632781166074, 0.0013402164678308541, -0.03971035180209808, -0.42167909403179715, 0.35463543050779905], [-0.483694499851547, -0.12398771649714066, -0.32711285058159506, -0.2977223461324006, -0.4238357071868304, 0.45992077578215407, -0.4590573972740221, 0.18748660710197948, -0.14820009331637768, -0.12480246924658608, -0.33893340691813645, 0.09065834250496607, -0.41273514705862324, 0.4592787388859532], [0.10755010244918896, -0.06896404561205396, -0.36733163107972316, -0.005068176993238162, -0.11647043286671853, -0.222891260821489, 0.08765936435257747, 0.09169651285407097, -0.45775163223043813, -0.4887465634190654, -0.08716585342161008, 0.040508491614561666, -0.3528451168947642, 0.1899123954849811], [0.11809953118113614, 0.07201377478128956, -0.30886614932532125, 0.0709874380959741, 0.38469171587896667, 0.3805599669533315, 0.46889259434802594, -0.3637278118083391, 0.13714058772084695, -0.4762558787712445, -0.07581698884196307, -0.1923249136569237, -0.38939689934602506, -0.4153192611659407], [0.15644508043087918, 0.14819884013103524, -0.08451156632782511, -0.4776591193282682, 0.29878547939922684, 0.4260757841302413, 0.41501738868089016, -0.08159911910069671, 0.15986159045402665, -0.04498616444930172, 0.3682800257587732, -0.2616224427790878, -0.30204406558346114, -0.40034244817557896], [-0.28575589955268615, 0.24641467457983943, -0.3015811707950463, -0.12470627239565515, -0.42013787502119126, -0.01891918173158064, -0.3333054722767822, 0.47141265234070456, 0.038781945400910886, -0.3358200737027243, 0.19247703593677196, -0.07412984233650348, -0.16952112849387424, -0.42705493104254844], [-0.39707091966533026, 0.4935287768390622, -0.1697727206882504, 0.4651390310253836, -0.42533654044416874, -0.3916092245377863, 0.43447666552137615, 0.28548957082368015, 0.18686232798911812, -0.4579770220858153, 0.38974275493421723, 0.4528837915808094, -0.2107752664070128, -0.1321158396879461], [-0.047017595906189515, 0.09489517802733338, -0.16583128627947852, 0.3163827950844197, -0.055942313145828454, 0.42589526689453383, 0.0224513057063037, -0.0687256219289155, 0.38385789293164313, 0.49926665529776915, -0.05566407867960535, 0.4954327879313932, 0.20671173559339787, 0.4686241872575674], [-0.1850084900821418, 0.09896834947937982, 0.13037398153606103, 0.27150911531455757, 0.296310279794557, -0.28252274777939507, 0.04610713811478095, -0.4234814536236704, 0.02959749396363257, -0.1792909295180129, -0.4618013554626316, 0.3615409036700813, -0.13327511116785343, 0.2449118972567785], [0.36410493426332585, 0.42135872542630326, 0.33631678588772945, -0.15812621000290444, 0.4891812509625296, 0.20134868106017972, -0.36665229919896986, 0.12537991494069345, -0.22126517953039415, -0.2607671761674237, -0.4779438998282012, 0.05620430648601323, 0.010197866449232765, -0.2095960120726318], [-0.20080231252189704, -0.022440412043366147, -0.37878801248185445, -0.2998459112614367, -0.01826054302269024, 0.46723525365682333, 0.38378967842890915, 0.2542087582304375, -0.31210259379458954, -0.09177421235909716, -0.42049164073273215, -0.11141563879468526, -0.18787473639552835, -0.3787235057951584], [0.42289333319560807, 0.07432530140812697, -0.21704512595109668, 0.012849759976285475, 0.2956500112527053, 0.02615169424325534, -0.29503565090429723, -0.043977643919938234, 0.2913177734920457, 0.22216923877432115, -0.3347698228904956, -0.45639230171692025, 0.4489386662383979, 0.057176409506417954], [-0.01151292790223582, -0.21251282881227643, 0.27611931893972946, 0.022270602407668108, -0.3372106915673696, 0.3033411158239383, 0.01892357485781218, 0.06629478260627411, -0.4860527665243758, -0.13072009366011017, 0.0677608422604356, 0.21629535229139557, 0.23294561397840516, 0.25363639489156803], [0.24336380120505643, 0.12804543419498932, -0.4168690317637325, 0.09498202124926754, 0.11643742604386738, 0.033352461072492394, -0.18182310599365797, -0.4590977764104867, 0.05872306808785037, -0.4636977967575771, -0.19888406163184363, 0.085362515995443, 0.4640193576988258, 0.33803422340129274], [-0.39267000722025314, 0.4024877232089896, -0.4415960160450789, 0.20371262157908263, 0.2419647588552714, -0.29259318460482997, 0.2902725856693979, 0.4809349613623113, -0.2112935367917915, -0.312755278212071, 0.06200244407840838, 0.1714783102242023, -0.24768400757245831, -0.2682842968240564], [-0.033003843536176906, -0.380644181035672, 0.13479057060112218, -0.10527627026268489, 0.3653650150815456, 0.47676779090189747, -0.25424873123477354, -0.10897060323534254, -0.21237776115609264, -0.42549164206591905, 0.02552991195220739, 0.1522113359414832, -0.19070967550687848, -0.2421601971136536], [0.173152227499931, -0.24414462330591266, 0.20960978080230164, 0.18366973592105923, 0.03530538227973665, -0.15498290499765444, 0.35128014346065284, 0.3586490239393638, -0.2334254322716643, -0.005124317958373675, 0.23497182512183915, 0.25392473972624274, -0.030518346877616908, -0.16962525339388002], [0.23715001176437378, 0.10059041089697297, 0.14704702963601088, -0.2500974826468448, 0.49854819626225744, -0.4356179524241985, -0.20959417730791421, -0.2795288305218184, -0.4991103153937822, -0.023435556841949402, 0.4304750795409043, -0.3190536864363338, 0.15916253799806662, -0.014266408806113256], [-0.07324022490768638, -0.05026345063007505, -0.37090144958391214, -0.4942904285869402, 0.39770168108642207, -0.12311572761484152, -0.1593177455373138, 0.15238498946659282, 0.05606941669189133, 0.20030992567981146, 0.10247580485657513, -0.3254744052625235, 0.14060359082604942, -0.06735265877744459], [0.4482035252417563, 0.07215558838098557, -0.16863596192601893, -0.12374780484219412, -0.14755278625365326, 0.11407031620813207, -0.47641255308426456, 0.26227726075416935, 0.2710987456802177, 0.3123564435204181, -0.4651227963879819, 0.3441759770762623, -0.2944566228511412, 0.30150421770665364], [0.15909166970719774, 0.2033294873371015, 0.03993191786933262, -0.09681060911496295, 0.4640200544171163, 0.39983203618737384, -0.3557088286233692, -0.4264090288980576, -0.48409725798830905, -0.42401990741553464, -0.13594828987921326, -0.45313731499323107, 0.20199535197837132, 0.3901116238164427], [-0.3448553729042057, -0.05152595028549087, 0.32244896961310476, -0.03191640537126715, -0.11282555402639384, 0.12756294604683077, -0.20119373571941043, -0.41705593693086696, 0.31133208532552115, -0.2077965856604711, -0.25314971409884546, -0.2563646262990662, -0.2601780555280552, -0.3462911038873664], [-0.24517374377774237, -0.25223543650091573, -0.13481488433125777, 0.1137035281272053, 0.0852009041990327, -0.4007310865451992, -0.2711479265340423, -0.017638275814940707, -0.03831279049717773, -0.38819599426668194, 0.07469223647566614, -0.46039055649146154, -0.37628285893448077, -0.30932648613084546], [-0.478279486978967, 0.17976768374539145, 0.22549897709452735, -0.4035990609860822, -0.3746747564788787, -0.44128966033285266, 0.10022400452901034, -0.3550242705125794, 0.35409021284826936, -0.09028240409319765, -0.4965079638026225, -0.21602595616355447, -0.4350512127921572, -0.08408023409369979], [-0.18010295056975917, -0.10952451115893515, 0.04159432923338152, -0.3434902592708247, -0.15236104448232532, -0.3890349937280177, -0.3981020270225323, 0.2626489223097969, 0.3791594198029051, -0.4360874388978187, 0.46298223263455324, -0.057549311430500266, 0.37624657242154164, -0.13813235124909423], [-0.01643780101234948, 0.25602913402073835, -0.13723170499259518, 0.307755283038238, -0.35317359306973567, -0.07008059032606498, 0.2925993865900757, -0.4200231927364659, 0.3800095154295872, -0.2607932389676591, -0.47391649333412245, -0.4713490505754534, -0.08376057962300092, -0.09986998144446509], [0.0980475912543931, -0.4635619580075355, 0.37736548891589267, -0.038185348886642274, 0.23519350170867476, 0.19148084243651586, -0.451097745503027, -0.2832522151474788, -0.4887402076925089, -0.09872463397708225, -0.32098147135198796, -0.1844091784951322, 0.4612908555865054, 0.27082476343497824], [0.08506702740682719, -0.44257728955971465, -0.04935304316373098, 0.28588662320503927, 0.23690657924819733, 0.37695896522979017, 0.4355722645261082, 0.26221370736646693, 0.2742146447346835, 0.321656680088823, 0.31352244168712623, 0.22839893424363855, -0.2744653057369833, -0.26247315224206635], [0.005285381533288788, -0.48593891351531576, 0.40776857341421074, -0.47643168529867536, 0.2970997831511703, 0.3726740013558154, 0.047752281818340736, 0.09511410794196096, 0.46765399825128057, -0.04040507731383174, -0.09968388669613039, -0.2878590025027102, 0.4214330083184574, -0.09791225043774632], [0.2272724781434266, -0.40548001034238096, 0.27103807334248126, 0.3704043531550117, -0.0783787956665076, -0.46897417132838753, -0.2509055742939953, 0.34871822654974577, -0.27641897362629936, -0.08190561154285432, 0.01306849247277804, 0.011504135234098602, -0.2516970877250033, -0.37285359649307465], [-0.09506877816537938, 0.46312783677220815, 0.2856847865361715, -0.2435818592923677, -0.009774485395864662, 0.14836113009121288, -0.0060542026773205216, 0.1173743137936677, 0.18484234915376513, -0.3970924944775389, 0.15338017930033326, 0.16564947897178112, 0.18393473269090665, -0.16002914047359826], [0.17708225138126282, -0.2106469844615952, 0.10419148723504335, -0.4874739254026225, -0.4535498882289406, -0.2527349441709297, -0.3116369581452155, -0.3252815534407946, 0.3366804858876842, -0.4068290965571313, 0.45536448679786173, -0.32923122743174615, -0.3166598879956814, -0.4190479969442941], [0.4126885052256841, -0.36358586682561717, 0.258483996015033, -0.056177018758574636, 0.302975673918559, 0.006119548296952144, 0.45170546834542213, 0.11206266220782271, -0.2427414984132034, 0.49582067880758507, -0.09614709079700659, -0.055344210768334366, 0.29290557675545204, 0.4660453169140509], [-0.409355224308724, 0.4849779655564344, -0.3465549386852287, 0.38023426890478557, -0.08167770123249658, 0.29411954468452045, 0.14090833971534353, -0.1692889893233166, -0.1337745017847309, 0.35248807239780344, -0.0366439063310526, -0.092087901048226, -0.097405645409504, -0.36418384394162195], [-0.08306442505880893, -0.3941722129841122, -0.193209095389154, 0.27698413863936866, -0.13703790411883401, -0.17188041300244267, 0.32785943655596134, 0.28394634168374894, -0.4539957885500922, 0.15775197506860322, 0.470243659317382, 0.20328040236856687, 0.0044411932223824245, -0.03416926123158466], [-0.4681860063930009, -0.21381719173156055, 0.30997444666789054, 0.32995662264159364, 0.14705983589373242, 0.3741699784105579, -0.2385695484069959, -0.18493780327716258, -0.05023487023550572, -0.3602131134310046, -0.26408343168304704, 0.4276343045416221, -0.007548842068560162, 0.15826035844070427], [-0.012163339661011283, -0.14980502941864546, 0.20243196485289644, 0.08829641137276874, 0.12162152961948752, -0.2245332343731155, -0.4057145388937998, 0.21553693871174706, -0.10284987095730484, 0.27238342763286083, 0.1854403768849091, -0.06556808902482518, -0.4052567936772215, 0.34809532580414543], [0.3543348663176528, -0.36313429776849954, 0.4060976491776271, 0.31846470219028883, 0.33581132265410973, 0.4948913962440972, 0.0031240147274398116, 0.25883929501368774, 0.2524896928936611, 0.3204483675867243, 0.03638565781958762, 0.37377455619280053, 0.4823066796178098, 0.3849858944208184], [0.364975971341186, -0.31144435893000644, -0.43882235254653146, -0.4340829749237646, -0.15856209265701404, 0.08634975997985705, -0.3711298524556197, -0.2627979059694121, -0.4036491627258636, 0.060576984742374496, 0.350979413442279, -0.24919732453985854, -0.18554684133916777, -0.2832786230721889], [0.4635126010651931, -0.010744970682088689, -0.03098152368003213, 0.4845817755556555, -0.4834474030046682, -0.3696654743687056, -0.28028002101348115, -0.3202728843820801, -0.05734190602235371, -0.13170606739910137, 0.26989886986878636, 0.43003772839453963, -0.26728174810934646, -0.34681249268135644], [0.10378662000459227, 0.1387984585584317, -0.47106344933430483, 0.04236016002518654, 0.3189835575940255, 0.018010290554201745, 0.2701146600649106, -0.21332104184777476, -0.44424429819244643, -0.3332982484921357, 0.2312623744984334, -0.2465036153426036, -0.026596021518379056, -0.061091350380061846], [0.050439979563865645, -0.36430170022080477, -0.007437210740404202, 0.16388879548512897, 0.4622668868822294, 0.08798628571684874, -0.2722735878954148, 0.4049592224756537, -0.48338808954204543, 0.4685484979631195, -0.10125692998505857, -0.41696955553905724, -0.39819788242497606, 0.18716736401537074], [0.45309177757601415, -0.4320880298445287, 0.42386798340376897, -0.05764470672437247, -0.07447541538548132, 0.4476380297886013, 0.11179240224061504, -0.3644712202410063, -0.43875731046148186, 0.3462747614684072, -0.08520561740624161, -0.17748737002000833, -0.25095409345028796, -0.39323667541849994], [0.35423436959376947, -0.32433025475630883, 0.3241277074192639, 0.010304054269571589, 0.08188279208554879, -0.49331823778704986, -0.07347948624574718, -0.016044697443670323, 0.2243148974205346, 0.001600718419380761, -0.4071879303677781, -0.3242164002369579, 0.16640763931104433, 0.35388865008851855], [0.28786624543952993, -0.3102806709664413, -0.33696334076528295, 0.06312918218222965, 0.4986728113546003, -0.47478777943314104, 0.18607424840933753, 0.4707087332420427, -0.26535258870482914, -0.2536492491187782, -0.37914432896303113, -0.25263316062791613, 0.4291409985354175, -0.04380232967518323], [-0.2937566947506891, 0.03623513319633085, 0.22873353431892027, -0.09350870627440676, 0.24949081509241783, 0.39324457065347984, -0.2833550795075046, -0.19405252912964097, -0.016739234745399158, 0.4130969663547362, -0.3226826379602619, 0.2866699684866396, -0.3350747201240393, -0.4986529385211826], [-0.11245570049551303, 0.2380237754349828, -0.48278369274959465, -0.26066062479309804, -0.09001047856372607, -0.025457114965805452, -0.11442864918804038, 0.02038540273651076, -0.12432902688597618, -0.2730764286622136, 0.18934458144858768, 0.2650426092792915, 0.38527657378818225, -0.4535187294275928], [-0.30405502004117696, -0.028689689366830116, 0.20195675912128158, -0.2567096143593941, 0.0006113366443756704, 0.14175363372069025, -0.4522267093661031, 0.22876242367330787, -0.3439768787782661, -0.04770514382226115, -0.22749068729045724, -0.47210087349447905, -0.3728071616319339, 0.28892015253801784], [-0.3958438259821035, -0.1776877477923029, -0.16480423061414376, -0.05843027265900348, -0.2965772975717302, 0.20002695923532549, -0.07247399648921105, -0.13371165798682566, 0.4310937766442845, 0.4120391072929202, 0.09466514415037112, -0.49862039005400843, -0.1612347947757316, 0.4161381935177944], [-0.38174151057254596, -0.1829570718769671, 0.23085085429940566, 0.02987106069330421, -0.16592989654800855, -0.08433777588088244, 0.1593485654997424, -0.46326220250560646, 0.007676951358771966, -0.08835758988834748, 0.294546818025415, 0.11838568685438465, 0.3860804748092307, -0.17961937769187503], [0.22238320573269266, 0.134279567575577, -0.11763419981796397, -0.38776795302084727, -0.0002581945988716517, -0.4309454541074117, -0.009373624691791071, 0.19381359550796604, -0.23512816225859062, 0.323183989055839, -0.45243304490752867, 0.24886733236654704, -0.4913137653234006, 0.049312646067346366], [-0.4871569720869356, -0.35993813532239133, -0.07380236296062286, -0.05787785094890678, 0.2683506844875981, -0.4781074875478748, -0.3272196393472595, -0.38736381922770946, 0.28955252148616445, 0.4852013111038706, -0.4792693453780268, 0.49170052364343875, 0.14228818620024686, 0.02830521727602274], [0.2887871135132588, 0.48075139944565737, -0.170090429200728, 0.037750403980440654, 0.18600873950683805, 0.18868859309724853, -0.23051110154404575, 0.2430215349184053, 0.05699654621505578, 0.00640958901878194, -0.4600575613893814, 0.2415566015614955, -0.058971901627746376, -0.11388642893496634], [-0.09466137923662671, 0.2427415841278206, -0.23833575812218505, -0.11127714955885397, 0.031409916805532755, 0.09105477647058562, 0.4589302703245867, 0.0849976222715853, 0.06931563491755774, -0.28703673605273156, -0.225005871996435, -0.27883690394015004, -0.4440124158314264, -0.41348875849085837], [0.22537556192415228, 0.4222919201320861, 0.4997738194154691, 0.4572103902945483, 0.2300196968778058, 0.4780355145698826, -0.214402884559209, -0.4706766325990487, -0.015893650551816806, -0.30601608874689024, -0.15664905316022062, -0.21620253484249083, 0.1901759125508015, -0.016867832746023], [0.053059577403243526, -0.2786905881906402, -0.36845855967333785, 0.036347302404856584, 0.4220892602307987, -0.2550793058607037, 0.42284386262567125, -0.46981345701444766, -0.14058588473518, -0.3207443134902885, -0.27894697087043874, -0.2607884436708925, -0.07115808038242916, -0.055159221795676595], [-0.2548753285275046, -0.4679041831846925, -0.19948135781830967, -0.4768455105004087, -0.3281091957395684, -0.151934990846326, -0.3231912591656494, -0.47632780078141834, 0.26392573328648283, -0.49692233262530383, -0.29765731070391344, -0.010885565496466132, -0.27309210813689444, 0.28919356412833686], [0.28242929211224393, 0.4620315092722454, -0.3655947998202713, -0.45080837056402734, 0.07288685381132165, -0.032085008843165695, 0.3645812408740221, -0.008771057087680398, 0.01721602452575504, 0.4711461935504972, -0.4998365423574146, 0.33775504635283743, -0.24247567343810067, -0.20867470376411915], [0.29410483772690843, -0.04462132521750462, 0.19616906069036227, 0.006891863370065485, -0.34968289679252496, 0.3985502108141044, 0.4853618303978326, 0.12406829848901013, 0.21927005417278472, 0.4001020807690201, -0.4982573269655754, -0.17217258968291788, 0.018488359027817505, 0.4564455374212591], [-0.11076914457291125, -0.02082322038402282, -0.0012736931458439237, 0.019929969490365, -0.42656195341056813, -0.17668545839456753, -0.4937857813964384, -0.35587128953652364, 0.28474317167532015, 0.07069426364504294, 0.49317172879521076, -0.40134057897162717, -0.18800210718279656, 0.14114866465022735], [-0.07978861292809805, 0.0975941800822993, 0.1706131926325777, -0.2589969506432314, -0.09280365117258671, -0.22525015070676851, 0.15470210141952054, 0.4733593897936526, 0.10290160825987107, -0.43308655223873377, 0.03734927117620536, -0.29597057352452066, -0.2706100388536342, 0.38030654600879066], [-0.2121446665041172, -0.28716258802787914, 0.10635483444082235, 0.48496457241198093, 0.3180686150488418, 0.19112582481594886, -0.11293649305267096, 0.20991834630187525, 0.272623048022865, -0.4768706208123434, 0.22180523437383817, -0.05224650556708269, 0.34836208543494707, 0.11580826959785856], [0.4037743936572477, -0.31880135147915345, -0.15851489591546214, 0.45341950792289215, -0.2120400224195123, 0.28958339696969515, -0.32770647849676154, -0.024848498499318306, 0.29983699658527185, 0.4187114741589707, 0.37934071511968054, -0.07776356140018517, -0.4345189512629387, 0.35247145180447675], [-0.07360050852661452, 0.3670858822210886, 0.010363110825607738, 0.06611923855624094, 0.15209140363483667, 0.19656566424463245, 0.05650568383626188, 0.3521618830223091, -0.21330781440075808, 0.16796072304321863, 0.30075017878613786, 0.34946983720430463, -0.2899568824748668, -0.4721608942939893], [0.1051432798207644, 0.4949791893844042, -0.1865752492677049, -0.1325033843793292, -0.29177890240478827, 0.3782475194300477, 0.05083637642598698, 0.12532988230353415, -0.4921719711323834, 0.014036333553305596, -0.057814821366862966, -0.2810448299497879, -0.4469399631262313, -0.04234378228167468], [0.46266399504603106, 0.24058382451508684, 0.10317573929058936, -0.3754420792781459, -0.4623572735620961, -0.2041257481159131, 0.28384746938933003, -0.4948755040115297, -0.22199654644746444, 0.2986142386896962, -0.44020414984922007, 0.32585783910059873, -0.011390792541887773, -0.3915595201993183], [0.3971251192716404, 0.0633574878538216, 0.41024678102992496, 0.18362081342718647, 0.25564151036796956, 0.18060620869195979, -0.36783806473603886, -0.48945205217142596, -0.07705611861462637, -0.39966126132854307, -0.13881111032867088, -0.09526117186217736, 0.16212845989938718, -0.4403884510370746], [-0.04179311569610728, -0.3766286462350637, -0.4438558232569766, 0.43152565238506174, -0.2625587747994124, 0.22043243235655713, 0.008239476060674291, 0.3138655514043567, -0.14573467851125466, 0.2368659042889061, 0.3149240746539918, 0.3192370732553591, -0.41552889295033113, -0.07630431190712036], [-0.09787633626818863, -0.3674931607542499, 